tree
version=v4
num_class=1
num_tree_per_iteration=1
label_index=0
max_feature_idx=32
objective=lambdarank
feature_names=Column_0 Column_1 Column_2 Column_3 Column_4 Column_5 Column_6 Column_7 Column_8 Column_9 Column_10 Column_11 Column_12 Column_13 Column_14 Column_15 Column_16 Column_17 Column_18 Column_19 Column_20 Column_21 Column_22 Column_23 Column_24 Column_25 Column_26 Column_27 Column_28 Column_29 Column_30 Column_31 Column_32
feature_infos=[0:5] [0:9] [0:23] [0:43] [0:1] [0:15] [0:25] [0:32] [0:31] [0:16] [0:7] [0:3] [0:1] [0:3] [0:1] [0:84] [0:152] [0:8] [0:9] [0:23] [0:13] [0:13] [0:15] [0:1] [0:5] [0:9] none [0:11.100000000000003] [0:27.083333333333336] [0:5] [0:1] [0:0.97999999999999998] [0:2.8199999999999998]
tree_sizes=3484 3489 3475 3456 3467 3457 3460 3466 3463 3461 3460 3454 3437 3430 3458 3463 3453 3433 3474 3446 3461 3426 3477 3444 3466 3444 3435 3463 3450 3456 3448 3432 3390 3467 3438 3471 3415 3440 3467 3484 3462 3492 3468 3494 3483 3438 3439 3452 3449 3437 3430 3454 3449 3437 3436 3430 3453 3457 3455 3457 3470 3462 3438 3426 3452 3413 3437 3459 3427 3467 3449 3439 3439 3411 3447 3450 3458 3439 3453 3424 3478 3444 3448 3459 3441 3413 3452 3462 3427 3433 3431 3427 3458 3436 3458 3454 3484 3445 3462 3429 3386 3458 3459 3434 3474 3436 3426 3409 3471 3446 3442 3419 3452 3456 3424 3457 3426 3443 3419 3438 3417 3409 3404 3451 3461 3425 3451 3439 3446 3463 3427 3380 3406 3430 3423 3450 3466 3440 3471 3450 3467 3444 3430 3422 3434 3457 3425 3404 3425 3453 3469 3431 3435 3449 3463 3427 3423 3436 3424 3439 3448 3436 3439 3450 3421 3440 3456 3413 3441 3449 3427 3438 3434 3424 3458 3435 3420 3423 3428 3425 3453 3416 3425 3405 3402 3448 3425 3405 3422 3415 3439 3454 3459 3433 3443 3455 3473 3428 3428 3409 3441 3428 3429 3451 3405 3457 3412 3456 3413 3450 3439 3399 3408 3419 3418 3436 3399 3402 3451 3400 3397 3402 3460 3429 3453 3419 3425 3435 3461 3427 3412 3436 3438 3428 3383 3472 3419 3436 3397 3430 3435 3443 3428 3423 3439 3437 3436 3415 3426 3428 3456 3437 3401 3436 3432 3434 3427 3430 3435 3439 3419 3412 3401 3399 3405 3429 3406 3432 3444 3403 3450 3439 3406 3417 3456 3442 3441 3408 3427 3417 3414 3415 3399 3410 3403 3397 3421 3412 3413 3458 3437 3444 3422 3440 3436 3431 3400 3442 3407 3414

Tree=0
num_leaves=31
num_cat=0
split_feature=0 13 8 8 20 11 11 30 1 29 0 29 10 3 7 6 21 10 11 3 3 22 27 28 30 9 3 28 28 10
split_gain=155.623 20.1007 12.2882 10.8845 7.58777 6.65297 5.29363 5.27142 5.68398 7.86038 38.4419 38.4586 5.91052 5.69547 5.11491 5.05069 4.45721 4.41496 4.30055 4.55995 3.90168 3.92819 3.50976 3.07616 3.0615 4.39718 3.4043 3.0516 2.98074 2.60125
threshold=1.5000000000000002 1.0000000180025095e-35 2.5000000000000004 1.0000000180025095e-35 5.5000000000000009 1.0000000180025095e-35 2.5000000000000004 0.65686274509803932 1.0000000180025095e-35 3.5000000000000004 1.0000000180025095e-35 1.0000000180025095e-35 4.5000000000000009 1.5000000000000002 8.5000000000000018 14.500000000000002 11.500000000000002 1.0000000180025095e-35 1.0000000180025095e-35 1.0000000180025095e-35 11.500000000000002 1.0000000180025095e-35 3.7500000000000004 21.125000000000004 0.56696428571428581 8.5000000000000018 17.500000000000004 6.4583333333333348 1.4583333333333337 3.5000000000000004
decision_type=2 2 2 2 2 2 2 2 2 2 2 2 2 2 2 2 2 2 2 2 2 2 2 2 2 2 2 2 2 2
left_child=1 2 5 -3 6 -1 7 8 13 10 14 29 -13 -4 -10 17 -16 18 19 28 21 -20 -9 -15 -11 26 -26 -21 -5 -12
right_child=-2 3 4 15 -6 -7 -8 22 9 24 11 12 -14 23 16 -17 -18 -19 20 27 -22 -23 -24 -25 25 -27 -28 -29 -30 -31
leaf_value=0.063386638804632148 0.094051195314256111 0.016449357067592037 -0.081971498831993755 -0.025109592449582885 0.050818193308241527 0.015072719167115063 0.062102074621282137 0.0083219606484513028 0.017758411534128851 -0.0055299320516732919 0.074069104488048626 0.0058083207565711656 -0.067050708784308743 -0.003755977544727505 -0.00028170882041244732 0.063361897507486373 -0.078810972721597983 -0.056458543567844299 -0.015784563222352558 -0.063226557206255016 -0.087335384717162623 0.043193343997315413 0.067406714442927174 -0.042921387715682151 0.012083679182668986 -0.061995219536061012 0.070008120244666225 -0.011985557741489787 0.06172031847135076 0.027975173489822144
leaf_weight=9.972460435703395 43.412756016477942 12.507270576432346 2.3409161902964106 3.1685863416641977 7.062157552689313 24.958593919873238 3.313131369650363 105.27968079410493 40.110403068363667 505.66496706241742 37.110035892575979 34.313671749085188 3.029285908676683 1276.4951612581499 1148.4236420178786 1.2938650064170349 1.8097713999450196 19.249158716760576 16.570337580516942 15.320710726082327 1.5808734372258175 3.4031094107776871 2.5749008674174538 5.0332964770495883 10.39942294731736 1.5746247973293055 3.3548428267240515 3.5855790786445132 1.4364584535360334 3.3359430134296408
leaf_count=75 356 152 37 53 76 299 36 1494 534 7510 421 468 36 18302 16696 19 82 335 263 264 26 39 23 76 147 24 36 50 12 39
internal_value=-4.53866e-11 -0.00123568 -0.000628852 -0.0262974 -0.0009517 0.0288659 -0.00106652 -0.00113232 -0.00151365 0.000307962 0.00243221 0.0364862 -0.000102053 -0.00405213 0.000206786 -0.0344464 -0.000405266 -0.0364141 -0.0278523 -0.0426413 -0.0117206 -0.00573581 0.00973254 -0.0039098 -0.0048626 0.0171513 0.0262122 -0.0535087 0.00197539 0.0702673
internal_weight=3347.69 3304.27 3226.16 78.1159 3191.23 34.9311 3184.16 3180.85 3073 1789.13 1268.13 77.7889 37.343 1283.87 1190.34 65.6087 1150.23 64.3148 45.0657 23.5113 21.5543 19.9734 107.855 1281.53 520.994 15.3289 13.7543 18.9063 4.60504 40.446
internal_count=47980 47624 46411 1213 46037 374 45961 45925 44408 25993 18276 964 504 18415 17312 1061 16778 1042 707 379 328 302 1517 18378 7717 207 183 314 65 460
is_linear=0
shrinkage=0.05


Tree=1
num_leaves=31
num_cat=0
split_feature=0 1 29 0 29 31 30 15 6 15 30 8 13 6 6 5 15 14 2 30 22 15 9 30 16 16 28 21 15 16
split_gain=368.544 169.702 58.469 106.02 115.724 52.1249 37.9965 40.5331 21.8201 15.6929 15.1059 14.5346 12.5067 20.7244 13.8057 12.295 12.0858 11.6799 25.8403 13.8497 11.5263 10.7935 10.7899 11.0984 10.6688 10.3822 10.1569 10.0521 9.93572 10.7341
threshold=1.5000000000000002 1.0000000180025095e-35 3.5000000000000004 1.0000000180025095e-35 1.0000000180025095e-35 0.35000000000000003 0.47213622291021679 16.500000000000004 1.5000000000000002 65.500000000000014 0.27097902097902099 13.500000000000002 1.0000000180025095e-35 1.0000000180025095e-35 1.5000000000000002 1.5000000000000002 49.500000000000007 1.0000000180025095e-35 4.5000000000000009 0.40824915824915831 7.5000000000000009 19.500000000000004 1.0000000180025095e-35 0.81666666666666676 12.500000000000002 106.50000000000001 14.208333333333337 2.5000000000000004 69.500000000000014 25.500000000000004
decision_type=2 2 2 2 2 2 2 2 2 2 2 2 2 2 2 2 2 2 2 2 2 2 2 2 2 2 2 2 2 2
left_child=1 6 3 5 -5 11 7 -1 -7 10 27 16 13 22 -14 -12 -3 19 -19 20 -17 -10 -8 -24 -4 -21 -18 -9 29 -15
right_child=-2 2 24 4 -6 8 12 9 21 -11 15 -13 14 28 -16 17 26 18 -20 25 -22 -23 23 -25 -26 -27 -28 -29 -30 -31
leaf_value=0.086158403508131323 0.084453416487024091 0.053575936286638592 -0.080150129293564076 0.066509760427663975 0.0040545134087110034 0.03747047753531578 -0.013892117273563846 0.0051689844000943853 0.08178815896806467 -0.030311239309055216 -0.0090530828150274523 -0.0014397409185019654 -0.0095038272598492058 -0.0076857931407289127 -0.050716210070010925 -0.021755962648525813 -0.0036675401800909274 0.033135413358803809 -0.044656949030714162 -0.0078947261052074447 0.041677107566116978 0.01022514490963175 0.012999844847861805 0.045540863110616975 -0.0044609054625372397 -0.070911547538609968 0.071752166135442677 0.067328734355026884 -0.054948990473341758 0.0021518256280176318
leaf_weight=10.345663927495478 127.36344051361084 21.592652205377817 4.6743166595697394 155.2330912668258 142.03143890481442 78.241169107146561 27.029296662658453 26.40719204582274 5.2857592180371276 124.61147000174969 1199.6540908524767 1675.0068615674973 140.26544590108097 569.2498522773385 23.763679027557373 747.55457043834031 32.562567353248596 32.676152372732759 15.854280434548853 341.98638039175421 7.23069243133068 1659.3603601856157 114.34585269540548 33.991421235725284 1170.7078731795773 6.6634270101785651 5.1733211036771527 8.6293774582445604 9.2430133670568448 540.62596383038908
leaf_count=20 356 69 21 477 543 336 124 153 16 655 6967 10182 662 2853 188 3969 137 95 62 1818 23 7077 428 105 7831 31 24 25 38 2695
internal_value=-5.73409e-11 -0.00120451 0.00497621 0.00800868 0.036669 0.00555854 -0.00889114 -0.0126066 0.0116653 -0.0130135 -0.0121103 -0.000578295 -0.00246756 -0.000819411 -0.0154745 -0.0125959 0.0237427 -0.0162853 0.00772163 -0.0173411 -0.0211483 0.0104524 0.0151624 0.0204566 -0.00476191 -0.00909911 0.00667196 0.0204787 -0.00332377 -0.00289384
internal_weight=9057.36 8930 4949.87 3774.49 297.265 3477.22 3980.13 2521.61 1742.89 2511.27 2386.66 1734.34 1458.51 1294.49 164.029 2351.62 59.3285 1151.97 48.5304 1103.44 754.785 1664.65 175.367 148.337 1175.38 348.65 37.7359 35.0366 1119.12 1109.88
internal_count=47980 47624 26713 18861 1020 17841 20911 13818 7429 13798 13143 10412 7093 6243 850 12965 230 5998 157 5841 3992 7093 657 533 7852 1849 161 178 5586 5548
is_linear=0
shrinkage=0.05


Tree=2
num_leaves=31
num_cat=0
split_feature=0 1 31 30 7 2 7 28 30 15 17 15 22 7 7 16 9 3 15 9 29 0 29 13 28 15 6 28 9 31
split_gain=191.586 76.7754 27.0709 20.0373 15.5991 14.4299 18.9141 15.5837 13.846 13.2129 13.1834 13.4091 16.7129 12.4948 20.0545 13.2553 13.6455 17.587 12.5716 12.4008 12.0432 55.306 12.3915 11.9871 11.7083 11.8148 11.3304 11.1774 14.1584 10.7438
threshold=1.5000000000000002 1.0000000180025095e-35 0.35000000000000003 0.4188596491228071 2.5000000000000004 1.0000000180025095e-35 4.5000000000000009 4.7916666666666687 0.93750000000000011 24.500000000000004 5.5000000000000009 42.500000000000007 1.5000000000000002 4.5000000000000009 6.5000000000000009 30.500000000000004 2.5000000000000004 10.500000000000002 53.500000000000007 4.5000000000000009 4.5000000000000009 1.0000000180025095e-35 3.5000000000000004 1.0000000180025095e-35 4.3750000000000009 30.500000000000004 2.5000000000000004 3.2916666666666674 1.0000000180025095e-35 0.69000000000000006
decision_type=2 2 2 2 2 2 2 2 2 2 2 2 2 2 2 2 2 2 2 2 2 2 2 2 2 2 2 2 2 2
left_child=1 3 -3 4 -1 27 7 -7 20 -8 23 12 -12 -6 15 16 -15 18 -18 26 21 -4 -23 24 25 -11 -19 28 -5 -26
right_child=-2 2 8 5 13 6 9 -9 -10 10 11 -13 -14 14 -16 -17 17 19 -20 -21 -22 22 -24 -25 29 -27 -28 -29 -30 -31
leaf_value=0.084661466722848827 0.076034635958344796 0.00072551477875787819 0.0082756165981171456 -0.020367661789388935 -0.041737724346616399 0.012833733065215947 0.056974740802678614 0.06791998378632752 0.088993303506047269 0.00049463218361659063 0.029474395476674332 0.050279592670167399 -0.052842191427251856 0.022724932247763643 -0.0094924829418730136 0.077432840946943526 -0.019782981511824786 -0.036831368159996491 0.059630194030745931 0.065741924796171566 -0.00026775536863325673 0.071603357841872911 0.011623732528975993 -0.048378416654378704 -0.0027912062198097165 -0.045287014420747597 0.057743961349717016 -0.01343659818593519 0.0069893018914564025 0.006443757452876394
leaf_weight=4.5060003101825705 82.168490715324879 2693.4844153113663 1606.109697853215 63.691785035654902 27.865855094045401 76.887324305251241 9.7567288205027562 15.412347808480261 5.3136990219354621 26.272456424310803 16.670355908572677 24.652482356876135 9.7859270609915239 68.18767427932471 2080.3559804651886 6.5030840188264838 89.250744738616049 8.727251141797753 5.2783495411276808 12.942107117734848 348.99418723210692 43.332004379481077 10.74662641994655 13.812550092115996 1642.5448847506195 30.396940436214209 4.9704913198947898 422.28588261641562 183.72073111496866 389.64973307959735
leaf_count=16 356 17082 7420 361 142 287 33 30 11 78 35 54 27 294 9053 18 402 84 20 39 1919 190 91 138 6101 106 19 1573 668 1333
internal_value=-1.03922e-10 -0.000628403 0.00400443 -0.00479553 -0.00827808 -0.0020474 -0.000134093 0.0220321 0.00838851 -0.00107973 -0.00134272 0.0237485 -0.000973726 -0.00845984 -0.00805245 0.00724311 0.00483258 -0.00523631 -0.0153487 0.0306465 0.00817533 0.00995018 0.0596841 -0.0019526 -0.00164561 -0.0240622 -0.00251288 -0.00849227 -5.32434e-05 -0.00102051
internal_weight=10024.3 9942.11 4707.98 5234.13 2308.59 2925.54 2255.84 92.2997 2014.5 2163.54 2153.79 51.1088 26.4563 2304.08 2276.22 195.86 189.357 121.169 94.5291 26.6398 2009.18 1660.19 54.0786 2102.68 2088.86 56.6694 13.6977 669.698 247.413 2032.19
internal_count=47980 47624 26713 20911 10087 10824 8222 317 9631 7905 7872 116 62 10071 9929 876 858 564 422 142 9620 7701 281 7756 7618 184 103 2602 1029 7434
is_linear=0
shrinkage=0.05


Tree=3
num_leaves=31
num_cat=0
split_feature=0 1 31 6 2 15 9 11 9 8 29 28 15 16 28 30 29 0 29 6 16 30 30 2 28 28 28 16 3 27
split_gain=125.386 55.3942 21.7528 12.3273 14.1043 17.001 11.9889 11.5037 20.9991 11.4173 11.0434 12.0093 10.603 10.571 10.3284 9.4712 8.84342 33.1203 11.6912 8.927 12.1833 11.6324 7.88547 7.62487 11.5104 7.60165 18.978 7.46969 7.39406 13.1744
threshold=1.5000000000000002 1.0000000180025095e-35 0.35000000000000003 5.5000000000000009 1.0000000180025095e-35 32.500000000000007 1.5000000000000002 1.0000000180025095e-35 1.5000000000000002 1.0000000180025095e-35 1.5000000000000002 12.375000000000005 75.500000000000014 2.5000000000000004 16.291666666666675 0.93750000000000011 4.5000000000000009 1.0000000180025095e-35 3.5000000000000004 1.5000000000000002 7.5000000000000009 0.42582417582417587 0.62828947368421062 3.5000000000000004 13.041666666666671 4.9583333333333348 4.3750000000000009 62.500000000000007 12.500000000000002 3.1500000000000004
decision_type=2 2 2 2 2 2 2 2 2 2 2 2 2 2 2 2 2 2 2 2 2 2 2 2 2 2 2 2 2 2
left_child=1 3 -3 4 9 6 -6 10 -9 -1 11 22 15 -8 -10 16 17 19 -19 20 -4 -22 -7 24 -13 26 -24 -25 -23 -30
right_child=-2 2 12 -5 5 7 13 8 14 -11 -12 23 -14 -15 -16 -17 -18 18 -20 -21 21 28 25 27 -26 -27 -28 -29 29 -31
leaf_value=0.013254446498522605 0.069609370231403456 0.00066121763586626759 -0.039402183788910236 -0.0064544250521995587 -0.0010749384230263758 -0.0079907613786476383 0.094367678528065324 -0.032953021654663468 0.0046059985169354884 -0.0089399538447408142 -0.047133389766629126 -0.0052090431069064273 -0.069967415978369848 0.022812561175033788 -0.049953845735774938 0.075867232625129538 0.00038546991525114293 0.068558374634903024 0.0075884618016250557 0.0071137013042273066 0.0075503791850526723 0.064666875762905515 0.024619195732240126 0.02992119761499978 0.075881215420492504 0.015487203348134321 -0.087333712101200278 -0.0040778898044032267 -0.020343248450915612 0.07556187785734797
leaf_weight=62.744859766215086 64.282611817121506 2704.4862798983231 6.8085646815598002 2497.166990512982 63.357658233493567 706.02849751617759 5.4582224935293189 39.662786144763231 1003.3600040804595 757.50850114878267 15.260964415967463 7.5512654464691904 4.3964918795973054 94.941542712040246 8.7497536465525609 5.0924778580665579 349.18014568835497 31.144197545945644 10.517950488254426 1468.0197443412617 30.891050973907113 25.452243313193321 8.8315087556838971 22.665066450834274 10.407598547637461 67.829726032912731 6.625258468091487 56.244817350059748 8.4892438240349275 6.1932335421442977
leaf_count=203 356 17082 20 9439 244 3155 10 160 3379 3249 64 31 26 328 41 11 1913 190 91 7071 161 86 38 69 28 238 28 207 47 15
internal_value=-1.12373e-10 -0.000443693 0.00356203 -0.00387173 -0.00167597 0.000480748 0.0159555 -0.000816654 0.00273575 -0.0072422 -0.00496146 -0.00423522 0.00759309 0.0267026 0.00413433 0.0077687 0.00758964 0.00917422 0.053166 0.0079886 0.0244899 0.0306147 -0.0062743 0.0123798 0.0417847 0.00827636 -0.0233674 0.00568757 0.0483669 0.0201106
internal_weight=10149.3 10085.1 4650.67 5434.4 2937.23 2116.97 163.757 1953.22 1051.77 820.253 901.445 886.184 1946.19 100.4 1012.11 1941.79 1936.7 1587.52 41.6621 1545.85 77.8343 71.0258 789.315 96.8687 17.9589 83.2865 15.4568 78.9099 40.1347 14.6825
internal_count=47980 47624 26713 20911 11472 8020 582 7438 3580 3452 3858 3794 9631 338 3420 9605 9594 7681 281 7400 329 309 3459 335 59 304 66 276 148 62
is_linear=0
shrinkage=0.05


Tree=4
num_leaves=31
num_cat=0
split_feature=0 1 31 6 2 6 16 15 9 28 31 30 31 15 15 2 20 30 30 15 10 30 17 16 30 2 17 28 9 30
split_gain=90.5282 48.1554 17.1391 13.2577 16.4664 10.9167 16.4092 10.7197 18.6491 14.5501 13.3851 10.008 8.54345 8.71254 9.44397 12.4356 9.96477 11.3373 13.0375 12.1714 9.53348 9.07156 8.4637 8.2433 7.92522 14.7692 10.6476 10.0415 8.8431 9.88332
threshold=1.5000000000000002 1.0000000180025095e-35 0.35000000000000003 5.5000000000000009 2.5000000000000004 1.0000000180025095e-35 25.500000000000004 45.500000000000007 3.5000000000000004 5.9583333333333348 0.45500000000000007 0.28285714285714292 0.23750000000000002 27.500000000000004 40.500000000000007 3.5000000000000004 1.0000000180025095e-35 0.36181818181818187 0.38278388278388281 41.500000000000007 1.5000000000000002 0.32795698924731187 5.5000000000000009 35.500000000000007 0.61721611721611735 1.5000000000000002 1.5000000000000002 0.54166666666666685 1.0000000180025095e-35 0.81666666666666676
decision_type=2 2 2 2 2 2 2 2 2 2 2 2 2 2 2 2 2 2 2 2 2 2 2 2 2 2 2 2 2 2
left_child=1 3 -3 4 7 6 -6 10 -9 -10 -1 23 -7 -14 -15 16 17 -16 -19 -20 -21 -17 -13 -11 27 28 -27 -12 -26 -30
right_child=-2 2 -4 -5 5 12 -8 8 9 11 24 22 13 14 15 21 -18 18 19 20 -22 -23 -24 -25 25 26 -28 -29 29 -31
leaf_value=-0.017110839929248622 0.064377429529604679 0.00083345675444684007 0.006988462750575854 -0.0061202553122349825 0.064302814626226293 -0.036217247705869232 -0.030075684160832245 -0.020571604637304952 -0.047143058469269764 0.067141543815404839 0.079045706307198552 -0.0039805190634560851 0.043446594623639798 -0.011183453055742842 -0.005485715224459186 0.019916799197323191 -0.013605766708434667 0.051708839803180064 0.068920516852888206 0.018508174834799048 -0.0099941013792168281 -0.0022402059417520491 0.057362258889613098 -0.00089220004001563198 -0.015811687696086509 -0.0021556325173560202 0.055370617542096372 -0.002309869625010542 -0.00073739943490019064 0.019449058313326176
leaf_weight=114.10243720002472 54.319011889398098 2695.1788833634928 1948.8582741646096 2563.7946379780769 16.663225278258327 13.433704044669865 6.3646735474467269 221.5561973368749 18.57417331263423 9.3302325904369372 3.811511516571044 554.47638580389321 13.751544050872324 99.500246543437243 51.168376791290939 51.702437870204449 31.98188429325819 29.270783334970474 10.326558288186787 157.85879743099213 36.03531995229423 433.71156886965036 5.6806746423244467 8.5164107382297498 49.141989205032587 11.804432168602942 25.248773455619812 773.91445436794311 150.92709261737764 101.35373644530773
leaf_count=605 356 17082 9631 9439 41 66 25 904 92 17 16 2117 39 509 190 155 122 80 26 511 139 1588 10 24 264 34 58 3112 457 271
internal_value=-9.62705e-11 -0.000342565 0.00341639 -0.00348001 -0.00122381 0.00421043 0.0382176 -0.00374873 -0.00818424 -0.00358385 -0.000799175 -0.00218407 0.00336723 0.0039482 0.00334573 0.00514817 0.0128567 0.0158298 0.020501 0.016028 0.013211 0.000119782 -0.00335843 0.0346759 0.000868266 0.00725463 0.0370439 -0.00191116 0.00359271 0.0073725
internal_weight=10262.4 10208 4644.04 5564 3000.21 951.769 23.0279 2048.44 818.134 596.578 1230.3 578.004 928.741 915.308 901.556 802.056 316.642 284.66 233.491 204.221 193.894 485.414 560.157 17.8466 1116.2 338.476 37.0532 777.726 301.423 252.281
internal_count=47980 47624 26713 20911 11472 3491 66 7981 3164 2260 4817 2168 3425 3359 3320 2811 1068 946 756 676 650 1743 2127 41 4212 1084 92 3128 992 728
is_linear=0
shrinkage=0.05


Tree=5
num_leaves=31
num_cat=0
split_feature=0 1 31 11 6 2 2 30 6 30 11 31 31 3 9 15 16 3 15 3 15 16 16 8 3 3 30 8 30 28
split_gain=69.5676 40.4581 13.249 12.8942 11.8659 12.9968 11.8226 14.1637 9.18155 8.65335 14.1264 9.83656 8.12393 7.91061 7.71174 9.52044 10.9987 10.4448 8.75593 8.50258 11.7048 7.95745 9.55771 8.1501 7.53406 8.58473 8.52792 7.62774 7.33787 7.31777
threshold=1.5000000000000002 1.0000000180025095e-35 0.35000000000000003 2.5000000000000004 1.5000000000000002 1.0000000180025095e-35 1.0000000180025095e-35 0.58957219251336912 5.5000000000000009 0.68990384615384626 1.0000000180025095e-35 0.77000000000000013 0.2950000000000001 1.5000000000000002 1.5000000000000002 32.500000000000007 5.5000000000000009 8.5000000000000018 29.500000000000004 12.500000000000002 28.500000000000004 34.500000000000007 14.500000000000002 3.5000000000000004 2.5000000000000004 11.500000000000002 0.55277777777777792 6.5000000000000009 0.70714285714285718 5.7083333333333348
decision_type=2 2 2 2 2 2 2 2 2 2 2 2 2 2 2 2 2 2 2 2 2 2 2 2 2 2 2 2 2 2
left_child=1 3 -3 4 6 13 12 -8 14 -4 11 -11 -1 -6 19 17 -17 21 -19 20 -7 22 23 -16 26 -26 -15 -27 29 -24
right_child=-2 2 9 -5 5 8 7 -9 -10 10 -12 -13 -14 24 15 16 -18 18 -20 -21 -22 -23 28 -25 25 27 -28 -29 -30 -31
leaf_value=-0.057327937990655609 0.060064713275236208 0.00088352863987150622 0.0055610650337365244 0.0393671881522758 -0.071408697210348523 0.0074275323603655427 0.0020098694094973853 0.023414083862372165 -0.0053084088632413262 0.047239158374688603 -0.0017542055188264054 -0.010852748010771988 -0.002362415519186002 -0.019024840277654716 0.01189624388484777 -0.052940056031986066 -0.00024845116060831144 -0.063711571597640598 0.019429966878012735 0.018682645925413532 -0.035149303213126634 0.070386862672012537 0.0055758185808078755 0.0780343588106856 -0.016667020508919356 0.027391216708853867 0.049991872466946148 -0.0067558764070746458 0.053841509919470946 -0.057470475001994648
leaf_weight=6.8395327627658835 47.978745425119996 2682.2300583356991 1846.0099628223106 17.737620234489441 5.4127805680036536 23.541508682072163 225.29362573754042 117.64981301128864 2364.2689614128321 45.021856026723981 38.809557341039181 8.6942710131406766 392.57561051286757 7.7474008351564434 8.6608558893203753 9.9657098427414876 1592.5214349124581 6.5115801319479925 6.1646942310035229 15.718421727418898 51.355080336332321 8.8718688488006574 20.538877093233172 10.078355222940443 341.29435247462243 17.80700109153986 10.599261481314896 200.44784324616194 5.7327749431133261 5.9318271428346625
leaf_count=41 356 17082 9343 30 38 86 824 370 8718 121 133 34 1609 32 25 51 6018 25 24 63 358 17 80 21 1454 58 21 906 15 27
internal_value=-1.29653e-10 -0.000285498 0.00315964 -0.00319403 -0.00333241 -0.00425786 0.00254318 0.00935278 -0.0032711 0.00630896 0.0212304 0.0378366 -0.00330364 -0.0112442 -0.000542979 0.000225614 -0.000576135 0.0179491 -0.0232784 -0.0147501 -0.0217665 0.0266863 0.0190757 0.0474668 -0.0106807 -0.0117144 0.0208476 -0.00396988 0.00255492 -0.00855224
internal_weight=10142 10094 4620.77 5473.27 5455.53 4713.17 742.359 342.943 4129.86 1938.54 92.5257 53.7161 399.415 583.309 1765.59 1674.98 1602.49 72.4908 12.6763 90.615 74.8966 59.8146 50.9427 18.7392 577.896 559.549 18.3467 218.255 32.2035 26.4707
internal_count=47980 47624 26713 20911 20881 18037 2844 1194 15528 9631 288 155 1650 2509 6810 6303 6069 234 49 507 444 185 168 46 2471 2418 53 964 122 107
is_linear=0
shrinkage=0.05


Tree=6
num_leaves=31
num_cat=0
split_feature=0 1 31 2 31 9 31 7 28 7 2 15 30 16 15 20 2 16 15 15 8 30 16 6 17 16 28 16 17 8
split_gain=55.522 35.3391 11.7471 10.7125 14.9899 12.7236 10.9855 10.2798 10.3419 9.58783 9.28748 9.27356 10.9619 12.2043 8.89225 13.8665 12.6577 8.45589 13.603 8.35101 7.8336 8.61695 7.79537 7.21886 10.8508 8.95015 9.09744 8.19839 7.35056 6.98758
threshold=1.5000000000000002 1.0000000180025095e-35 0.35000000000000003 1.0000000180025095e-35 0.6100000000000001 3.5000000000000004 0.39000000000000007 2.5000000000000004 2.0416666666666674 1.5000000000000002 3.5000000000000004 27.500000000000004 0.58957219251336912 14.500000000000002 45.500000000000007 1.0000000180025095e-35 2.5000000000000004 33.500000000000007 54.500000000000007 19.500000000000004 9.5000000000000018 0.44222222222222224 27.500000000000004 1.5000000000000002 1.5000000000000002 2.5000000000000004 3.0416666666666674 29.500000000000004 5.5000000000000009 4.5000000000000009
decision_type=2 2 2 2 2 2 2 2 2 2 2 2 2 2 2 2 2 2 2 2 2 2 2 2 2 2 2 2 2 2
left_child=1 3 -3 7 5 6 10 8 9 -1 -5 -8 13 -13 15 -15 -16 18 -7 -4 21 -18 -14 24 -6 -26 -27 29 -25 -28
right_child=-2 2 19 4 23 17 11 -9 -10 -11 -12 12 22 14 16 -17 20 -19 -20 -21 -22 -23 -24 28 25 26 27 -29 -30 -31
leaf_value=0.0045439084697719871 0.056339100998001747 0.00084513154391569498 0.059145443479848674 -0.052639771704061027 -0.014840604952453868 0.01591847577022111 0.05750570569128232 -0.010404465871478424 0.024353386702646744 -0.022234696199656175 -0.012681140685592932 0.035372079899263699 -0.016106194727135332 -0.0077602094669922683 -0.031907527953055091 0.028635733609238531 -0.011483630224783874 -0.0035515964437054489 -0.0030424198793705228 0.0057670127927994877 -0.012055950274259854 0.05758157500609417 -0.080183283704810898 0.00015086540916202964 0.054809571747336763 -0.032596464184375042 0.028327502500900284 0.05650284265461511 0.048160833978639205 0.0067623530277471124
leaf_weight=110.86672615259886 43.541852990165353 2675.934435788542 7.3555542677640906 27.648601857945323 39.925720109604299 154.59336044080555 5.2628105953335753 762.05532672256231 42.069404378533363 47.853789955377579 30.67546503059566 15.935449562966822 10.063656479120256 166.89791741780937 81.600492693483829 31.036359451711178 8.646795831620695 2392.3166203629225 243.72120427712798 1911.2960416646674 75.056149020791054 9.4540889635682088 8.9834926277399045 913.79616539366543 12.279131658375261 11.376682862639425 47.27981835603714 10.437041729688643 8.0427264645695669 182.77594519779086
leaf_count=425 356 17082 24 188 194 510 16 3381 139 214 157 43 72 546 336 108 33 8928 820 9607 286 20 35 3611 30 41 134 25 14 605
internal_value=-1.0231e-10 -0.000244206 0.00298591 -0.00296701 -0.00194029 -0.00371182 -0.0113109 -0.00775254 0.0023123 -0.00352977 -0.0316236 -0.0084419 -0.00929324 -0.00747812 -0.0093103 -0.00205328 -0.0175298 -0.00242854 0.00431666 0.00597165 -0.00493563 0.0245891 -0.0463278 0.00277336 0.0094539 0.013126 0.0110938 0.0131606 0.000569736 0.0111943
internal_weight=10088.8 10045.2 4594.59 5450.65 4487.81 3261.89 471.261 962.845 200.79 158.721 58.3241 412.937 407.674 388.627 372.692 197.934 174.758 2790.63 398.315 1918.65 93.157 18.1009 19.0471 1225.91 304.074 264.149 251.869 240.493 921.839 230.056
internal_count=47980 47624 26713 20911 16752 12098 1840 4159 778 639 345 1495 1479 1372 1329 654 675 10258 1330 9631 339 53 107 4654 1029 835 805 764 3625 739
is_linear=0
shrinkage=0.05


Tree=7
num_leaves=31
num_cat=0
split_feature=0 1 31 6 13 2 17 28 5 31 28 6 30 30 2 3 17 16 28 3 16 2 16 16 17 9 10 15 15 30
split_gain=45.5012 30.5918 10.58 8.59258 13.497 11.0288 10.778 8.61617 10.9585 8.29173 8.14442 8.53009 8.48658 9.39399 8.1845 7.99095 7.69071 7.49528 9.43672 11.2244 8.92475 8.65357 7.06976 10.6289 12.1818 8.31822 7.01454 6.82767 7.08795 6.82657
threshold=1.5000000000000002 1.0000000180025095e-35 0.49500000000000005 1.5000000000000002 1.0000000180025095e-35 1.0000000180025095e-35 5.5000000000000009 19.041666666666675 3.5000000000000004 0.6100000000000001 18.458333333333339 5.5000000000000009 0.68990384615384626 0.60555555555555574 2.5000000000000004 11.500000000000002 5.5000000000000009 27.500000000000004 6.3750000000000027 6.5000000000000009 28.500000000000004 3.5000000000000004 10.500000000000002 18.500000000000004 3.5000000000000004 1.5000000000000002 1.0000000180025095e-35 61.500000000000007 60.500000000000007 0.28285714285714292
decision_type=2 2 2 2 2 2 2 2 2 2 2 2 2 2 2 2 2 2 2 2 2 2 2 2 2 2 2 2 2 2
left_child=1 3 -3 9 5 29 7 10 -9 -1 11 14 13 -13 -7 -8 -4 18 22 -20 -19 -21 25 -24 -25 -16 -23 28 -11 -5
right_child=-2 2 16 4 -6 6 15 8 -10 27 -12 12 -14 -15 17 -17 -18 20 19 21 -22 26 23 24 -26 -27 -28 -29 -30 -31
leaf_value=-0.0062872512948545598 0.053123250499839958 0.0015809192915832251 0.0080523710202918593 -0.044823742035214602 -0.035980583348147355 -0.0034818739871757421 0.044426413183529495 -0.0087494778347898088 -0.06000456183307798 0.0057160020590035767 0.025579313452228726 -0.0050499965486882001 -0.044707934018247721 0.01751260717871074 -0.024279230022591861 0.0072291775905436728 -0.035826085103800052 -0.044743847952422602 0.078320118924482846 0.028556384837977285 0.0015341636104687806 -0.014847414490043096 -0.025957871180367964 0.060425377004747739 -0.046699618250609337 0.045340927401147986 0.018914566356747306 -0.037053154023557272 0.060760971863008856 -0.0091554450923330682
leaf_weight=204.05835721082985 40.146589867770672 3670.0554204145446 911.98878300283104 13.766788341104983 31.889395900070667 857.16682321578264 17.226527329534292 37.036903336644173 14.515390887856482 511.39224650152028 25.463495329022408 2173.4010357763618 13.248585842549799 47.133479081094265 6.38286189362407 89.205413419753313 10.096835549920796 10.605142619460819 7.652279805392026 65.975600414909422 590.56836447119713 29.950458832085133 38.302584203891456 8.5751547925174219 3.8431902825832358 13.087729752063749 31.633536394685507 9.2243591099977476 5.91589631140232 524.3688456164673
leaf_count=884 356 22462 4209 47 308 3484 53 122 61 1904 81 7925 48 170 54 290 42 47 15 206 2178 118 267 54 17 33 114 43 15 2373
internal_value=-1.63296e-10 -0.000213834 0.00278389 -0.00277181 -0.00356365 -0.00333985 -0.00245266 -0.00287314 -0.0231812 0.00226915 -0.00260627 -0.00279042 -0.00480913 -0.00457108 -8.00404e-05 0.0132497 0.0075719 0.00353516 0.011781 0.0195027 0.000717785 0.0159743 -0.00309344 -0.0129251 0.0272727 0.022518 0.00249493 0.00558519 0.00634549 -0.0100679
internal_weight=10013.9 9973.73 4592.14 5381.59 4651 4619.11 4080.97 3974.54 51.5523 730.591 3922.99 3897.53 2233.78 2220.53 1663.74 106.432 922.086 806.577 205.403 135.212 601.174 127.56 70.1915 50.7209 12.4183 19.4706 61.584 526.533 517.308 538.136
internal_count=47980 47624 26713 20911 18065 17757 15337 14994 183 2846 14811 14730 8143 8095 6587 343 4251 3103 878 453 2225 438 425 338 71 87 232 1962 1919 2420
is_linear=0
shrinkage=0.05


Tree=8
num_leaves=31
num_cat=0
split_feature=0 1 31 22 28 30 16 7 3 3 30 9 16 6 3 3 28 16 16 28 30 28 28 11 16 28 28 3 28 10
split_gain=38.1272 28.4952 9.89184 8.19947 13.9672 12.0787 9.35538 8.23479 7.51388 7.01411 14.0501 13.5885 8.15959 6.88037 7.53729 7.83784 9.18581 8.72806 9.437 6.80964 12.1629 10.2106 6.8467 6.70413 6.57028 6.67275 8.73573 6.62466 9.88301 8.78009
threshold=1.5000000000000002 1.0000000180025095e-35 0.35000000000000003 1.0000000180025095e-35 7.3750000000000027 0.38278388278388281 31.500000000000004 6.5000000000000009 14.500000000000002 19.500000000000004 0.32795698924731187 3.5000000000000004 64.500000000000014 10.500000000000002 21.500000000000004 17.500000000000004 15.291666666666671 39.500000000000007 65.500000000000014 14.875000000000005 0.42582417582417587 14.291666666666673 13.958333333333337 1.0000000180025095e-35 30.500000000000004 12.041666666666671 12.291666666666673 22.500000000000004 11.208333333333337 1.0000000180025095e-35
decision_type=2 2 2 2 2 2 2 2 2 2 2 2 2 2 2 2 2 2 2 2 2 2 2 2 2 2 2 2 2 2
left_child=1 3 -3 5 6 -1 8 -6 -5 -4 -11 -12 24 19 15 17 -17 -15 -19 21 -21 22 -7 -16 -13 27 -27 28 29 -26
right_child=-2 2 9 4 7 13 -8 -9 -10 10 11 12 -14 14 23 16 -18 18 -20 20 -22 -23 -24 -25 25 26 -28 -29 -30 -31
leaf_value=-0.009737500549268592 0.050312291836801963 0.0007231869990109907 0.0065361132432061823 0.0063449065583906636 0.034834930125531398 -0.0019881329536872742 0.055187549213387713 -0.0021902419915983758 0.047913514405903378 -0.044221378947398388 -0.074873287484192461 -0.023841523646817114 0.063566499645145866 -0.055416351758806104 0.050690831734649749 -0.056232598518167469 0.0021453993997662254 0.0064893587617700383 -0.033461542924687657 0.051657598251154582 -0.029829858725020159 -0.038825828473252416 0.032927791376310106 -0.013983175152497819 -0.040615753389999863 -0.040667380440363554 0.0026929745773848083 -0.014157576575681325 0.044594162815170514 0.038196812448726525
leaf_weight=789.58349468465894 37.513466976583004 2682.9288383685052 1694.4879048159346 264.23315934557468 15.127711512148379 1970.6962798014283 10.946611136198042 2061.713711488992 11.337540134787558 18.754957549273968 5.7548631615936747 22.878022368997335 5.4184967745095483 9.3803195022046548 8.0799962133169192 22.6996761392802 9.5832336619496328 54.915841335430741 20.225680936127901 14.712452590465547 6.6486802101135245 18.73446810990572 14.140968859195707 7.9492042064666739 8.0520422384142858 12.97463573515415 110.92238311097026 11.850890703499315 29.389825677499175 6.2978117130696765
leaf_count=3448 356 17082 8413 1411 52 7521 32 7713 38 79 19 153 25 38 30 102 27 218 78 47 18 63 38 37 35 94 600 52 131 30
internal_value=-1.24152e-10 -0.000190253 0.00268602 -0.00268687 -0.000492861 -0.00444615 0.00985585 -0.00192055 0.00805512 0.00541915 -0.00272865 0.00091562 0.0030147 -0.0025099 -0.0135335 -0.0179457 -0.038903 -0.00994106 -0.00426414 -0.00178676 0.0262945 -0.00208615 -0.00173937 0.0186177 0.00139337 0.00460989 -0.00184777 0.0190023 0.0279867 -0.00602678
internal_weight=9957.93 9920.42 4609.71 5310.71 2363.36 2947.35 286.517 2076.84 275.571 1926.78 232.294 213.539 207.784 2157.77 132.834 116.805 32.2829 84.5218 75.1415 2024.93 21.3611 2003.57 1984.84 16.0292 202.366 179.488 123.897 55.5906 43.7397 14.3499
internal_count=47980 47624 26713 20911 9246 11665 1481 7765 1449 9631 1218 1139 1120 8217 530 463 129 334 296 7687 65 7622 7559 67 1095 942 694 248 196 65
is_linear=0
shrinkage=0.05


Tree=9
num_leaves=31
num_cat=0
split_feature=0 22 7 30 9 6 30 15 30 3 2 28 10 2 16 6 3 9 11 13 3 30 9 10 17 28 8 3 5 9
split_gain=33.0759 30.1927 14.737 12.353 8.72642 8.08159 7.59344 7.07443 9.04079 10.4237 9.75277 7.13157 10.0337 8.63827 7.09415 6.90011 6.60838 7.47541 6.58218 8.85859 12.7508 11.6404 7.40846 6.90352 9.43207 7.79936 8.71261 7.52799 6.9686 6.75934
threshold=1.5000000000000002 1.0000000180025095e-35 8.5000000000000018 0.38278388278388281 8.5000000000000018 3.5000000000000004 0.27681992337164757 50.500000000000007 0.27097902097902099 17.500000000000004 2.5000000000000004 4.2083333333333348 1.5000000000000002 3.5000000000000004 14.500000000000002 14.500000000000002 3.5000000000000004 3.5000000000000004 1.0000000180025095e-35 1.0000000180025095e-35 2.5000000000000004 0.93750000000000011 1.5000000000000002 3.5000000000000004 4.5000000000000009 14.208333333333337 14.500000000000002 19.500000000000004 1.5000000000000002 4.5000000000000009
decision_type=2 2 2 2 2 2 2 2 2 2 2 2 2 2 2 2 2 2 2 2 2 2 2 2 2 2 2 2 2 2
left_child=1 3 5 4 7 -3 -6 8 10 11 16 -10 -13 -14 -9 -16 -1 -18 19 21 -21 29 -23 25 -25 26 -20 -28 -27 -5
right_child=-2 2 -4 18 6 -7 -8 14 9 -11 -12 12 13 -15 15 -17 17 -19 23 20 -22 22 -24 24 -26 28 27 -29 -30 -31
leaf_value=0.075059114013747097 0.048055606277231731 0.014083852272622857 0.00099126024993356114 -0.0083273988356355726 -0.050603471144096607 0.0023509285588485368 0.01298840810004818 -0.064638261993783183 -0.036692528763294166 -0.026494594157553415 0.097786560674128289 0.0021451460125303055 -0.010991166732848766 -0.059821423594818658 -0.013826066762176384 -0.05041634218171636 -0.043462381538139833 0.017444742322379855 -0.00057620133459110095 -0.0087601339271533626 -0.05083162614619318 0.0049114373233795439 0.065704227780142344 0.055881597368690632 -0.021130735413990215 -0.0079417801168640556 0.0064623894025830214 0.054979918290459617 -0.082816108406157052 -1.9243559509863305e-05
leaf_weight=3.3384142741560998 35.68229375500232 350.50505656283349 6342.9314827909693 533.13377207424492 5.07873511314392 252.48957298602909 62.02447222173214 7.5680364072322837 17.936814405024052 71.239763176068664 3.4778721928596488 238.34264479018748 161.00987884402275 9.5969381034374219 268.28611506521702 13.534394972026346 7.0408166460692909 17.708064753562212 1240.711946753785 67.881835695356131 24.513027688488364 10.496577426791193 9.5901476740837079 12.210665646940472 5.8953601419925681 7.4574676454067212 20.73150996118784 13.013789236545561 5.3275880608707666 452.68487690389156
leaf_count=16 356 1340 31415 2249 20 1316 310 33 130 371 6 1124 716 47 1249 44 38 120 4647 305 201 43 25 34 42 31 83 36 24 1609
internal_value=-9.10084e-11 -0.000167524 0.00170136 -0.00411336 -0.00915933 0.00917097 0.00817543 -0.0105795 -0.00714483 -0.00878919 0.0188046 -0.00583447 -0.00448102 -0.013738 -0.0168662 -0.0155833 0.00902473 0.000117257 -0.00225301 -0.00510548 -0.019922 -0.00374455 0.0339362 0.000147022 0.0308062 -0.000284223 0.000105592 0.0251731 -0.0391422 -0.00451232
internal_weight=10271.4 10235.8 6945.93 3289.83 886.183 602.995 67.1032 819.08 529.691 498.126 31.5652 426.886 408.949 170.607 289.389 281.821 28.0873 24.7489 2403.65 1098.3 92.3949 1005.91 20.0867 1305.35 18.106 1287.24 1274.46 33.7453 12.7851 985.819
internal_count=47980 47624 34071 13553 4224 2656 330 3894 2568 2388 180 2017 1887 763 1326 1293 174 158 9329 4432 506 3926 68 4897 76 4821 4766 119 55 3858
is_linear=0
shrinkage=0.05


Tree=10
num_leaves=31
num_cat=0
split_feature=22 0 28 3 28 11 30 15 17 31 1 30 16 10 17 10 30 2 11 27 3 6 16 9 28 31 30 3 10 3
split_gain=30.707 23.2567 12.8474 9.77613 17.4952 14.1435 13.2548 9.66846 9.04891 9.61633 8.23588 8.719 8.01036 11.3246 10.8792 7.70315 7.39016 9.73886 8.56498 10.6726 11.9601 8.25831 7.87397 9.20153 7.7141 7.55704 7.21836 7.19836 8.80345 11.247
threshold=1.0000000180025095e-35 1.5000000000000002 7.9583333333333357 10.500000000000002 6.1250000000000027 1.0000000180025095e-35 0.70714285714285718 44.500000000000007 5.5000000000000009 0.46500000000000002 1.0000000180025095e-35 0.68990384615384626 51.500000000000007 2.5000000000000004 1.5000000000000002 2.5000000000000004 0.38278388278388281 6.5000000000000009 1.0000000180025095e-35 1.5500000000000003 16.500000000000004 13.500000000000002 16.500000000000004 3.5000000000000004 6.4583333333333348 0.11 0.29289215686274517 8.5000000000000018 1.5000000000000002 21.500000000000004
decision_type=2 2 2 2 2 2 2 2 2 2 2 2 2 2 2 2 2 2 2 2 2 2 2 2 2 2 2 2 2 2
left_child=7 2 3 -2 -5 6 -6 8 9 12 -4 -12 13 -1 -14 -7 17 25 21 22 -21 -18 23 -20 -24 -9 -16 -26 -29 -30
right_child=1 -3 10 4 5 15 -8 16 -10 -11 11 -13 14 -15 26 -17 18 -19 19 20 -22 -23 24 -25 27 -27 -28 28 29 -31
leaf_value=-0.012629354070782601 0.0047974588867695719 0.044231936433878183 -0.0016674054142686552 -0.051267819394052651 -0.0058372798784425764 0.029622091001741447 0.051126478763680629 -0.0697491636296768 0.023124576763276592 0.0005711067350452143 0.0019894308243381285 0.02604008483783812 -0.059387479369369327 -0.056994119365633748 0.026131261250137677 0.072610654539739819 -0.0082315795455634444 0.063622184906201903 -0.0041003438506312219 0.047067151111489444 -0.022336477939303229 -0.049005106825000908 0.03441123154584496 -0.037816433192473159 -0.022721467718088639 -0.011325759457283568 -0.0040251687535712037 0.0055236894105716592 -0.0062696894257299454 -0.066758909398313498
leaf_weight=132.59882066585124 517.36241695005447 32.248021237552166 2016.3382879570127 8.4704259112477285 53.89719320461154 79.259113177657127 12.599372602999209 5.5909286811947814 37.040075212717056 1185.9235468460247 4299.1236587399617 38.016894958913326 8.4985259249806386 16.134498067200184 21.200628407299519 11.99836317822337 453.87276311498135 4.3004204928874961 60.48507384210825 22.731671094894413 8.5392891429364663 12.768005982041357 16.358118660748005 30.410147175192833 33.862356852740049 553.36493910197169 309.99392571114004 316.71576883271337 106.94859559834003 8.2795031331479532
leaf_count=713 2228 327 7376 79 338 246 36 20 115 4555 23623 112 42 74 90 33 1818 10 222 65 63 49 59 133 121 2657 1218 1105 409 44
internal_value=-8.7378e-11 0.00186771 0.00167358 0.00818673 0.0187356 0.0224944 0.00495587 -0.00394649 -0.0013199 -0.00186067 0.000972809 0.00220025 -0.00776513 -0.017442 -0.00352814 0.0352741 -0.0066971 -0.0113335 -0.0042587 -0.000329556 0.0281148 -0.00934721 -0.00188172 -0.0153805 0.000663 -0.0119101 -0.00209478 -0.000522166 0.00121815 -0.010616
internal_weight=10414.9 7069.31 7037.07 683.587 166.224 157.754 66.4966 3345.62 1711.39 1674.35 6353.48 4337.14 488.426 148.733 339.693 91.2575 1634.23 563.256 1070.97 604.331 31.271 466.641 573.06 90.8952 482.164 558.956 331.195 465.806 431.944 115.228
internal_count=47980 34398 34071 2960 732 653 374 13582 6807 6692 31111 23735 2137 787 1350 279 6775 2687 4088 2221 128 1867 2093 355 1738 2677 1308 1679 1558 453
is_linear=0
shrinkage=0.05


Tree=11
num_leaves=31
num_cat=0
split_feature=22 0 7 1 15 11 17 10 32 28 9 28 17 3 15 28 27 28 8 30 6 27 30 28 22 6 17 15 3 6
split_gain=26.6725 20.4093 11.0902 8.56679 7.87022 11.2008 7.0723 6.81867 8.5001 8.27411 6.33087 7.91776 6.30879 11.9995 16.0228 7.20057 10.5636 8.22028 6.79171 7.88482 6.30619 6.49583 7.98187 8.84452 6.97824 6.16805 6.15351 13.1378 10.708 9.3187
threshold=1.0000000180025095e-35 1.5000000000000002 8.5000000000000018 1.0000000180025095e-35 46.500000000000007 2.5000000000000004 6.5000000000000009 1.0000000180025095e-35 0.27000000000000007 7.3750000000000027 1.0000000180025095e-35 3.5416666666666674 2.5000000000000004 15.500000000000002 65.500000000000014 15.625000000000005 5.75 15.041666666666673 17.500000000000004 0.43614130434782611 3.5000000000000004 1.1500000000000001 0.70714285714285718 5.4583333333333348 1.5000000000000002 1.5000000000000002 2.5000000000000004 51.500000000000007 11.500000000000002 20.500000000000004
decision_type=2 2 2 2 2 2 2 2 2 2 2 2 2 2 2 2 2 2 2 2 2 2 2 2 2 2 2 2 2 2
left_child=4 2 10 6 5 -1 -4 8 9 -5 -2 -12 13 14 -11 16 17 -14 19 -17 -13 22 23 -22 -23 -9 27 -27 -29 -28
right_child=1 -3 3 7 -6 -7 -8 25 -10 12 11 20 15 -15 -16 18 -18 -19 -20 -21 21 24 -24 -25 -26 26 29 28 -30 -31
leaf_value=-0.001965572212365358 0.040250825007080632 0.042265432697028753 -0.0019642186890035363 -0.05925338369963893 -0.0066937345127341154 0.053712839432380005 0.042933446084521147 0.021737750251856175 -0.06179271727534752 0.017917261229546139 -0.054126238856593026 0.012143870832830965 0.0011632587340151797 0.0017246934289007682 0.07303674319639035 0.032594463315578158 0.072033883922873951 -0.02843653342367683 0.0050773173393052389 -0.016717691572663437 -0.057848107490381009 0.029893272751943936 0.031590930619532269 -0.0070401587078730739 0.0028422032989966132 0.0024072974314063027 0.0022376645859401791 -0.043984793469072789 -0.0086961084814444565 -0.039376776106043981
leaf_weight=1944.9656968070194 14.846430048346518 30.907864921726286 2004.0545948185027 4.7120885606855145 1329.5728563591838 9.0747898519039136 8.809641093015669 36.404939895495772 4.5427862117066971 114.36166085861623 5.2178820222616187 341.1279902048409 324.41601912397891 108.57182196713984 14.902708914130924 55.016558784991503 5.0254405848681918 25.283793704584241 115.53014759719372 9.5071366205811483 9.4589998517185432 30.922475017607212 11.828942462801932 90.674119921401143 104.09773342497647 412.42381799034774 2930.3402008041739 23.534840269014239 248.27712364681065 13.514668596908448
leaf_count=7949 56 327 7384 24 5615 18 24 140 51 447 21 1296 1389 486 37 445 17 209 749 58 141 110 55 519 458 2074 16473 110 1189 109
internal_value=-6.18014e-11 0.0017237 0.0015464 0.000938635 -0.00372618 -0.001707 -0.00176772 0.0021638 0.00640273 0.00680128 0.00800124 0.00719429 0.00720414 0.0139791 0.0242719 0.00419104 5.75046e-05 -0.000976848 0.0123345 0.0253286 0.00773834 0.00165349 -0.00725119 -0.0118397 0.00903747 0.00125936 0.00105388 -0.0032173 -0.0117516 0.00204662
internal_weight=10381.9 7098.31 7067.4 6459.23 3283.61 1954.04 2012.86 4446.37 781.87 777.327 608.175 593.328 772.615 237.836 129.264 534.779 354.725 349.7 180.054 64.5237 588.11 246.982 111.962 100.133 135.02 3664.5 3628.09 684.236 271.812 2943.85
internal_count=47980 34398 34071 31415 13582 7967 7408 24007 3912 3861 2656 2600 3837 970 484 2867 1615 1598 1252 503 2579 1283 715 660 568 20095 19955 3373 1299 16582
is_linear=0
shrinkage=0.05


Tree=12
num_leaves=31
num_cat=0
split_feature=22 0 30 28 28 30 17 15 15 29 1 31 9 28 27 27 30 16 15 28 3 2 28 3 28 2 30 3 15 15
split_gain=25.1416 19.3273 11.5557 13.3686 8.87774 8.04125 10.1322 9.35995 8.79552 8.44039 8.01112 7.63324 9.71686 8.46976 13.5454 8.13383 13.3187 8.6718 8.66722 7.99443 11.4664 10.5454 14.593 8.22069 7.34469 7.28448 7.06046 18.5001 11.033 8.16973
threshold=1.0000000180025095e-35 1.5000000000000002 0.49000000000000005 20.541666666666675 19.208333333333339 0.43167701863354041 1.5000000000000002 33.500000000000007 34.500000000000007 2.5000000000000004 3.5000000000000004 0.63000000000000012 5.5000000000000009 8.4583333333333375 1.3000000000000003 5.2500000000000009 0.53589743589743599 28.500000000000004 57.500000000000007 6.8750000000000027 4.5000000000000009 3.5000000000000004 7.7083333333333366 8.5000000000000018 15.791666666666671 2.5000000000000004 0.45643939393939398 15.500000000000002 46.500000000000007 56.500000000000007
decision_type=2 2 2 2 2 2 2 2 2 2 2 2 2 2 2 2 2 2 2 2 2 2 2 2 2 2 2 2 2 2
left_child=5 2 10 4 11 7 9 -1 -9 -7 -2 15 13 19 -15 -4 24 -18 -19 20 25 -21 -23 -24 -17 -13 -12 -28 -29 -30
right_child=1 -3 3 -5 -6 6 -8 8 -10 -11 26 12 -14 14 -16 16 17 18 -20 21 -22 22 23 -25 -26 -27 27 28 29 -31
leaf_value=0.0078644171783882107 -0.0001997549612153561 0.041001860145146229 0.0022409875256870423 0.08561001682939412 -0.058114951818369322 -0.009191083138244429 0.00021189197701083101 -0.042384513867272995 -0.0069238164937827987 -0.062344335389909571 0.0072279353934975744 0.010779496381644908 0.031741500609695904 -0.059135315633600485 0.013036334454303761 0.056164383329525003 0.039577389728813812 -0.0011616552372924866 -0.077938963311430284 0.032362188468020067 -0.0040629804237013682 -0.037349197291745136 0.069638998777596189 -0.0033791823908200565 0.014892928538084386 0.047614689542056547 0.018903110853473008 0.032234948203356893 -0.074366070759902883 -0.022186282444636177
leaf_weight=108.55623424891382 5889.0221845945343 30.810525236651301 1180.5970658352599 5.1397132873535147 5.5800018049776545 229.74259722419083 1470.4883494451642 17.702057726681232 1437.0891949040815 7.7196203246712676 609.30265863612294 44.494683817028999 50.497687872499228 11.697293445467951 14.63561826571822 22.534646142274141 5.8991970717906979 9.2240332029759866 6.1111309863626948 71.667692840099335 128.15439876541495 15.254168525338175 7.3987222053110591 8.0471530780196172 20.665723403915763 19.21940141171217 29.916616726666689 5.2763763740658751 13.860813084989788 16.349913246929646
leaf_count=502 24636 327 4466 6 26 1214 5328 88 6419 31 2932 177 173 46 52 82 19 36 25 234 680 57 19 38 76 54 115 22 47 53
internal_value=-6.39898e-11 0.00147518 0.00132649 0.00509889 0.00484372 -0.00370739 -0.00133568 -0.00629847 -0.00735531 -0.010919 0.000391503 0.0050611 0.0113555 0.0081442 -0.0190229 0.00318513 0.020484 -0.0119399 -0.0317578 0.0105755 0.00455555 0.0218588 -0.00266072 0.0315972 0.0364214 0.0218909 0.00555217 -0.0100593 -0.0344755 -0.0461266
internal_weight=11492.7 8221.36 8190.55 1626.82 1621.68 3271.3 1707.95 1563.35 1454.79 237.462 6563.73 1616.1 371.067 320.569 26.3329 1245.03 64.4347 21.2344 15.3352 294.236 191.868 102.368 30.7 15.4459 43.2004 63.7141 674.706 65.4037 35.4871 30.2107
internal_count=47980 34398 34071 6266 6260 13582 6573 7009 6507 1245 27805 6234 1530 1357 98 4704 238 80 61 1259 911 348 114 57 158 231 3169 237 122 100
is_linear=0
shrinkage=0.05


Tree=13
num_leaves=31
num_cat=0
split_feature=1 20 0 27 20 27 8 7 3 27 16 16 28 27 6 22 9 6 32 31 3 28 28 16 12 15 3 14 16 3
split_gain=44.785 19.4005 16.0288 12.1715 14.3094 11.0193 15.6878 14.3942 11.1837 15.9646 10.5591 10.4799 12.4358 13.2239 10.4763 14.5491 13.1058 9.86892 12.7018 9.54055 15.5354 10.3217 9.27573 14.1728 9.23603 9.09688 12.9482 9.57596 9.09237 11.6814
threshold=3.5000000000000004 2.5000000000000004 1.5000000000000002 1.0000000180025095e-35 1.0000000180025095e-35 4.7500000000000009 16.500000000000004 17.500000000000004 11.500000000000002 8.9500000000000011 11.500000000000002 68.500000000000014 16.458333333333339 7.9499999999999993 7.5000000000000009 6.5000000000000009 7.5000000000000009 1.5000000000000002 0.39000000000000007 0.435 8.5000000000000018 13.208333333333337 15.54166666666667 84.500000000000014 1.0000000180025095e-35 65.500000000000014 28.500000000000004 1.0000000180025095e-35 77.500000000000014 15.500000000000002
decision_type=2 2 2 2 2 2 2 2 2 2 2 2 2 2 2 2 2 2 2 2 2 2 2 2 2 2 2 2 2 2
left_child=2 5 3 -1 17 7 14 19 11 25 -6 -8 -13 -14 16 -16 -7 -5 -19 20 -2 -21 -4 -24 -3 28 27 -27 29 -10
right_child=1 24 22 4 10 6 8 -9 9 -11 -12 12 13 -15 15 -17 -18 18 -20 21 -22 -23 23 -25 -26 26 -28 -29 -30 -31
leaf_value=-0.0066159181617860829 -0.062570444667184907 0.077973283256436723 0.073664610790486959 0.0077099023377677047 0.052426222270637028 0.074747024834135714 0.05264083825852274 0.03007003828044439 -0.05018958448537935 0.062163846452363114 -0.0049219497186816542 -0.020277191338402303 0.024549218547886182 -0.031016148493092817 -0.008069578690775207 0.047607408234122121 0.022965190297210752 4.3413003510607914e-05 -0.035406275937680386 0.014278509127068743 0.005195276600829888 0.076571127444684861 -0.047291031872881029 0.065983397658394546 0.010747977205979638 0.020430277925159002 -0.023088837738829453 0.088620197656540917 -0.00061464805052764964 -0.0091362064958443387
leaf_weight=891.80161480046809 9.241765331476925 15.232025384902956 11.157730382867159 429.63378479983658 8.0639249663799983 15.199184760451315 15.960537296719847 124.16671165451407 21.806282291188836 9.6285052709281427 1729.3368603764102 27.266705038025975 88.172385096549988 12.18760523945093 47.51917364820838 15.580588474869726 62.326245177537203 7977.1082793641835 25.348875727504492 28.633833523839712 99.660081882029772 8.6614877134561521 5.5538635738193971 5.4921597586944699 7.688107155263423 15.584683567285539 10.894799709320067 7.6884554233402005 310.01361039374024 84.364249898120761
leaf_count=4159 32 19 143 1603 39 23 35 417 90 47 6897 126 316 56 144 42 201 31124 309 91 292 12 35 91 49 53 34 25 1183 293
internal_value=-6.16661e-11 0.00993383 -0.000929862 -0.00101505 -0.000523892 0.00890616 0.00576535 0.0175514 0.00226125 -0.00154141 -0.00465578 0.014443 0.00966615 0.0178014 0.0208051 0.00567818 0.0331172 0.000327467 -6.88787e-05 0.00691921 -0.000555543 0.0287454 0.0415098 0.0090298 0.0554239 -0.00290342 0.0218978 0.0429573 -0.00493956 -0.0175681
internal_weight=12121 1037.48 11083.5 11061.3 10169.5 1014.56 744.193 270.364 603.568 459.981 1737.4 143.587 127.627 100.36 140.625 63.0998 77.5254 8432.09 8002.46 146.197 108.902 37.2953 22.2038 11.046 22.9201 450.352 34.1679 23.2731 416.184 106.171
internal_count=47980 3580 44400 44131 39972 3512 2668 844 2258 1725 6936 533 498 372 410 186 224 33036 31433 427 324 103 269 126 68 1678 112 78 1566 383
is_linear=0
shrinkage=0.05


Tree=14
num_leaves=31
num_cat=0
split_feature=0 1 8 5 12 20 15 17 2 27 3 28 6 6 15 7 30 30 1 15 3 7 28 16 22 3 16 22 3 16
split_gain=32.5602 25.2819 12.5317 10.3922 10.2476 9.5316 10.0147 16.6278 10.0622 9.5748 11.302 12.6945 9.58597 9.05026 10.2975 8.92574 10.3343 12.8471 8.82358 8.72308 10.1053 8.35041 13.5081 9.81476 9.49125 8.90524 12.0556 11.5781 10.5555 10.6239
threshold=1.5000000000000002 1.5000000000000002 11.500000000000002 1.5000000000000002 1.0000000180025095e-35 1.0000000180025095e-35 57.500000000000007 5.5000000000000009 4.5000000000000009 1.0000000180025095e-35 21.500000000000004 9.7916666666666696 14.500000000000002 16.500000000000004 36.500000000000007 23.500000000000004 0.31909090909090915 0.28869047619047622 1.0000000180025095e-35 52.500000000000007 8.5000000000000018 11.500000000000002 11.708333333333337 50.500000000000007 4.5000000000000009 13.500000000000002 31.500000000000004 1.0000000180025095e-35 14.500000000000002 39.500000000000007
decision_type=2 2 2 2 2 2 2 2 2 2 2 2 2 2 2 2 2 2 2 2 2 2 2 2 2 2 2 2 2 2
left_child=1 5 3 21 -4 9 19 8 -8 -1 12 -12 15 14 -14 -11 17 -17 -18 -7 -21 24 -23 -24 25 -3 27 -27 -28 -30
right_child=-2 2 4 -5 -6 6 7 -9 -10 10 11 -13 13 -15 -16 16 18 -19 -20 20 -22 22 23 -25 -26 26 28 -29 29 -31
leaf_value=-0.0060651962758520514 0.055086387069108969 0.019237287843176871 0.0018220145190249591 0.0018880047455905255 0.036564431649431135 -0.0063832643199226843 -0.04026335590513367 0.058640210700717135 -0.010547802278084098 0.00090783615217494406 0.031480121566390795 -0.008434953361869937 0.047993934161486479 0.0016259691887499381 -0.024789845072982257 -0.048018343751299278 -0.010146009643626233 0.045494716064825989 -0.064990163539745668 -0.053358585689748189 0.0082957206209759472 0.062971671030975132 -0.03522955583322987 0.035804444374314265 0.067765449724993168 -0.080220512410956568 -0.027174274898019397 -0.0085934977086974465 0.063496144415718742 0.0098997361830035248
leaf_weight=835.54055621568114 26.766725996509194 143.76578808948398 3670.8447137707844 208.22020857781172 21.348207805305719 875.62940643168986 51.664657279849052 6.4465508405119172 63.505919296294451 5298.7026543403044 20.657708667218685 557.55356807634234 5.1224952787160865 78.626539399847388 94.699897786602378 5.8003629446029654 13.974187389016151 10.013262711465357 15.433034164831042 6.9201763719320288 167.77655957639217 23.013886578381062 8.197702109813692 11.953572452068327 7.6680416613817206 6.5475686490535727 11.03737487643957 40.786035165190697 13.897420428693293 27.624684929847717
leaf_count=3920 356 500 13825 718 281 3586 217 20 235 20087 62 2093 19 376 437 30 54 38 45 30 603 50 36 24 22 22 29 144 35 86
internal_value=-7.80363e-11 -0.000119848 0.00303129 0.0104375 0.00202289 -0.00175017 -0.00592077 -0.0195039 -0.023878 -0.00104549 -0.000357987 -0.00700891 0.000338387 -0.0110614 -0.0210549 0.00071906 -0.0214005 0.0111946 -0.0389285 -0.00434798 0.00585344 0.0164824 0.0367985 0.00690724 0.0129931 0.0112694 -0.000197881 -0.0185015 0.0162859 0.0278384
internal_weight=12329.7 12303 4194.91 502.712 3692.19 8108.07 1171.94 121.617 115.171 6936.12 6100.58 578.211 5522.37 178.449 99.8224 5343.92 45.2208 15.8136 29.4072 1050.33 174.697 294.492 43.1652 20.1513 251.327 243.659 99.8931 47.3336 52.5595 41.5221
internal_count=47980 47624 15772 1666 14106 31852 4691 472 452 27161 23241 2155 21086 832 456 20254 167 68 99 4219 633 948 110 60 838 816 316 166 150 121
is_linear=0
shrinkage=0.05


Tree=15
num_leaves=31
num_cat=0
split_feature=1 0 30 7 27 15 3 16 3 16 28 17 30 28 16 30 8 11 9 15 6 30 27 15 2 3 21 9 27 28
split_gain=43.747 15.8568 15.7545 10.3155 10.1695 10.4318 9.99377 9.96026 9.72545 9.45032 19.7206 9.26729 10.9045 13.7583 8.81518 8.38243 10.7687 8.03769 7.81058 8.78846 7.48468 10.235 9.88215 7.44401 12.115 8.26045 8.5733 7.41979 7.37356 7.35381
threshold=1.5000000000000002 1.5000000000000002 0.47913043478260875 17.500000000000004 1.0000000180025095e-35 45.500000000000007 28.500000000000004 54.500000000000007 28.500000000000004 81.500000000000014 19.291666666666675 5.5000000000000009 0.41421568627450983 10.041666666666671 58.500000000000007 0.61721611721611735 13.500000000000002 1.5000000000000002 1.0000000180025095e-35 10.500000000000002 7.5000000000000009 0.27097902097902099 3.5500000000000003 48.500000000000007 11.500000000000002 19.500000000000004 6.5000000000000009 6.5000000000000009 1.0000000000000002 12.041666666666671
decision_type=2 2 2 2 2 2 2 2 2 2 2 2 2 2 2 2 2 2 2 2 2 2 2 2 2 2 2 2 2 2
left_child=2 15 3 11 5 18 7 -5 -6 -8 -11 20 13 -13 -9 17 27 -2 -4 -20 -1 -22 28 25 -25 -16 -27 -17 -23 -15
right_child=1 -3 4 6 8 -7 9 14 -10 10 -12 12 -14 29 23 16 -18 -19 19 -21 21 22 -24 24 -26 26 -28 -29 -30 -31
leaf_value=-0.0014471704610549189 0.0037982585438832255 0.049792038370512541 -0.01959410821384179 -0.077485298918732542 0.0030681477527540937 -0.026055477368424632 0.056945845992047966 0.040436236943072863 -0.056868717998866253 -0.052759182220526217 0.044694075171597458 0.046233834990681955 0.031722553503294844 -0.060260138838205406 -0.008499597595467305 0.020873097685020298 -0.017672882825357766 -0.014197377826887556 0.04690648125396038 -0.0012887702949712612 0.031700459397924347 -0.011236721548295294 -0.037618483092027512 -0.019063523003801146 0.01807672256446053 0.0010415281337271178 0.043300472137868251 0.064243518525524984 -0.003466718443098999 -0.005343031030268044
leaf_weight=3025.9471332961693 4294.5350977238268 18.82327121309936 59.105586182326078 5.2522020339965811 1927.6072444347665 53.153465004637837 11.062859259545805 9.1380423009395582 6.7918643429875365 9.6264765113592166 11.267182506620882 11.983803749084471 42.41590902581811 7.2094137445092192 650.23545312508941 37.493868410587311 13.692715045064686 62.958946637809277 9.6972881257534009 384.89675316400826 18.067291960120201 424.08439290896058 24.55425662919879 255.36790137737989 24.022655978798866 99.352720323950052 13.650972276926039 13.380956053733824 1090.4126141425222 39.467326015233994
leaf_count=12276 15386 232 365 20 7114 286 30 20 29 34 26 31 135 33 2462 114 49 191 27 1524 47 1832 121 875 93 338 40 32 4090 128
internal_value=-3.32617e-11 0.00399817 -0.00216151 -0.00358543 0.00120582 -0.00509859 -0.00796887 -0.00880172 0.0028577 0.019579 -0.000206222 -0.00256636 0.0124092 -0.0015557 -0.00845873 0.00380324 0.0216868 0.00353825 -0.00264338 -0.000104355 -0.00289664 -0.00571339 -0.0061526 -0.00888727 -0.0158701 -0.00633113 0.00614646 0.0322803 -0.00564245 -0.0138252
internal_weight=12655.3 4440.88 8214.37 5773.12 2441.25 506.853 1088.98 1057.02 1934.4 31.9565 20.8937 4684.14 101.076 58.6605 1051.77 4422.06 64.5675 4357.49 453.7 394.594 4583.07 1557.12 1539.05 1042.63 279.391 763.239 113.004 50.8748 1514.5 46.6767
internal_count=47980 16004 31976 22631 9345 2202 3938 3848 7143 90 60 18693 327 192 3828 15772 195 15577 1916 1551 18366 6090 6043 3808 968 2840 378 146 5922 161
is_linear=0
shrinkage=0.05


Tree=16
num_leaves=31
num_cat=0
split_feature=1 0 0 30 2 6 10 30 3 5 27 3 9 3 9 16 28 3 5 9 15 9 15 16 28 7 16 7 3 9
split_gain=37.1279 14.6353 13.9273 12.2522 9.23821 9.14906 8.71276 9.39007 9.34103 9.04562 12.4998 8.77987 8.6946 8.33277 12.8117 8.32919 8.21911 8.1028 7.75978 7.09244 6.78268 8.74088 6.57316 7.38673 6.07889 12.7136 6.03697 6.68501 8.88413 9.06923
threshold=1.5000000000000002 1.5000000000000002 1.5000000000000002 0.47913043478260875 1.0000000180025095e-35 1.5000000000000002 1.5000000000000002 0.27097902097902099 20.500000000000004 1.5000000000000002 0.85000000000000009 20.500000000000004 1.0000000180025095e-35 26.500000000000004 10.500000000000002 46.500000000000007 14.708333333333337 29.500000000000004 1.5000000000000002 11.500000000000002 69.500000000000014 5.5000000000000009 67.500000000000014 74.500000000000014 9.3750000000000053 10.500000000000002 44.500000000000007 12.500000000000002 19.500000000000004 4.5000000000000009
decision_type=2 2 2 2 2 2 2 2 2 2 2 2 2 2 2 2 2 2 2 2 2 2 2 2 2 2 2 2 2 2
left_child=1 3 15 6 5 12 9 -8 -9 10 -1 -12 -5 14 -13 16 18 22 26 -10 -6 -22 23 -15 25 -7 27 -2 29 -29
right_child=2 -3 -4 4 20 24 7 8 19 -11 11 13 -14 17 -16 -17 -18 -19 -20 -21 21 -23 -24 -25 -26 -27 -28 28 -30 -31
leaf_value=-0.0044074383914023008 0.015321582952494021 0.069254709092998898 0.04766096265473295 -0.016727943240220075 0.0028332516487937724 -0.012943505641081801 0.019406722626413304 -0.0048913029210590746 -0.013218491685957146 -0.0044648209040175305 0.0058146635152205688 -0.024593091692223158 0.004529541656558703 -0.030842778184622052 0.027329057085189942 0.0025863425907548081 0.047064178923886327 -0.013910826207030384 0.0026533981187559182 -0.055803718939562624 -0.077529888164330055 0.00043186147343269188 0.063214393013308473 0.040774084702510163 0.01602949305472209 -0.082713051659002196 0.035081470392452387 0.0048015619174660989 0.039991288531650841 -0.036543419713893834
leaf_weight=709.77874466124922 228.22365836426616 7.2012230819091192 17.955784129910171 59.286509342491627 1872.7001819210127 190.80715170968324 36.890271602198482 2084.1497800145298 255.34656271338463 1550.9283160194755 950.03743780590594 76.271544225513935 254.98645947594196 6.4651758074760464 14.072733014822004 3666.4686404392123 13.59610905498266 19.150776401162148 351.70217593945563 10.166556365787981 6.0221972353756419 8.9213557727634889 9.0863985940814 8.1257705390453321 16.763607561588287 6.7607875168323508 29.146801702678204 36.310084003955126 10.373295933008192 20.897255606949329
leaf_count=3354 758 124 232 360 6932 915 111 7781 1038 6300 3403 331 957 29 38 13260 34 59 1377 39 26 43 28 26 61 21 92 125 40 86
internal_value=-3.86781e-11 -0.00199369 0.00371603 -0.00205667 0.00092946 -0.00491289 -0.00331577 -0.00562356 -0.00601654 -0.00166871 0.000749915 0.0041293 0.000519391 -0.00789393 -0.0165053 0.00353492 0.00857355 0.0102714 0.00780015 -0.0148491 0.00256552 -0.0309864 0.0298305 0.00904101 -0.0128782 -0.015331 0.0133706 0.0112313 -0.00258167 -0.0103013
internal_weight=12528.6 8153.92 4374.67 8146.72 2416.25 528.605 5730.47 2386.55 2349.66 3343.92 1792.99 1083.21 314.273 133.172 90.3443 4356.72 690.249 42.8281 676.653 265.513 1887.64 14.9436 23.6773 14.5909 214.332 197.568 324.951 295.804 67.5806 57.2073
internal_count=47980 31976 16004 31852 9315 2314 22537 8969 8858 13568 7268 3914 1317 511 369 15772 2512 142 2478 1077 7001 69 83 55 997 936 1101 1009 251 211
is_linear=0
shrinkage=0.05


Tree=17
num_leaves=31
num_cat=0
split_feature=1 0 0 30 27 7 10 30 15 1 17 2 27 9 3 3 28 30 17 5 16 27 2 7 9 2 30 27 6 16
split_gain=31.491 12.8589 12.786 10.5156 8.1825 7.92564 6.95669 6.84213 7.3131 6.71874 9.34756 14.5435 11.9419 11.207 11.2058 11.2043 10.1634 8.95255 14.1684 15.6479 12.6842 11.0445 10.4722 10.892 9.83876 12.1969 11.03 9.41365 8.66265 15.6031
threshold=1.5000000000000002 1.5000000000000002 1.5000000000000002 0.47913043478260875 1.0000000180025095e-35 12.500000000000002 1.5000000000000002 0.61721611721611735 59.500000000000007 3.5000000000000004 5.5000000000000009 12.500000000000002 5.5499999999999998 14.500000000000002 18.500000000000004 8.5000000000000018 21.708333333333339 0.41042780748663105 4.5000000000000009 1.0000000180025095e-35 86.500000000000014 7.0499999999999998 7.5000000000000009 22.500000000000004 6.5000000000000009 6.5000000000000009 0.42582417582417587 3.9499999999999997 12.500000000000002 94.500000000000014
decision_type=2 2 2 2 2 2 2 2 2 2 2 2 2 2 2 2 2 2 2 2 2 2 2 2 2 2 2 2 2 2
left_child=1 3 5 6 -5 7 -1 -2 -9 -7 11 13 14 15 -12 -11 -14 27 20 -20 -19 22 -22 -24 -21 26 -26 -17 -13 -30
right_child=2 -3 -4 4 -6 9 -8 8 -10 10 12 28 16 -15 -16 17 -18 18 19 24 21 -23 23 -25 25 -27 -28 -29 29 -31
leaf_value=-0.0016137581438361759 0.0072292845937692272 0.067338461399791938 0.04631097383025215 -0.0048912166105350881 0.0023523094708879123 0.0011734191059651188 -0.0051646980857199517 0.015815215818784891 0.064085946780149658 -0.019171768689915516 0.01331947528132281 0.00094488168865065046 0.02001698159785726 -0.028993695863608889 -0.055429800681178268 -0.030696053498477139 0.064785996237314875 0.0016947890817952166 -0.031124431200517125 0.078041943196229077 0.033317171793708772 0.084621148626219958 -0.048611014581778987 0.027755477670092496 -0.054669153811103294 0.050526477413062404 0.02738995040669074 0.0056707248350612097 -0.054412158952593805 0.012550018643895581
leaf_weight=3366.5976538630202 533.00462063215673 6.7113476619124404 17.310765149071813 489.73003683611751 1912.1243619117886 2794.8405741937459 2336.5908088963479 29.641788966953754 10.671230323612688 37.842720442451537 26.915722198784351 37.307221598923206 36.457290548831224 21.766840968281031 7.6010246872901908 18.575596023350954 19.435350053012371 165.54770227149129 8.0955894216895086 15.045128613710402 44.84442250803113 7.4348782375454894 9.5402344316244143 9.1449068635702115 6.2355671077966717 31.975587520748377 11.929474268108605 423.23645763937384 26.737438417971134 12.895113438367842
leaf_count=13568 1829 124 232 2201 7114 10444 8969 94 28 162 112 126 100 63 21 88 48 561 28 32 121 20 29 25 25 75 42 1572 76 51
internal_value=-2.66384e-11 -0.00184254 0.00342486 -0.00189982 0.000875379 0.00325406 -0.00306857 0.00873148 0.0285929 0.00242185 0.00598743 0.00442829 0.021304 0.00639875 -0.00181999 0.0073746 0.0355844 0.00871119 0.0152279 0.0344378 0.00927591 0.0269614 0.0202134 -0.0112356 0.0425802 0.0319395 -0.000778719 0.00414172 -0.0163473 -0.0326249
internal_weight=12475.8 8111.75 4364.03 8105.04 2401.85 4346.72 5703.19 573.318 40.313 3773.4 978.564 888.155 90.4094 811.215 34.5167 789.448 55.8926 751.606 309.793 73.2813 236.512 70.9644 63.5296 18.6851 65.1858 50.1406 18.165 441.812 76.9398 39.6326
internal_count=47980 31976 16004 31852 9315 15772 22537 1951 122 13821 3377 3096 281 2843 133 2780 148 2618 958 202 756 195 175 54 174 142 67 1660 253 127
is_linear=0
shrinkage=0.05


Tree=18
num_leaves=31
num_cat=0
split_feature=1 0 0 30 5 15 27 15 8 29 30 15 11 6 15 16 7 9 28 13 6 30 2 28 3 22 30 17 31 28
split_gain=29.4052 13.7226 11.0646 9.41285 8.88793 8.65225 7.68547 8.72791 7.63425 7.60438 12.9342 7.58347 7.45978 7.41234 7.37087 7.34721 6.53625 6.53129 10.0828 6.46843 10.4261 7.09265 6.26952 9.46491 8.3608 16.7209 14.608 15.1303 13.746 10.2708
threshold=1.5000000000000002 1.5000000000000002 1.5000000000000002 0.39642857142857152 3.5000000000000004 73.500000000000014 0.70000000000000007 65.500000000000014 11.500000000000002 4.5000000000000009 0.28285714285714292 16.500000000000004 1.5000000000000002 10.500000000000002 56.500000000000007 119.50000000000001 11.500000000000002 3.5000000000000004 8.0416666666666696 1.0000000180025095e-35 1.0000000180025095e-35 0.93750000000000011 4.5000000000000009 20.708333333333339 12.500000000000002 1.5000000000000002 0.30602006688963218 3.5000000000000004 0.19500000000000001 17.125000000000004
decision_type=2 2 2 2 2 2 2 2 2 2 2 2 2 2 2 2 2 2 2 2 2 2 2 2 2 2 2 2 2 2
left_child=2 8 3 4 5 6 7 11 -2 17 -11 -1 22 -12 16 19 -14 18 -6 21 -21 -5 23 -8 25 -24 29 28 -28 -27
right_child=1 -3 -4 15 9 -7 12 -9 -10 10 13 -13 14 -15 -16 -17 -18 -19 -20 20 -22 -23 24 -25 -26 26 27 -29 -30 -31
leaf_value=0.069407362957314853 0.0090710991279188847 0.04577576836192037 0.064678590159067212 -0.0002691750267773113 0.0086067946059499457 -0.055809493742525057 0.00064798797393463134 -0.050104421912458598 0.002391295154727286 0.041118611513538655 -0.07190046515452285 -0.0069584052496282425 0.024795623337995579 -0.021040375819315657 0.045216968653666929 -0.05640693953458395 -0.021728112091076241 -0.0069551172505425323 -0.059745660077357925 -0.0037809581345839161 -0.03400435413969715 0.016581917875383208 0.065972541071602039 0.048496657046253375 -0.0077787226259766699 -0.0013425968741352784 0.07471634173354734 -0.018638346455778318 0.0038109305792774551 0.04502895815032977
leaf_weight=3.2686448171734801 481.49045740440488 18.952731201425195 6.2575570344924918 4667.6324564442039 8.6278237700462359 7.6377460584044448 1034.8623478990048 11.722958486527203 3831.5878819013014 5.0745687186717978 13.788809925317766 600.64032002352178 16.891496106982235 14.910058781504629 16.823579251766205 5.8627800047397605 13.650503516197203 548.83847352489829 14.400117397308348 147.53947741165757 35.376743933185935 63.290970172733068 10.21922145038843 10.439405202865599 602.57721717655659 21.248332375660539 7.713798761367797 101.33385152369738 60.017112452536821 27.260798774659634
leaf_count=16 1666 232 124 17962 34 38 3847 66 14106 16 63 2942 55 57 46 26 53 2167 66 648 361 233 23 18 2383 73 16 324 241 78
internal_value=-4.47414e-11 0.00332354 -0.00178235 -0.00183388 -0.00396707 -0.00267218 -0.00251231 -0.00737454 0.003137 -0.0094112 -0.0324656 -0.00654508 -0.000955739 -0.0454769 0.0186411 -0.000467189 0.00400221 -0.00804965 -0.0341362 -0.000400446 -0.00962629 -4.37387e-05 -0.00145061 0.00112585 -0.00469396 0.00346612 0.000530256 -0.00640954 0.0118863 0.0247169
internal_weight=12409.9 4332.03 8077.91 8071.65 3151.95 2546.31 2538.67 615.632 4313.08 605.64 33.7734 603.909 1923.04 28.6989 47.3656 4919.7 30.542 571.866 23.0279 4913.84 182.916 4730.92 1875.67 1045.3 830.37 227.793 217.574 169.065 67.7309 48.5091
internal_count=47980 16004 31976 31852 12622 10219 10181 3024 15772 2403 136 2958 7157 120 154 19230 108 2267 100 19204 1009 18195 7003 3865 3138 755 732 581 257 151
is_linear=0
shrinkage=0.05


Tree=19
num_leaves=31
num_cat=0
split_feature=1 0 0 3 2 15 31 30 27 31 3 30 15 15 17 22 10 1 28 28 15 17 2 27 15 20 3 27 3 22
split_gain=25.6652 12.6877 9.13595 8.13773 10.5591 8.91038 9.12334 8.0113 7.67675 8.03248 11.1608 12.6092 12.5583 12.5575 15.1691 11.1191 10.2013 12.2205 14.0883 13.1828 12.2719 10.0191 9.48555 9.09729 9.08566 8.8872 8.6137 7.92568 7.81201 8.24354
threshold=1.5000000000000002 1.5000000000000002 1.5000000000000002 11.500000000000002 13.500000000000002 58.500000000000007 0.53000000000000014 0.47913043478260875 8.7500000000000018 0.2950000000000001 15.500000000000002 0.35147058823529415 52.500000000000007 36.500000000000007 4.5000000000000009 6.5000000000000009 3.5000000000000004 3.5000000000000004 14.625000000000005 16.458333333333339 46.500000000000007 5.5000000000000009 5.5000000000000009 4.2500000000000009 37.500000000000007 1.5000000000000002 27.500000000000004 9.0500000000000025 24.500000000000004 5.5000000000000009
decision_type=2 2 2 2 2 2 2 2 2 2 2 2 2 2 2 2 2 2 2 2 2 2 2 2 2 2 2 2 2 2
left_child=2 3 7 4 5 -2 -7 -1 9 10 11 -5 -13 14 -12 25 24 18 20 -19 -18 -20 -16 -14 -15 26 28 -10 29 -11
right_child=1 -3 -4 8 -6 6 -8 -9 27 15 13 12 23 16 22 -17 17 19 21 -21 -22 -23 -24 -25 -26 -27 -28 -29 -30 -31
leaf_value=-0.0027520408674507443 0.0064047861091453889 0.044640107048908986 0.060249350302233967 -0.014909691213899484 -0.0381713983413349 -0.0006298370655686788 0.048711936967147568 0.00070485140384886618 0.065130379196312219 0.0055733976860177217 -0.0072166773916824455 0.0022889649227597355 -0.054925706334060381 -0.04078929084896827 0.073095296686235711 0.033486558541455658 0.035145021249817117 0.055859389810582818 -0.059338081968848648 -0.012956624258144867 -0.033027775576938173 0.014716008730943765 0.0094127050592689027 -0.011194973491380397 0.0031394551194880993 -0.019010750571727034 -0.039493636211099602 0.0086042720044307176 0.027445153059396123 -0.014437045822282505
leaf_weight=5617.5577923934907 987.85861973837018 18.310295230709016 5.9518612138926974 232.54420824814588 12.902667831629513 14.883293289691208 25.282784894108772 2388.6334511088207 9.4407902732491511 959.03221988957375 17.811915311962366 445.29207113664597 14.796709476038812 11.88786471262574 17.979876101017002 32.943417824804783 12.901678390800955 10.762687817215921 29.888687565922737 19.693762637674809 13.517974045127628 5.3913093209266654 8.6655755192041379 60.595305480062962 1193.3798098787665 40.396823517978191 10.823805995285509 18.071840271353722 38.503164878115058 54.387183530256152
leaf_count=22537 3582 232 124 1001 45 53 80 9315 30 3317 62 1618 59 47 48 95 54 24 122 75 101 17 28 323 4480 142 36 44 114 175
internal_value=-6.65114e-11 0.00310738 -0.00167465 0.00293051 0.00677925 0.00734343 0.0304286 -0.00172068 0.00170111 0.00147718 -0.000358578 -0.00522947 -0.000906163 0.00237557 0.0285052 0.00486259 0.00148021 -0.0145536 -0.027346 0.0113616 0.000263484 -0.0480215 0.0523846 -0.0197777 0.00270617 0.00400778 0.00488276 0.0280009 0.00533937 0.0044995
internal_weight=12330.1 4317.95 8012.14 4299.64 1040.93 1028.02 40.1661 8006.19 3258.71 3231.2 2095.11 753.228 520.684 1341.88 44.4574 1136.09 1297.42 92.1561 61.6996 30.4565 26.4197 35.28 26.6455 75.392 1205.27 1103.14 1062.75 27.5126 1051.92 1013.42
internal_count=47980 16004 31976 15772 3760 3715 133 31852 12012 11938 8059 3001 2000 5058 138 3879 4920 393 294 99 155 139 76 382 4527 3784 3642 74 3606 3492
is_linear=0
shrinkage=0.05


Tree=20
num_leaves=31
num_cat=0
split_feature=1 0 0 8 30 20 3 15 27 28 28 8 27 28 0 16 28 2 30 17 8 3 16 16 16 2 28 28 22 28
split_gain=25.1633 12.1662 9.58942 7.28217 7.01227 8.60426 9.87831 13.4466 9.72211 10.6409 16.6945 12.9714 10.0578 9.36497 15.9362 10.192 13.9126 12.4285 11.2358 10.9972 7.99208 12.8875 7.86842 8.69606 7.64361 12.6582 7.56646 7.11669 6.60436 11.1055
threshold=1.5000000000000002 1.5000000000000002 1.5000000000000002 11.500000000000002 0.38278388278388281 1.0000000180025095e-35 22.500000000000004 48.500000000000007 2.0500000000000003 15.54166666666667 14.875000000000005 14.500000000000002 3.4500000000000006 14.458333333333337 1.0000000180025095e-35 42.500000000000007 10.541666666666671 7.5000000000000009 0.49000000000000005 3.5000000000000004 13.500000000000002 16.500000000000004 50.500000000000007 60.500000000000007 23.500000000000004 1.5000000000000002 7.5416666666666687 10.125000000000005 1.0000000180025095e-35 9.2916666666666696
decision_type=2 2 2 2 2 2 2 2 2 2 2 2 2 2 2 2 2 2 2 2 2 2 2 2 2 2 2 2 2 2
left_child=2 3 4 -2 28 6 8 22 -6 10 13 -11 -13 14 15 26 19 -18 20 -17 -19 -22 -8 -24 -9 -26 -10 -28 -1 -30
right_child=1 -3 -4 -5 5 -7 7 24 9 11 -12 12 -14 -15 -16 16 17 18 -20 -21 21 -23 23 -25 25 -27 27 -29 29 -31
leaf_value=-0.0075523980471888328 0.0087563932475789204 0.043346079389058038 0.06179748950522497 0.002165491596006854 -0.00037255771578746102 -0.0057196274197752134 -0.02026311674099078 0.026949613940790037 -0.071346002286917551 -0.07184572634493655 0.036026551087218063 -0.011982801904361629 0.015107711372546295 -0.018026457087515393 0.038873778139078219 -0.0002322505299954144 0.016195703020351063 0.026154029350964766 -0.046067469597684561 0.078208337143052739 0.0053430854173333918 -0.05116536125446302 0.092288923260981065 0.017192778871933916 -0.056994848163284796 -0.012936670714488775 0.0069249554126931791 -0.015841402795820872 0.0074771787001878497 -0.0036714674641636028
leaf_weight=811.26607686001807 469.68519896268845 18.649582085199654 5.9479476837441316 3890.8250926099718 3646.6979174409062 722.13041072152555 6.9426496624946621 10.216776706278322 4.2039763443171969 7.0241634994745246 52.966098917648196 96.050248159095645 53.25986173003912 36.113052807748318 39.269697494804859 6.7780688274651792 164.56665400229394 22.215943545103073 15.246546128764747 13.112325355410574 37.871147122234106 13.754317730665205 5.8532136678695705 11.292370513081549 18.209531456232071 155.6815764605999 76.73663015384227 62.110509194433689 258.12149938195944 1659.3578534498811
leaf_count=3920 1666 232 124 14106 14567 2842 33 32 30 28 179 344 195 132 124 33 493 79 53 27 128 54 11 43 84 695 312 237 952 6225
internal_value=-7.37858e-11 0.00304777 -0.00166563 0.00287542 -0.00171277 -0.000648881 0.000154807 -0.0104846 0.000664259 0.00605578 0.00935464 -0.00544329 -0.00231944 0.00648316 0.00842478 0.00555455 0.0112101 0.00805246 -0.00699005 0.0514781 0.00107854 -0.00971218 0.024645 0.0428293 -0.0150809 -0.0175504 -0.00526006 -0.00325912 -0.00377069 -0.00217069
internal_weight=12392.2 4379.16 8013 4360.51 8007.05 5278.3 4556.17 208.196 4347.98 701.279 544.945 156.334 149.31 491.979 455.866 416.596 273.545 253.655 89.088 19.8904 73.8414 51.6255 24.0882 17.1456 184.108 173.891 143.051 138.847 2728.75 1917.48
internal_count=47980 16004 31976 15772 31852 20755 17913 898 17015 2448 1881 567 539 1702 1570 1446 867 807 314 60 261 182 87 54 811 779 579 549 11097 7177
is_linear=0
shrinkage=0.05


Tree=21
num_leaves=31
num_cat=0
split_feature=1 0 20 3 15 17 2 17 9 1 16 30 3 11 5 11 28 15 9 30 16 27 27 3 28 31 16 16 16 30
split_gain=22.9705 17.1182 11.7214 11.971 12.1709 10.5273 9.58279 9.7296 12.816 9.26903 9.56955 8.025 9.9466 7.64382 7.60329 8.12821 10.0492 8.03993 8.6294 11.2518 9.04035 7.38228 12.2709 8.73032 7.26752 11.1893 8.69805 10.7086 8.79801 7.01014
threshold=1.0000000180025095e-35 1.5000000000000002 1.0000000180025095e-35 12.500000000000002 65.500000000000014 6.5000000000000009 11.500000000000002 4.5000000000000009 8.5000000000000018 2.5000000000000004 44.500000000000007 0.52506265664160412 13.500000000000002 2.5000000000000004 3.5000000000000004 1.0000000180025095e-35 14.041666666666671 67.500000000000014 5.5000000000000009 0.6132478632478634 16.500000000000004 4.0500000000000007 3.4500000000000006 15.500000000000002 9.1250000000000053 0.55000000000000016 28.500000000000004 37.500000000000007 55.500000000000007 0.84523809523809534
decision_type=2 2 2 2 2 2 2 2 2 2 2 2 2 2 2 2 2 2 2 2 2 2 2 2 2 2 2 2 2 2
left_child=13 2 3 4 6 11 29 8 -8 -4 -11 -5 -13 -1 17 16 -16 18 19 24 -21 22 -20 -23 25 -14 -26 -28 -29 -2
right_child=1 -3 9 5 -6 -7 7 -9 -10 10 -12 12 14 -15 15 -17 -18 -19 21 20 -22 23 -24 -25 26 -27 27 28 -30 -31
leaf_value=-0.0027275832764451719 0.0044663209713339041 0.045773173124438585 -0.0055888975207939052 0.00044423570023282221 0.031795273991443745 -0.052073440182768597 -0.039378283410269055 0.050176029071284003 0.044357018360722457 -0.032497720766645123 0.0044962603468579367 0.029116013928276521 -0.02805985869715949 0.035726192059355462 0.024052310238864495 0.052796777576112466 -0.029804925255040499 0.03051151803295267 -0.0099478228761849721 0.031885214955723266 -0.032910342132236141 0.048841567219920973 -0.062005427567823269 -0.0068988135781018426 0.077759019854593936 0.051103042484332277 -0.034590860574038679 0.055835349166577064 0.0018459766256124289 0.050754551253786008
leaf_weight=4951.4750097934157 1875.301041258499 22.041372110135853 880.87074582371861 3630.3896590257064 43.979733131825924 9.3127945326268655 9.3521332629025 23.483215615153313 8.9355975911021215 18.17740011960268 456.37713369634002 49.410546317696571 14.48702158778906 12.95709705352783 34.032834500074387 14.974987208843229 11.618115425109862 21.224836867302656 85.304644264280796 7.1934755742549923 21.390030551701784 10.236763764172791 13.052115410566328 22.387945301830769 8.4300688803195936 6.4516162201762191 6.9301713332533827 18.731341037899259 12.636354483664034 8.2153057754039747
leaf_count=20918 6401 319 3589 13377 151 36 41 58 24 65 1723 168 53 30 109 34 45 70 310 31 78 28 47 77 17 22 29 42 57 31
internal_value=-6.38679e-11 0.00177574 0.00164331 0.00259668 0.00578763 0.00102501 0.00519353 0.0288808 0.00153576 -0.00255405 0.00307924 0.00114898 0.00828577 -0.00262722 0.00495581 0.0208314 0.0103457 0.001082 -0.0016669 0.00969969 -0.0166036 -0.0100195 -0.016856 0.010591 0.0208106 -0.00366817 0.0317795 0.0216586 0.0340859 0.00466822
internal_weight=12309.4 7344.93 7322.89 5967.46 1969.27 3998.2 1925.29 41.7709 18.2877 1355.43 474.555 3988.88 358.493 4964.43 309.082 60.6259 45.6509 248.456 227.232 96.2501 28.5835 130.981 98.3568 32.6247 67.6666 20.9386 46.7279 38.2979 31.3677 1883.52
internal_count=47980 27032 26713 21336 6706 14630 6555 123 65 5377 1788 14594 1217 20948 1049 188 154 861 791 329 109 462 357 105 220 75 145 128 99 6432
is_linear=0
shrinkage=0.05


Tree=22
num_leaves=31
num_cat=0
split_feature=1 0 0 8 22 27 6 13 31 8 20 1 20 2 3 3 27 16 3 16 16 27 17 3 7 9 15 30 28 16
split_gain=23.7542 10.4337 8.71729 7.66537 6.55522 6.38143 11.1637 8.94648 8.62926 6.53298 6.49935 6.08047 8.78928 6.87335 5.98837 5.92301 11.5849 9.08587 12.3696 10.3155 9.46189 13.2669 8.05701 6.3724 6.1633 7.12176 7.14021 5.89687 8.73173 10.4787
threshold=1.5000000000000002 1.5000000000000002 1.5000000000000002 11.500000000000002 9.5000000000000018 1.0000000180025095e-35 2.5000000000000004 1.0000000180025095e-35 0.27333333333333337 1.0000000180025095e-35 1.0000000180025095e-35 2.5000000000000004 1.0000000180025095e-35 14.500000000000002 23.500000000000004 18.500000000000004 1.9500000000000004 43.500000000000007 10.500000000000002 42.500000000000007 73.500000000000014 2.2500000000000004 1.5000000000000002 10.500000000000002 3.5000000000000004 1.5000000000000002 28.500000000000004 0.4188596491228071 19.958333333333339 98.500000000000014
decision_type=2 2 2 2 2 2 2 2 2 2 2 2 2 2 2 2 2 2 2 2 2 2 2 2 2 2 2 2 2 2
left_child=2 3 4 14 5 8 15 10 -1 -10 27 12 13 -5 -2 17 -17 19 -19 22 21 -20 23 -7 -24 -26 -27 -8 29 -29
right_child=1 -3 -4 11 -6 6 7 -9 9 -11 -12 -13 -14 -15 -16 16 -18 18 20 -21 -22 -23 24 -25 25 26 -28 28 -30 -31
leaf_value=-0.060018985493370813 0.00966032997188024 0.041368553885604856 0.060881651119105068 0.0014317232821485669 -0.050815407728845553 -0.017082678354462522 -0.0025713257171392444 -0.039480203960691906 0.011562053706772704 -0.0063944386135101131 -0.00539103463604651 0.0040626914993051313 -0.0072363983707244136 0.048723886448972721 -0.035255345359186438 2.7234996199882261e-05 -0.056153707098062999 0.06992935942671985 0.010565448508663793 -0.056347343691378719 -0.034276569550393154 0.074250643673628533 0.036587741907588588 0.017451945163888701 -0.015505828771041561 0.041581803653558062 0.0063375562283722823 0.0008589656315209634 0.050456794831791163 -0.041923632210780534
leaf_weight=7.2524602003395549 452.85005812719464 17.633008917793632 5.5738983489572993 1549.0233605541289 6.779184214770793 65.478268316015601 2837.8962197629735 15.734260518103836 54.114846751093864 791.89478786382824 1016.3101642355323 1941.5286842230707 337.30717522278428 7.7212890535593024 7.544461101293563 49.510564021766186 11.263503655791281 11.397180831059812 50.775249131023884 7.0406385846436015 8.9429853558540326 9.7476594652980548 16.793995052576065 16.781163537874818 36.417533472180367 14.83218866959214 461.76239555329084 2404.5181720498949 8.815487898886202 14.398055717349051
leaf_count=46 1629 232 124 5765 29 360 11091 217 203 3910 4213 6922 1397 22 37 202 48 32 193 31 36 25 51 95 159 39 1728 9072 25 47
internal_value=-1.96876e-11 0.00298569 -0.00162532 0.00282814 -0.00166932 -0.00162721 -0.00113349 -0.0018246 -0.00571141 -0.00524585 -0.00173028 0.0020964 8.08293e-05 0.00166629 0.0089243 0.00458778 -0.010385 0.00588777 0.0216501 0.00382901 0.013729 0.0208224 0.00452122 -0.0100375 0.00678166 0.00580593 0.0074344 -0.00102373 0.000785334 0.000604312
internal_weight=12237.6 4313.61 7924.03 4295.98 7918.46 7911.68 7058.42 6297.67 853.262 846.01 6281.94 3835.58 1894.05 1556.74 460.395 760.743 60.7741 699.969 80.8631 619.106 69.4659 60.5229 612.066 82.2594 529.806 513.012 476.595 5265.63 2427.73 2418.92
internal_count=47980 16004 31976 15772 31852 31823 27664 24665 4159 4113 24448 14106 7184 5787 1666 2999 250 2749 286 2463 254 218 2432 455 1977 1926 1767 20235 9144 9119
is_linear=0
shrinkage=0.05


Tree=23
num_leaves=31
num_cat=0
split_feature=1 24 0 8 27 15 22 28 31 30 6 3 1 31 0 29 3 8 2 30 15 2 3 31 31 6 2 17 28 28
split_gain=30.5544 19.3103 11.3169 8.84548 13.048 12.248 8.78568 8.65859 10.5525 10.3764 10.0504 8.48358 7.89138 8.02322 9.27767 84.4767 7.63949 11.9955 8.46452 8.40878 7.62424 7.40487 16.2269 15.2656 7.85543 7.31211 8.28814 7.2192 11.2722 9.18811
threshold=2.5000000000000004 1.5000000000000002 1.5000000000000002 16.500000000000004 5.9500000000000002 44.500000000000007 5.5000000000000009 15.708333333333337 0.41500000000000009 0.49000000000000005 9.5000000000000018 7.5000000000000009 1.0000000180025095e-35 0.37500000000000006 1.0000000180025095e-35 1.0000000180025095e-35 8.5000000000000018 19.500000000000004 8.5000000000000018 0.37715517241379315 23.500000000000004 8.5000000000000018 18.500000000000004 0.27333333333333337 0.35000000000000003 5.5000000000000009 2.5000000000000004 2.5000000000000004 16.875000000000007 14.291666666666673
decision_type=2 2 2 2 2 2 2 2 2 2 2 2 2 2 2 2 2 2 2 2 2 2 2 2 2 2 2 2 2 2
left_child=1 2 12 4 5 6 7 8 -2 10 11 -10 25 14 27 -16 17 -5 19 -19 -18 -7 23 -23 -25 26 -1 28 29 -14
right_child=3 -3 -4 16 -6 21 -8 -9 9 -11 -12 -13 13 -15 15 -17 20 18 -20 -21 -22 22 -24 24 -26 -27 -28 -29 -30 -31
leaf_value=-0.0027162922939751298 0.041549045863026587 -0.07500102440071936 0.051962995546145911 -0.058863843807787135 0.034839576607195076 0.0065846822014263371 0.078040990110825603 -0.018722861999653131 0.077068677265349786 -0.03786274809654052 -0.0056282932272809201 0.01081042773186156 -0.014962309852270875 0.0025689955672238006 0.065613613052115355 -0.00084263942082484801 0.044079936162936532 -0.010614226635090658 -0.029049065480919095 0.046868440992195649 0.0034958374218640419 0.079816163985629268 -0.053009857077522732 -0.053371531433127707 0.01973246262509902 -0.0045465406455903806 0.0033428335106264577 -0.0024221118059081694 -0.036911530957110167 0.0077825407408442741
leaf_weight=1695.8042651182041 47.09711754694581 8.84573996812105 10.040452141314743 12.196312870830296 48.802382465451956 531.12551645934582 6.806620091199874 13.047932744026182 10.097012951970102 9.725723668932913 19.288163647055626 9.2630118951201421 126.95997284725308 2136.7810392398387 50.11689966917038 1043.1728760544211 11.671863220632074 13.907802267000081 18.005525629967451 11.726195334456859 1358.5475020343438 6.0719912946224239 16.756466988474131 6.8868667632341367 7.8787691444158554 2403.4479679577053 845.92090723104775 1629.8286922667176 37.579200383275747 68.282034041360021
leaf_count=7981 150 40 215 66 174 1706 20 42 24 31 57 31 740 7917 167 3676 28 56 73 38 4867 12 79 32 22 9439 3491 6273 205 328
internal_value=-1.4331e-11 -0.0011586 -0.0010936 0.00539711 0.00986164 0.00807962 0.0229371 0.0194809 0.0247021 0.0082999 0.0199166 0.0453667 -0.00114667 0.000234801 -0.00145254 0.00220375 0.0031028 -0.0150261 -0.00277445 0.015681 0.00384154 0.00506679 -0.0163778 0.0130796 -0.0143641 -0.00256935 -0.000699732 -0.0035986 -0.0118345 -0.00700775
internal_weight=12215.7 10056.8 10047.9 2158.9 732.848 684.045 115.326 108.519 95.471 48.3739 38.6482 19.36 10037.9 5092.72 2955.94 1093.29 1426.06 55.8358 43.6395 25.634 1370.22 568.72 37.5941 20.8376 14.7656 4945.17 2541.73 1862.65 232.821 195.242
internal_count=47980 40472 40432 7508 2380 2206 355 335 293 143 112 55 40217 19306 11389 3843 5128 233 167 94 4895 1851 145 66 54 20911 11472 7546 1273 1068
is_linear=0
shrinkage=0.05


Tree=24
num_leaves=31
num_cat=0
split_feature=1 1 24 0 31 3 28 16 6 2 28 31 28 30 29 16 27 16 16 6 15 15 30 6 17 20 27 15 9 28
split_gain=22.5203 9.38203 7.66724 6.98257 6.91338 7.69836 8.36216 10.9815 6.51241 7.18055 6.442 6.37584 9.67175 8.99555 7.76536 7.66629 7.18072 10.0592 11.8219 7.50073 6.94673 6.47537 6.35321 6.3504 6.06601 5.98739 8.5927 5.90321 11.492 11.128
threshold=2.5000000000000004 1.0000000180025095e-35 1.5000000000000002 1.5000000000000002 0.37500000000000006 5.5000000000000009 12.375000000000005 16.500000000000004 5.5000000000000009 2.5000000000000004 17.958333333333339 0.21500000000000002 12.625000000000005 0.49000000000000005 3.5000000000000004 68.500000000000014 5.6500000000000004 82.500000000000014 67.500000000000014 16.500000000000004 69.500000000000014 72.500000000000014 0.68990384615384626 14.500000000000002 3.5000000000000004 1.0000000180025095e-35 3.7500000000000004 45.500000000000007 3.5000000000000004 6.1250000000000027
decision_type=2 2 2 2 2 2 2 2 2 2 2 2 2 2 2 2 2 2 2 2 2 2 2 2 2 2 2 2 2 2
left_child=1 8 4 11 5 6 7 -3 9 27 -11 12 -2 15 -15 -14 19 18 20 23 -18 -22 -10 -13 -16 -6 -27 -1 -29 -30
right_child=3 2 -4 -5 25 -7 -8 -9 22 10 -12 16 13 14 24 -17 17 -19 -20 -21 21 -23 -24 -25 -26 26 -28 28 29 -31
leaf_value=-0.00039394073993784148 0.065042551568395751 0.049063706107319117 -0.051447462140051775 0.041521014528159664 0.0037369584282381909 -0.0012122221525065501 0.048442798008882182 -0.070019550860929966 -0.0042491506227952773 0.0033271604238254596 -0.050942589937513598 0.0062384560091051592 -0.017516418679681858 0.044705529223782188 0.029747267503956912 0.0018194441591149434 0.040714250342547532 0.085417488120437965 -0.0017790676510232623 0.060183358042890593 -0.022589832026335976 0.038880949728721324 -0.04548043028828553 -0.020706367966330005 -0.019607474522665452 -0.0057543611438633183 0.059148212825509944 -0.017984340518561612 -0.043148718458436333 -0.0010405876536662519
leaf_weight=1063.1872885292396 6.0745084881782523 3.6046061292290714 7.0885153934359542 12.778189486823974 1874.5808179192245 2914.8526441501454 15.756334191188214 4.182123027741909 2392.1846400182694 842.9648751206696 5.5039143301546565 740.99915789067745 53.725839823484421 22.21431190520525 11.961121469736101 1117.9547162256204 45.556659258902073 5.4461722448468199 51.981228401884437 6.3096802756190291 10.032687429338695 7.4770199730992308 9.3794887699186784 22.53196806460619 12.983416639268397 249.78338780812919 5.2060024142265311 161.89538153726608 16.259182795882225 448.22735576331615
leaf_count=4819 18 13 40 139 6867 11405 53 52 9410 3465 29 2485 196 67 38 3990 162 10 198 17 33 27 57 88 40 1080 14 904 118 2146
internal_value=-5.2478e-11 -0.000992591 0.000517233 0.00467121 0.000589915 -0.000982217 0.0274945 -0.0148939 -0.00254382 -0.000777806 0.00297512 0.0044486 0.00210824 0.00179459 0.0232054 0.000932824 0.00766844 0.0190184 0.0158752 0.00589196 0.0304264 0.00365951 -0.00441018 0.00544331 0.00405855 0.00275915 -0.00442927 -0.00266245 -0.0065129 -0.00251457
internal_weight=12142.7 10014.7 5075.05 2128.03 5067.97 2938.4 23.5431 7.78673 4939.6 2538.04 848.469 2115.25 1224.91 1218.84 47.1589 1171.68 890.335 120.494 115.048 769.841 63.0664 17.5097 2401.56 763.531 24.9445 2129.57 254.989 1689.57 626.382 464.487
internal_count=47980 40472 19524 7508 19484 11523 118 65 20948 11481 3494 7369 4349 4331 145 4186 3020 430 420 2590 222 60 9467 2573 78 7961 1094 7987 3168 2264
is_linear=0
shrinkage=0.05


Tree=25
num_leaves=31
num_cat=0
split_feature=1 0 1 20 3 3 15 28 9 15 9 30 6 15 3 28 9 17 16 27 27 3 5 7 6 9 2 11 31 2
split_gain=20.4136 13.9562 6.84935 7.60326 9.61507 7.63302 9.6565 8.78199 7.61108 14.1195 7.63705 7.27659 7.26695 6.78746 6.68918 11.7054 8.31512 8.18736 10.4222 9.08646 8.97519 7.7765 7.93399 7.18006 7.08756 8.18632 11.576 6.45217 6.42414 6.42296
threshold=1.0000000180025095e-35 1.5000000000000002 2.5000000000000004 1.0000000180025095e-35 8.5000000000000018 7.5000000000000009 48.500000000000007 11.708333333333337 5.5000000000000009 39.500000000000007 6.5000000000000009 0.36181818181818187 5.5000000000000009 32.500000000000007 10.500000000000002 7.7083333333333366 2.5000000000000004 1.5000000000000002 50.500000000000007 4.5500000000000007 2.7500000000000004 12.500000000000002 5.5000000000000009 11.500000000000002 8.5000000000000018 7.5000000000000009 5.5000000000000009 2.5000000000000004 0.51000000000000012 3.5000000000000004
decision_type=2 2 2 2 2 2 2 2 2 2 2 2 2 2 2 2 2 2 2 2 2 2 2 2 2 2 2 2 2 2
left_child=27 2 3 4 5 6 12 11 13 -10 -11 -8 -2 -7 16 -16 -6 -18 20 23 -19 22 -17 -20 29 26 -26 -1 -14 -25
right_child=1 -3 -4 -5 14 8 7 -9 9 10 -12 -13 28 -15 15 21 17 18 19 -21 -22 -23 -24 24 25 -27 -28 -29 -30 -31
leaf_value=-0.0025703174815198491 0.01656929334986601 0.042342932947674217 0.0039891966385924276 -0.0037526438323743738 -0.026244776865882686 -0.021152180748587719 -0.070697701197749957 0.049191094952676762 0.035433178556660151 -0.042200379137226046 0.0072843766616163905 -0.012759433985316961 0.008671332782967547 0.031452906003547297 0.034908845388424932 0.0049291661839732477 -0.035003199945126809 0.0039579626730538728 -0.05115469681730931 0.04006406092497454 0.039141356624638475 1.385419687563299e-05 0.029670469988233184 -0.016344900100630878 -0.025345813428229325 -0.047451283504519139 0.018658484127105211 0.033272747818496491 -0.016050444206610219 0.0090326222860098206
leaf_weight=4909.9523655772209 131.1785563249141 21.064149102196097 2092.569149191957 841.15369058959186 42.593935627490282 6.6484165154397479 6.0360532142221919 5.1844015195965758 20.366561468690634 15.99969455227256 15.208051681518553 53.030097749084234 68.541105421259999 78.919386645779014 25.834568977355957 539.0200683362782 18.924134202301502 123.16395492851734 10.26580126583576 9.3259804397821409 21.25427782535553 2740.480917301029 34.475580774247646 38.289161253720522 44.802698157727718 19.515740618109703 22.42644177377224 12.587727963924406 42.617481019347906 71.478497115895152
leaf_count=20918 473 319 7369 3589 148 30 26 17 75 73 54 209 346 249 88 1746 101 423 42 23 64 10661 81 151 153 52 69 30 170 231
internal_value=-1.57427e-11 0.00170401 0.0015841 0.000586859 0.0014548 0.00841585 0.00402986 -0.0132037 0.0182209 0.00304881 -0.0180856 -0.0186802 0.00859897 0.0273656 0.000633706 0.00138321 -0.00529745 -0.00294606 -0.00126335 -0.00821301 0.00913596 0.00112185 0.00641648 -0.0103904 -0.00826084 -0.0189425 -0.0106668 -0.00247866 -0.000806836 0.000180433
internal_weight=12082.9 7160.37 7139.3 5046.74 4205.58 443.73 306.588 64.2506 137.142 51.5743 31.2077 59.0662 242.337 85.5678 3761.85 3339.81 422.041 379.447 360.523 216.104 144.418 3313.98 573.496 206.778 196.513 86.7449 67.2291 4922.54 111.159 109.768
internal_count=47980 27032 26713 19344 15755 1722 1241 252 481 202 127 235 989 279 14033 12576 1457 1309 1208 721 487 12488 1827 698 656 274 222 20948 516 382
is_linear=0
shrinkage=0.05


Tree=26
num_leaves=31
num_cat=0
split_feature=1 0 0 16 3 3 6 22 6 3 3 2 15 16 15 3 15 21 28 27 17 15 11 30 27 30 28 6 28 28
split_gain=19.4689 8.407 7.85586 6.91668 7.65471 8.9806 6.02916 5.95468 10.0898 9.47798 8.30367 7.70038 7.61098 7.16837 7.14758 7.00798 6.48191 7.10029 9.04037 8.34619 6.56994 6.45648 7.18715 5.51125 9.29987 10.1506 9.65816 9.30026 6.97296 6.18973
threshold=1.5000000000000002 1.5000000000000002 1.5000000000000002 29.500000000000004 22.500000000000004 20.500000000000004 1.5000000000000002 1.0000000180025095e-35 2.5000000000000004 16.500000000000004 13.500000000000002 6.5000000000000009 43.500000000000007 7.5000000000000009 58.500000000000007 3.5000000000000004 42.500000000000007 1.0000000180025095e-35 13.208333333333337 1.9500000000000004 3.5000000000000004 46.500000000000007 2.5000000000000004 0.38278388278388281 1.3000000000000003 0.35147058823529415 16.208333333333339 5.5000000000000009 17.375000000000007 8.2083333333333375
decision_type=2 2 2 2 2 2 2 2 2 2 2 2 2 2 2 2 2 2 2 2 2 2 2 2 2 2 2 2 2 2
left_child=2 3 7 4 5 6 -2 21 9 10 -9 16 -12 15 -14 -10 -11 18 -18 20 -19 22 -1 24 -23 26 27 -26 -28 -25
right_child=1 -3 -4 -5 -6 -7 -8 8 13 11 12 -13 14 -15 -16 -17 17 19 -20 -21 -22 23 -24 29 25 -27 28 -29 -30 -31
leaf_value=-0.0016121808622491349 0.057717593003586698 0.037392789043855235 0.059341126357479325 0.002194886595594268 -0.037980944410711447 0.069774193589048419 0.010123911250590568 0.0070749196390674368 -0.011855341594949212 0.052211325764242013 -0.017938671656895357 -0.058988912852516728 0.043007575994891162 -0.0012151778740280858 -0.0058409312742057004 0.065196386944522886 -0.072072928826731386 -0.01065766652548958 0.010025529210782074 -0.054015292340877707 0.030627137914736525 -0.013520794237279516 0.048158331183846916 -0.0097109556031048771 0.077212327746219278 -0.037903136759477103 -0.039214395383514122 0.0080635812603652122 0.023454497854088457 -0.0002067689395094356
leaf_weight=1785.3946126541123 6.9741510301828376 17.446560116484761 5.3064573816955081 3988.2045642919838 7.1574380397796622 7.1166149675846091 145.06499128974974 254.23393002711236 4.7012583836913091 4.7805199027061454 7.9380909651517859 7.0128785967826834 43.461278058588505 4448.9752628905699 9.0474324449896795 7.9264315888285637 8.4260629564523679 19.34744817763567 5.5696256309747687 5.8866413533687583 19.199240013957024 365.40985665470362 7.2831661999225608 267.85970082972199 10.718796089291574 8.8564260825514776 8.1153124794363993 8.900099188089369 9.7973340451717359 475.26542712934315
leaf_count=7702 26 232 124 15149 39 14 544 1007 28 15 35 31 134 17298 35 29 40 84 21 26 65 1983 18 1221 21 44 37 26 32 1920
internal_value=-4.49166e-11 0.00275695 -0.00147471 0.0026115 0.0126019 0.0148767 0.0123071 -0.00151612 -0.000438324 0.0073289 0.0110353 -0.00928033 0.0276924 -0.0011084 0.0345908 0.0365102 -0.00376533 -0.0083452 -0.0394016 0.00143699 0.00990537 -0.00328825 -0.00140998 -0.00620372 -0.0108436 0.0102453 0.021607 0.045843 -0.0049376 -0.00363256
internal_weight=11971.4 4171.96 7799.41 4154.52 166.313 159.156 152.039 7794.11 4846.51 384.903 314.681 70.2224 60.4468 4461.6 52.5087 12.6277 63.2095 58.429 13.9957 44.4333 38.5467 2947.6 1792.68 1154.92 411.798 46.388 37.5315 19.6189 17.9126 743.125
internal_count=47980 16004 31976 15772 623 584 570 31852 18848 1493 1211 282 204 17355 169 57 251 236 61 175 149 13004 7720 5284 2143 160 116 47 69 3141
is_linear=0
shrinkage=0.05


Tree=27
num_leaves=31
num_cat=0
split_feature=1 0 1 16 15 9 31 15 15 30 17 30 7 9 6 16 2 28 31 28 20 3 15 28 28 6 30 16 22 28
split_gain=18.6011 12.2778 6.56597 8.09516 6.19948 6.16797 10.6193 9.64878 9.20523 9.0127 6.67944 7.27499 6.61491 6.09576 6.08344 6.03925 12.2128 5.68396 8.25112 5.68016 5.46144 6.67228 10.3626 6.69025 9.16628 9.07835 9.64662 6.33309 6.28737 5.37883
threshold=1.0000000180025095e-35 1.5000000000000002 2.5000000000000004 19.500000000000004 62.500000000000007 3.5000000000000004 0.41500000000000009 44.500000000000007 43.500000000000007 0.40824915824915831 2.5000000000000004 0.54195804195804198 4.5000000000000009 2.5000000000000004 6.5000000000000009 22.500000000000004 2.5000000000000004 5.7083333333333348 0.73000000000000009 4.8750000000000018 1.0000000180025095e-35 21.500000000000004 50.500000000000007 17.041666666666675 17.958333333333339 5.5000000000000009 0.41042780748663105 60.500000000000007 4.5000000000000009 16.875000000000007
decision_type=2 2 2 2 2 2 2 2 2 2 2 2 2 2 2 2 2 2 2 2 2 2 2 2 2 2 2 2 2 2
left_child=4 2 14 -4 5 6 -1 8 -8 -7 11 13 -11 -10 20 16 19 18 -12 -9 -2 22 23 29 -25 26 -26 28 -24 -22
right_child=1 -3 3 -5 -6 9 7 15 10 12 17 -13 -14 -15 -16 -17 -18 -19 -20 -21 21 -23 27 24 25 -27 -28 -29 -30 -31
leaf_value=-0.019154303872364793 0.0039710445961531971 0.04034530895621101 0.053141038517674467 0.0036933022285372281 -0.0092583880218974953 -0.0034248239241254628 -0.0019725641728286073 -0.048409346130314224 5.1849041502064576e-06 0.033696368926553054 -0.043079650743256315 0.037647668486836483 0.0016095266424627167 -0.067558298830485752 -0.00078801346612419009 -0.017796035782493527 0.019147711058695966 0.048004447387549096 0.034883644998705769 -0.0085877226853698623 0.0033565378768175488 0.029138469653602818 -0.02099886176421983 -0.052398975499834501 -0.0093408531881574892 -0.056944351521088767 0.059828028407545912 -0.050578465051313075 0.035016161252745197 0.04538839464288557
leaf_weight=115.45538048073649 1542.5922174835578 20.439379825256765 8.3101724926382285 2073.0923748761415 305.79538040608168 1523.5869020074606 908.40288362279534 9.4933925643563253 9.5856329351663607 16.224669326096773 5.1865023374557486 7.2587345391511908 1605.8660178147256 5.1224733656272283 3131.7299516536295 154.21532836556435 42.569536482915282 21.576977163553238 9.8177696317434293 157.88500727526844 119.4567287620157 14.272572121582924 40.918171972036362 12.726151306182144 16.019862055778511 5.9089207649230948 7.3550365716218939 16.022990150377154 5.7084449827671042 8.1294971108436567
leaf_count=712 5811 319 32 7337 1305 6729 4105 57 34 75 22 21 6028 38 12463 734 160 66 33 829 593 56 169 57 55 25 18 63 15 19
internal_value=1.37015e-13 0.00164948 0.00153653 0.00389073 -0.00236499 -0.00190596 -0.00460815 -0.00334648 -0.000734046 -0.000663329 0.0184822 -0.00331142 0.00193047 -0.0235255 0.000540761 -0.0102832 -0.00476467 0.0315691 0.0079342 -0.0108463 0.0028667 -0.00404375 -0.00608294 0.000336252 -0.0169702 -0.00157362 0.0124235 -0.0234601 -0.014141 0.00603471
internal_weight=11920.7 7022.68 7002.24 2081.4 4898.04 4592.25 1446.57 1331.11 966.951 3145.68 58.5481 21.9668 1622.09 14.7081 4920.84 364.163 209.948 36.5812 15.0043 167.378 1789.11 246.518 232.246 169.596 42.01 29.2838 23.3749 62.6496 46.6266 127.586
internal_count=47980 27032 26713 7369 20948 19643 6811 6099 4319 12832 214 93 6103 72 19344 1780 1046 121 55 886 6881 1070 1014 767 155 98 73 247 184 612
is_linear=0
shrinkage=0.05


Tree=28
num_leaves=31
num_cat=0
split_feature=1 0 3 15 30 3 2 16 28 0 17 27 3 18 17 22 27 31 3 5 27 30 30 21 31 27 30 5 27 3
split_gain=17.9855 11.3551 6.60139 8.68199 7.38054 7.12777 7.90986 10.7755 10.2697 10.5611 11.4557 8.81675 8.28496 6.52852 8.49612 9.9224 7.2069 8.63888 11.7654 10.4139 9.52391 11.9939 8.26352 8.24633 7.56632 11.2469 10.7709 7.32523 8.31704 7.47126
