tree
version=v4
num_class=1
num_tree_per_iteration=1
label_index=0
max_feature_idx=32
objective=lambdarank
feature_names=Column_0 Column_1 Column_2 Column_3 Column_4 Column_5 Column_6 Column_7 Column_8 Column_9 Column_10 Column_11 Column_12 Column_13 Column_14 Column_15 Column_16 Column_17 Column_18 Column_19 Column_20 Column_21 Column_22 Column_23 Column_24 Column_25 Column_26 Column_27 Column_28 Column_29 Column_30 Column_31 Column_32
feature_infos=[0:5] [0:9] [0:23] [0:43] [0:1] [0:15] [0:25] [0:32] [0:31] [0:16] [0:7] [0:3] [0:1] [0:3] [0:1] [0:84] [0:152] [0:8] [0:9] [0:23] [0:13] [0:13] [0:15] [0:1] [0:5] [0:9] none [0:11.100000000000003] [0:27.083333333333336] [0:5] [0:1] [0:0.97999999999999998] [0:2.8199999999999998]
tree_sizes=3447 3472 3484 3467 3479 3472 3472 3485 3455 3458 3458 3463 3478 3447 3476 3440 3502 3489 3502 3461 3485 3483 3475 3508 3475 3493 3461 3505 3464 3457 3474 3482 3466 3487 3491 3470 3423 3481 3466 3469 3423 3487 3442 3458 3473 3452 3462 3460 3467 3452 3462 3458 3433 3443 3473 3453 3466 3450 3465 3469 3457 3479 3432 3469 3454 3439 3462 3431 3435 3460 3455 3465 3441 3438 3431 3477 3461 3467 3471 3434 3427 3464 3475 3423 3457 3425 3455 3443 3428 3453 3443 3482 3477 3442 3466 3447 3439 3461 3451 3471 3440 3426 3432 3443 3464 3442 3465 3477 3440 3425 3427 3425 3447 3452 3428 3480 3419 3464 3459 3410 3429 3472 3416 3443 3442 3465 3456 3453 3458 3445 3427 3432 3478 3414 3458 3462 3440 3469 3459 3481 3453 3419 3431 3467 3443 3420 3389 3469 3473 3456 3468 3454 3449 3437 3439 3414 3478 3466 3411 3424 3429 3454 3450 3437 3442 3458 3476 3467 3502 3487 3426 3459 3476 3432 3472 3428 3403 3449

Tree=0
num_leaves=31
num_cat=0
split_feature=0 13 20 30 21 7 5 6 28 7 8 6 10 32 28 30 27 7 30 6 12 28 28 28 28 2 15 8 32 29
split_gain=73.6034 18.2071 7.03864 7.32674 5.04852 4.75433 3.50354 3.16194 3.06441 3.58995 2.9324 2.61198 2.42364 2.17499 9.15598 3.36845 2.31759 2.76812 1.98107 1.79972 1.69102 1.6888 1.61535 2.47063 4.35789 3.5392 1.48498 1.48898 1.43673 1.52511
threshold=1.5000000000000002 1.0000000180025095e-35 4.5000000000000009 0.65686274509803932 10.500000000000002 2.5000000000000004 3.5000000000000004 13.500000000000002 4.5416666666666687 7.5000000000000009 1.5000000000000002 1.0000000180025095e-35 4.5000000000000009 0.22 6.7916666666666687 0.39642857142857152 1.3000000000000003 9.5000000000000018 0.32795698924731187 10.500000000000002 1.0000000180025095e-35 17.791666666666675 15.625000000000005 13.875000000000005 12.125000000000005 1.5000000000000002 34.500000000000007 1.0000000180025095e-35 0.19000000000000003 3.5000000000000004
decision_type=2 2 2 2 2 2 2 2 2 2 2 2 2 2 2 2 2 2 2 2 2 2 2 2 2 2 2 2 2 2
left_child=1 2 3 4 6 26 10 -7 -8 -10 -1 -5 13 16 -15 22 -12 -18 -4 -20 -13 -6 23 24 25 -16 27 -3 29 -19
right_child=-2 5 18 11 21 7 8 -9 9 -11 12 20 -14 14 15 -17 17 28 19 -21 -22 -23 -24 -25 -26 -27 -28 -29 -30 -31
leaf_value=0.06346743988669952 0.099065885807193318 0.025138310718594344 0.077347176532214665 0.046403537333326431 -0.098497242203341634 -0.066429578481561696 -0.10000000000000001 0.023126381217225579 0.083880291845080251 -0.0094408829585720666 -0.0051717504094750122 0.010081923663949204 -0.036589198873962635 -0.080026146437673529 -0.066332834954392086 0.055985068462069493 0.020183434988541908 0.0028759471113761351 0.040742642699536175 -0.015739275357211296 0.070073984356201199 -0.024556546045150902 0.04971899349921137 -0.044219412886106819 0.07277099852328707 0.034360270098264666 0.088261266648185899 -0.030774373883996616 -0.052343308829233416 -0.0065789005379783792
leaf_weight=1.783009816193952 18.277559076988837 1.6212991245847685 2.6301971077918989 8.1428986863611517 1.7639672975055867 15.387352123740131 0.92641799105331202 1.0530621511861671 1.0379722146317352 144.08163221717405 200.17485542299983 21.37444599863375 4.6777459105651351 2.1879053302109268 1.7845622077584287 6.7628716533072284 19.287296862050425 193.85746500167443 5.8292110009351745 1.8604781497269867 1.2429370433092106 1.3735577855259178 2.0637902580201626 2.2551335729658604 2.198300663381815 1.7077712118625639 0.36230780091136683 4.4834852981148288 1.2785423696041096 54.682213113512262
leaf_count=60 356 152 22 344 74 675 73 27 24 9917 14397 1379 243 52 27 73 1239 13684 91 26 6 71 22 38 23 18 4 355 19 4489
internal_value=-1.36069e-10 -0.00255792 -0.00109147 -0.00171834 -0.00285723 -0.0464068 -0.00254741 -0.0606932 -0.00935208 -0.0087734 -0.000538536 0.0221211 -0.000770062 -0.000426885 0.0161757 0.0287249 -0.00109768 0.00193283 0.0398893 0.0270772 0.0133788 -0.0661272 0.0103067 7.00073e-05 0.0176214 -0.0170933 -0.0100883 -0.0159252 0.000523788 0.000795748
internal_weight=726.15 707.873 684.965 674.645 643.885 22.9075 640.747 16.4404 146.046 145.12 494.701 30.7603 492.918 488.241 18.9603 16.7724 469.28 269.106 10.3199 7.68969 22.6174 3.13753 10.0096 7.94577 5.69063 3.49233 6.46709 6.10478 249.818 248.54
internal_count=47980 47624 46411 46272 44543 1213 44398 702 10014 9941 34384 1729 34324 34081 253 201 33828 19431 139 117 1385 145 128 106 68 45 511 507 18192 18173
is_linear=0
shrinkage=0.05


Tree=1
num_leaves=31
num_cat=0
split_feature=0 5 27 2 6 7 8 15 15 1 9 13 30 11 22 6 17 3 20 10 10 28 3 16 30 10 30 30 32 16
split_gain=371.971 41.9175 80.0632 36.8013 22.0536 17.0126 16.3668 12.8044 11.1541 11.4001 10.8144 10.4412 10.0319 9.23394 8.52946 9.60548 8.59835 8.31592 8.17421 8.07155 10.0219 12.3749 11.3766 11.2613 10.7842 7.91097 7.83342 7.82506 7.99027 7.68844
threshold=1.5000000000000002 3.5000000000000004 1.3000000000000003 4.5000000000000009 2.5000000000000004 8.5000000000000018 1.0000000180025095e-35 8.5000000000000018 75.500000000000014 2.5000000000000004 2.5000000000000004 1.0000000180025095e-35 0.64495798319327746 2.5000000000000004 1.5000000000000002 9.5000000000000018 1.5000000000000002 19.500000000000004 3.5000000000000004 3.5000000000000004 2.5000000000000004 10.375000000000005 22.500000000000004 55.500000000000007 0.38013136288998362 2.5000000000000004 0.35147058823529415 0.86607142857142871 0.75000000000000011 51.500000000000007
decision_type=2 2 2 2 2 2 2 2 2 2 2 2 2 2 2 2 2 2 2 2 2 2 2 2 2 2 2 2 2 2
left_child=1 2 4 5 6 -4 -1 -8 9 14 -5 12 13 19 15 25 -16 -14 -3 20 -6 23 24 -22 -23 -7 -27 28 -9 -26
right_child=-2 18 3 10 11 8 7 27 -10 -11 -12 -13 17 -15 16 -17 -18 -19 -20 -21 21 22 -24 -25 29 26 -28 -29 -30 -31
leaf_value=0.070269384414238398 0.0918619083222319 -0.016615356382231793 0.042319875689388005 0.02888371876811013 -0.013884564268461966 0.012681014865624682 -0.045275509460650488 0.0024420631559945605 -0.098921554773867493 -0.0030326298247431703 -0.00014792880797768145 -0.062168074788034038 0.011141759133235372 0.043952104974090744 -0.0030203835599577444 -0.0067071542037564881 0.028929002938373857 -0.086650965336100338 0.011084925123850568 -0.035706228362710091 -0.0087043796363198075 -0.003628783599630727 -0.056067294139850746 -0.07715821201138226 -0.00041490706738667545 -0.048300491230461623 0.046256649139501622 0.023822689122538078 -0.019020267905956897 0.048250557954119228
leaf_weight=8.4777434079733194 106.98641829751432 537.58257281679835 61.767378958698828 33.517674859875115 896.90974628237745 180.15532228027587 14.995275624096392 330.46265269306605 2.1529776565730563 74.953487140941434 746.43574107786117 10.149358420632778 63.19896811794024 7.2258318960666648 23.686538071837276 54.688462930906098 189.81104869671253 2.2513272017240515 28.021060857921839 37.003865008242428 55.710030388087034 30.418274375144392 5.4202312147244802 6.7342841867357484 11.003869157750158 2.3609076087741405 30.308818611403694 36.629425478517078 49.91620143619366 30.923449990339577
leaf_count=203 356 10133 502 406 10232 1925 127 3452 12 1360 11893 179 564 26 261 696 2874 6 272 273 524 203 53 112 69 44 318 260 438 207
internal_value=5.11209e-11 -0.00275844 -0.00040252 0.00832711 -0.00805235 0.0174208 0.00146887 0.000118712 0.0146652 0.0151051 0.00109968 -0.0116773 -0.0112305 -0.012381 0.0179314 0.0119833 0.0253844 0.00777793 -0.015243 -0.01276 -0.0119412 0.000489997 0.0138008 -0.0160868 0.0190354 0.0167861 0.0394234 0.00175105 -0.000374387 0.0354783
internal_weight=3669.86 3562.87 2997.27 1399.84 1597.43 619.885 440.481 432.004 558.118 555.965 779.953 1156.95 1146.8 1081.35 481.011 267.514 213.498 65.4503 565.604 1074.12 1037.12 140.21 77.7658 62.4443 72.3456 212.825 32.6697 417.008 380.379 41.9273
internal_count=47980 47624 37219 20291 16928 7992 4480 4277 7490 7478 12299 12448 12269 11699 6118 2983 3135 570 10405 11673 11400 1168 532 636 479 2287 362 4150 3890 276
is_linear=0
shrinkage=0.05


Tree=2
num_leaves=31
num_cat=0
split_feature=0 1 5 30 28 8 13 6 10 11 28 7 31 9 16 15 12 29 0 29 27 16 28 2 28 10 28 9 28 5
split_gain=222.131 17.4204 25.7296 18.4613 12.9657 12.7349 8.92505 12.2199 9.24262 8.43132 6.78251 10.0694 6.4178 6.1862 7.29844 7.07536 5.74904 5.93546 41.8194 68.0777 5.72108 5.66227 5.68787 5.46013 9.13936 7.61841 7.35526 7.10828 7.7293 5.62632
threshold=1.5000000000000002 1.0000000180025095e-35 3.5000000000000004 0.67708333333333337 4.9583333333333348 1.0000000180025095e-35 1.0000000180025095e-35 2.5000000000000004 1.0000000180025095e-35 1.0000000180025095e-35 5.4583333333333348 8.5000000000000018 0.2950000000000001 1.0000000180025095e-35 17.500000000000004 65.500000000000014 1.0000000180025095e-35 4.5000000000000009 1.0000000180025095e-35 1.0000000180025095e-35 2.4500000000000006 18.500000000000004 5.2916666666666687 6.5000000000000009 12.125000000000005 3.5000000000000004 11.125000000000005 4.5000000000000009 10.541666666666671 1.5000000000000002
decision_type=2 2 2 2 2 2 2 2 2 2 2 2 2 2 2 2 2 2 2 2 2 2 2 2 2 2 2 2 2 2
left_child=1 5 3 4 -3 -1 7 -7 12 -5 21 -12 -8 -13 15 -15 17 18 -16 -20 -11 22 -6 25 26 -9 27 -25 -29 -28
right_child=-2 2 -4 9 10 6 8 23 -10 20 11 13 -14 14 16 -17 -18 -19 19 -21 -22 -23 -24 24 -26 -27 29 28 -30 -31
leaf_value=0.063041241697358308 0.086646443748668533 0.064927912968168008 -0.0092102555585312981 0.048447369335251428 0.033567181560509397 0.0033399381235543028 -0.07182104905675725 -0.0065550685147720529 -0.056416883319290172 -0.0064718253778314723 0.023655613380889968 0.077712751281528714 -0.0089279277040500687 -0.044703285249538288 0.001438775896997218 0.024289752727028546 0.028819413342547326 -0.0028397934124935495 0.084255873717111116 0.0028899674362177631 0.055239842175666659 -0.068535948485863793 -0.030514661646021814 -0.028133355586880855 -0.0076934125209890741 -0.026054359593282912 0.011701402746785104 0.055020382109459698 -0.03119539029093998 0.081616674322973551
leaf_weight=6.8695256358769248 72.815321005880833 8.3885345568996836 476.49222902093607 32.713728419039398 5.0837558479979661 396.2271015488368 4.353201510384678 1357.4501577598203 15.364039991050957 16.151591576635841 56.996982932731044 2.7188232727348796 59.453190435189754 15.136640944983812 1410.4570745337624 4.9251281805336466 20.602217219769955 440.81544191813737 41.220476991380565 68.309072070980619 4.8934867097996166 5.5971988011151543 10.859681073110549 8.2752313942910423 50.074991204186517 52.011125065757369 4.4976946352981013 9.3933515979442728 3.594328593928366 7.9882570624831715
leaf_count=203 356 63 7990 152 36 3702 81 13839 237 105 567 41 583 86 11805 30 200 4626 313 594 30 27 48 154 1218 538 104 111 58 83
internal_value=3.55252e-11 -0.00137248 0.00129958 0.00363438 0.00289061 -0.00491804 -0.00515518 -0.00446606 -0.021602 0.0325654 0.00264075 0.00293244 -0.0132188 0.00234309 0.00224071 -0.0277656 0.00254452 0.00226845 0.00374991 0.0335113 0.00787762 -0.0252704 -0.0100814 -0.0065373 0.00586046 -0.00727462 0.0259711 0.008084 0.0311602 0.0564318
internal_weight=4669.73 4596.91 2621.36 2144.87 2091.11 1975.55 1968.68 1889.51 79.1704 53.7588 2082.72 2061.18 63.8064 2004.18 2001.47 20.0618 1981.4 1960.8 1519.99 109.53 21.0451 21.5406 15.9434 1493.29 83.8239 1409.46 33.7489 21.2629 12.9877 12.486
internal_count=47980 47624 26713 18723 18436 20911 20708 19807 901 287 18373 18262 664 17695 17654 116 17538 17338 12712 907 135 111 84 16105 1728 14377 510 323 169 187
is_linear=0
shrinkage=0.05


Tree=3
num_leaves=31
num_cat=0
split_feature=0 1 29 0 29 30 6 30 15 13 6 9 9 29 15 10 3 9 15 16 28 15 28 22 16 28 28 31 30 15
split_gain=153.3 44.4316 15.2905 100.883 80.7067 12.9516 10.8597 12.9085 11.5488 8.53329 7.92779 7.16217 8.35845 6.78817 10.481 6.57898 7.39444 8.432 8.69025 6.33953 6.25667 6.21673 8.76412 7.51122 6.04564 5.97886 9.31784 7.76987 5.74525 6.71471
threshold=1.5000000000000002 1.0000000180025095e-35 3.5000000000000004 1.0000000180025095e-35 1.0000000180025095e-35 0.47493734335839605 1.5000000000000002 0.45993589743589752 63.500000000000007 1.0000000180025095e-35 5.5000000000000009 3.5000000000000004 2.5000000000000004 2.5000000000000004 33.500000000000007 2.5000000000000004 23.500000000000004 5.5000000000000009 76.500000000000014 15.500000000000002 17.791666666666675 59.500000000000007 11.125000000000005 1.5000000000000002 11.500000000000002 10.958333333333337 11.041666666666671 0.435 0.28285714285714292 36.500000000000007
decision_type=2 2 2 2 2 2 2 2 2 2 2 2 2 2 2 2 2 2 2 2 2 2 2 2 2 2 2 2 2 2
left_child=1 5 3 6 -5 10 7 8 21 15 11 12 28 14 -13 16 -8 -18 -19 -17 -16 22 23 -3 -14 -21 -27 -28 -1 -30
right_child=-2 2 -4 4 -6 -7 9 -9 -10 -11 -12 13 24 -15 20 19 17 18 -20 25 -22 -23 -24 -25 -26 26 27 -29 29 -31
leaf_value=0.059399162061677682 0.082230292131748622 0.0014753473962737158 -0.0029719082448745378 0.080351755946020786 0.0057998091516131963 -0.00083238561492896413 0.0043811520477175072 0.05591272311269551 -0.040591336333515582 -0.077103613662782206 -0.011315933195535168 0.083051847347430874 0.013862994822395469 -0.043993195520697359 -0.00040106635551365622 -0.054124983606776006 -0.066701081835506854 -0.0090040318226654505 0.05956831824735942 0.011497825145659831 -0.059116522532836419 0.079897541432978322 -0.031523656500337636 0.073588128060092003 -0.028455391690748288 -0.082127638550803336 -0.0060392357159936363 0.066277227201012048 -0.021443276187690933 0.008305925041904921
leaf_weight=3.6917941845022133 56.088073678314686 7.6704604951664859 708.39495811516827 77.962565955705941 67.935012462025043 867.61846640787553 1473.6727356977135 20.456575929187238 9.660803245380519 3.4085923302918664 955.46906465659413 3.7411151546984902 9.4705361876403895 9.0616558552137558 471.6255614484835 6.2224996313452712 6.0092797055840483 97.800341404101346 4.8494451644364736 57.621858851052821 4.5811720117926589 4.1053744098171583 7.3767129387706509 6.8230463184881955 77.532278140599374 3.9791468027979127 280.37553784017655 3.7641860246658316 33.194926806085277 44.255784189634142
leaf_count=38 356 59 7852 477 543 7040 12638 114 58 74 7645 14 121 97 4241 46 83 1192 55 395 21 33 84 49 880 17 2930 14 343 471
internal_value=-3.87999e-11 -0.000865588 0.00339521 0.00550319 0.0456378 -0.00575831 0.00256631 0.0242547 0.00608185 0.00193847 -0.00840853 -0.00418132 -0.0130831 -0.00112047 -0.000311012 0.00207776 0.00345303 -0.00913453 -0.00576449 -0.00410508 -0.000965917 0.0234405 0.0128426 0.0354236 -0.0238489 -0.00320485 -0.00614528 -0.00508121 -0.00153968 -0.00444441
internal_weight=5384.42 5328.33 2848.09 2139.69 145.898 2480.24 1993.8 56.093 35.6364 1937.7 1612.62 657.155 168.145 489.01 479.948 1934.3 1582.33 108.659 102.65 351.963 476.207 25.9756 21.8702 14.4935 87.0028 345.741 288.119 284.14 81.1425 77.4507
internal_count=47980 47624 26713 18861 1020 20911 17841 397 283 17444 13871 6226 1853 4373 4276 17370 13968 1330 1247 3402 4262 225 192 108 1001 3356 2961 2944 852 814
is_linear=0
shrinkage=0.05


Tree=4
num_leaves=31
num_cat=0
split_feature=0 1 6 30 9 7 30 15 28 15 30 31 3 29 0 29 3 3 28 2 28 30 2 17 21 28 28 9 30 30
split_gain=115.077 38.5715 14.2236 12.4533 10.9477 11.7915 8.70974 10.8527 8.4446 7.78143 7.56706 7.12249 7.09262 6.74712 58.3657 63.3531 6.7495 6.35133 6.21903 7.95921 6.04546 5.96465 5.77856 5.49998 5.77647 5.37921 17.0524 11.2121 8.7344 8.69811
threshold=1.5000000000000002 1.0000000180025095e-35 5.5000000000000009 0.52786377708978338 3.5000000000000004 4.5000000000000009 0.81666666666666676 16.500000000000004 8.2916666666666696 45.500000000000007 0.43167701863354041 0.39000000000000007 6.5000000000000009 3.5000000000000004 1.0000000180025095e-35 1.0000000180025095e-35 6.5000000000000009 5.5000000000000009 8.3750000000000036 3.5000000000000004 8.7916666666666696 0.93750000000000011 1.0000000180025095e-35 1.5000000000000002 1.0000000180025095e-35 7.5416666666666687 6.7083333333333348 4.5000000000000009 0.37268518518518523 0.56696428571428581
decision_type=2 2 2 2 2 2 2 2 2 2 2 2 2 2 2 2 2 2 2 2 2 2 2 2 2 2 2 2 2 2
left_child=1 2 4 8 6 -6 11 -8 -3 23 -4 -1 -12 14 18 -16 -17 22 19 -10 -15 -5 -13 -9 -25 26 27 -7 -28 -29
right_child=-2 3 10 21 5 25 7 9 13 -11 12 17 -14 20 15 16 -18 -19 -20 -21 -22 -23 -24 24 -26 -27 28 29 -30 -31
leaf_value=-0.045682022991433514 0.078515992001811544 0.015291221149312043 -0.012042015934734132 0.011703217139081694 0.048216756263892685 -0.014046985257094273 -0.012448407557294422 -0.00038899813479823572 0.013087118173238611 -0.044816957670579152 -0.041283189802469138 -0.0081495781257136784 -0.0029519540464146305 0.051072925653428816 0.073976388562932108 0.083257427901468145 -4.8772545312822966e-05 -0.012035946041849196 0.00093913660951632123 -0.088292991824999778 -0.003536082954931167 0.08517167759696119 0.0079857492405406363 0.05511721654284181 -0.0060835838902055196 -0.0012543130252704252 0.052029719896680107 0.0045500620602782326 0.015162998218564134 0.065394891310295467
leaf_weight=12.661126219667493 46.307100092992187 115.71947607054608 759.95129008917138 326.37179001420736 13.57748384401202 92.492407766520046 30.493144636129728 8.8528893946204317 3.4601280405186108 3.4329826366156331 12.395835537463425 130.10273222986143 456.53963126744202 5.1101238606497636 58.418597253039479 2.5248458571732035 65.696566261758562 345.49275855673477 2007.4873617507474 4.3951488151215017 615.47323917281756 2.7862154133617869 96.754137903917581 23.060599335876763 4.6296093072742215 606.86466214762186 19.207348063471727 21.135725200641904 98.228452622424811 8.1343829315155727
leaf_count=241 356 888 6155 2426 85 630 422 56 35 36 107 906 3177 40 388 16 527 2874 15372 14 6996 11 679 116 26 4434 125 106 696 40
internal_value=-4.70339e-11 -0.000610918 -0.00496282 0.00311218 -0.00172081 0.00199052 -0.0065881 0.0100183 0.0020586 0.0271555 -0.00895995 -0.00858847 -0.0039652 0.00150431 0.00283435 0.0357597 0.00303436 -0.00776791 0.000765392 -0.0436366 -0.00308641 0.0123251 -0.00126788 0.0339169 0.0448849 0.00124869 0.007599 -0.00551174 0.0211928 0.0214593
internal_weight=5997.76 5951.45 2744.01 3207.44 1515.12 859.64 655.48 70.4692 2878.29 39.9761 1228.89 585.011 468.935 2762.57 2141.98 126.64 68.2214 572.35 2015.34 7.85528 620.583 329.158 226.857 36.5431 27.6902 846.063 239.198 121.763 117.436 29.2701
internal_count=47980 47624 20911 26713 11472 6116 5356 656 24276 234 9439 4700 3284 23388 16352 931 543 4459 15421 49 7036 2437 1585 198 142 6031 1597 776 821 146
is_linear=0
shrinkage=0.05


Tree=5
num_leaves=31
num_cat=0
split_feature=0 1 30 6 13 2 6 30 11 8 28 3 10 21 30 16 9 11 30 15 28 28 20 3 2 28 9 9 20 31
split_gain=91.2418 31.0023 12.75 11.7499 12.3902 9.86901 6.80429 5.87105 5.81 5.61029 7.23501 5.39674 5.79898 6.59993 5.63823 5.29838 8.25852 6.31874 5.37868 5.26125 5.26008 8.22615 5.09172 5.08894 5.08714 4.77063 4.99011 6.01858 5.43288 4.54591
threshold=1.5000000000000002 1.0000000180025095e-35 0.52786377708978338 2.5000000000000004 1.0000000180025095e-35 1.0000000180025095e-35 6.5000000000000009 0.36181818181818187 2.5000000000000004 4.5000000000000009 5.2083333333333348 12.500000000000002 3.5000000000000004 1.0000000180025095e-35 0.267948717948718 2.5000000000000004 1.5000000000000002 1.0000000180025095e-35 0.58957219251336912 22.500000000000004 9.7083333333333375 9.8750000000000053 1.0000000180025095e-35 3.5000000000000004 7.5000000000000009 19.375000000000011 3.5000000000000004 1.0000000180025095e-35 1.5000000000000002 0.37500000000000006
decision_type=2 2 2 2 2 2 2 2 2 2 2 2 2 2 2 2 2 2 2 2 2 2 2 2 2 2 2 2 2 2
left_child=1 3 6 5 7 -1 11 -5 25 10 15 12 13 20 -13 17 18 -7 -17 -20 -3 -22 -4 -8 -23 26 27 -9 -28 -29
right_child=-2 2 22 4 -6 9 23 8 -10 -11 -12 14 -14 -15 -16 16 -18 -19 19 -21 21 24 -24 -25 -26 -27 28 29 -30 -31
leaf_value=-0.0054553377048588113 0.075316875714312823 0.010336785295466529 0.01405998694464638 -0.010622070558696697 -0.063367123445946055 0.0065863959851626842 0.067284900216064633 0.025651887495892502 0.040565665703692612 0.0040031828641484031 0.054945754306618702 -0.04331392126190705 0.049176965324718006 0.0044995051919646109 0.0026932672269759875 0.024395446944685772 0.018162624894820258 0.073831924908181273 -4.3995208544161386e-05 -0.076079597630528739 0.08445944302468246 0.018440265885683978 -0.0023953588376830091 -8.6962317761229329e-05 0.093058545439072993 -0.037313302478978426 -0.0021614829205612311 -0.041992603400944337 -0.020112070713815811 -0.0095781546929314728
leaf_weight=276.27625621527841 39.943894025404006 63.230357107764576 311.3230768982321 512.86677181426785 9.4469716824823973 7.1758549287915212 2.806940871756523 11.841839525848625 7.1315402388572684 275.53068164130673 12.135221140459178 6.7407024150597854 9.1936076884157938 247.87588766647968 551.72673795778246 3.4758444465696803 30.908840091899037 6.8073011301457882 3.605300994589923 6.1661017164587975 6.5898375809192649 32.931414916893118 55.37117008655332 1955.9495541579599 2.4543776204809538 11.111133877187966 1133.5860251605773 11.15624058479443 43.779353152320255 355.11375813721679
leaf_count=2278 356 403 2068 4248 222 41 25 114 24 1876 62 61 67 2026 4258 33 203 35 18 38 36 279 369 17110 11 78 8254 135 329 2923
internal_value=1.80193e-11 -0.000504409 0.00279422 -0.0044439 -0.00623482 0.00159041 0.00167599 -0.00597616 -0.00446208 0.00721951 0.01983 0.00522106 0.00997382 0.00895304 0.00213796 0.0125004 0.00400641 0.039323 -0.0290233 -0.0480252 0.019446 0.0331678 0.0115752 9.58303e-06 0.0236158 -0.00466706 -0.00443386 -0.0094312 -0.00282896 -0.0105655
internal_weight=6004.25 5964.31 3246.19 2718.12 2096.03 622.081 2879.5 2086.59 1573.72 345.805 70.2745 920.743 362.275 353.082 558.467 58.1392 44.1561 13.9832 13.2472 9.7714 105.206 41.9756 366.694 1958.76 35.3858 1566.59 1555.48 378.112 1177.37 366.27
internal_count=47980 47624 26713 20911 16327 4584 24276 16105 11857 2306 430 7141 2822 2755 4319 368 292 76 89 56 729 326 2437 17135 290 11833 11755 3172 8583 3058
is_linear=0
shrinkage=0.05


Tree=6
num_leaves=31
num_cat=0
split_feature=0 1 6 20 30 30 10 6 13 9 9 28 16 17 22 30 3 15 16 28 3 28 27 7 27 5 28 28 17 22
split_gain=75.3097 24.8933 12.6354 9.25906 8.71874 8.29971 7.56822 6.99043 11.8944 9.41755 7.49851 7.24319 8.90409 10.2668 7.53402 7.08208 6.46506 5.95221 5.83395 6.81705 6.63825 5.61984 5.5596 9.2979 6.02989 5.3153 5.25965 5.61299 4.91779 7.29888
threshold=1.5000000000000002 1.0000000180025095e-35 6.5000000000000009 1.0000000180025095e-35 0.38013136288998362 0.52786377708978338 3.5000000000000004 1.5000000000000002 1.0000000180025095e-35 3.5000000000000004 1.0000000180025095e-35 7.9583333333333357 31.500000000000004 3.5000000000000004 1.0000000180025095e-35 0.84523809523809534 13.500000000000002 45.500000000000007 94.500000000000014 19.625000000000007 23.500000000000004 19.375000000000011 3.2500000000000004 17.500000000000004 4.4500000000000002 5.5000000000000009 12.875000000000005 12.708333333333337 3.5000000000000004 2.5000000000000004
decision_type=2 2 2 2 2 2 2 2 2 2 2 2 2 2 2 2 2 2 2 2 2 2 2 2 2 2 2 2 2 2
left_child=1 4 3 16 -1 -4 26 10 9 -9 -6 12 13 14 -11 -12 22 -15 19 21 -20 25 -3 24 -24 -18 27 -7 29 -28
right_child=-2 2 5 -5 7 6 -8 8 -10 11 15 -13 -14 17 -16 -17 18 -19 20 -21 -22 -23 23 -25 -26 -27 28 -29 -30 -31
leaf_value=-0.0082595312492927831 0.072525775921815264 0.0099117577318987866 -0.0007047962061360885 -0.003833396690254186 -0.016580346582326967 0.019899323019485372 -0.029063613504440117 -0.009478771624562489 -0.055048654296793009 0.0010907124668947713 0.0043533777718564792 -0.0025374429895068822 0.038260409370198881 -0.055313206801680496 0.024787038849394594 0.027466997236440301 0.0036580968394627628 -0.0062161412968807046 0.034604459512537732 0.050839912111869827 -0.041087093343679798 -0.061434529658363352 0.028758286137722702 0.0047406499306167976 0.0712574390284621 -0.034022632747305347 -0.041890330005991724 0.083399749578460566 0.021406265652356538 0.0060288574207555713
leaf_weight=829.97778588411165 35.586598445195705 416.18704276584322 2023.209059600711 183.81598648941144 36.175608752630069 77.31506248889491 10.812923791818319 421.49975394143257 11.09061208181083 95.468035283498466 231.76416926388629 953.82246837216371 21.658785447012633 9.8072197735309619 51.712786056101322 38.670622438308783 477.48836383543676 16.65942613594234 25.986951707862321 7.3944815346039823 3.260056664934381 3.4162359423935404 43.083628526423126 38.415166678489186 10.351508151739834 9.5460978064220381 10.999351598788051 3.644038062542676 24.005322952987626 28.631354238837957
leaf_count=6726 356 2882 17135 1425 401 535 114 3542 270 630 1688 6634 130 67 410 282 3316 131 155 46 32 15 250 244 40 84 68 15 163 194
internal_value=5.81637e-11 -0.000422008 0.00243129 0.00650771 -0.0039883 0.000150522 0.0112856 -0.00211096 -0.00345037 -0.00308602 0.00479866 -0.000741159 0.0080314 0.00426098 0.00941655 0.00765849 0.00834406 -0.0244091 0.00446467 0.0031897 0.0261674 0.00247128 0.012369 0.0235029 0.0369913 0.00291954 0.014303 0.0227575 0.00354692 -0.00727093
internal_weight=6151.46 6115.87 3397.56 1218.95 2718.31 2178.62 155.408 1888.33 1581.72 1570.63 306.61 1149.13 195.306 173.647 147.181 270.435 1035.13 26.4666 527.092 497.845 29.247 490.451 508.037 91.8503 53.4351 487.034 144.595 80.9591 63.636 39.6307
internal_count=47980 47624 26713 8489 20911 18224 1089 14185 11814 11544 2371 8002 1368 1238 1040 1970 7064 198 3648 3461 187 3415 3416 534 290 3400 975 550 425 262
is_linear=0
shrinkage=0.05


Tree=7
num_leaves=31
num_cat=0
split_feature=0 1 6 20 6 2 13 1 6 15 30 15 3 31 24 28 16 16 3 30 10 9 29 22 11 15 15 30 2 16
split_gain=64.9254 22.0772 8.6661 10.2177 8.56237 8.88518 7.06715 5.71428 5.67166 5.98027 6.72873 5.81648 5.56082 5.33901 5.32627 5.31763 6.96164 5.68343 12.7897 5.12235 5.06672 5.02873 5.30931 4.8097 4.79941 5.68654 4.72829 4.93643 7.09521 5.37667
threshold=1.5000000000000002 1.0000000180025095e-35 6.5000000000000009 1.0000000180025095e-35 5.5000000000000009 1.0000000180025095e-35 1.0000000180025095e-35 1.5000000000000002 2.5000000000000004 61.500000000000007 0.44222222222222224 60.500000000000007 14.500000000000002 0.89000000000000012 1.5000000000000002 9.3750000000000053 33.500000000000007 29.500000000000004 22.500000000000004 0.36181818181818187 2.5000000000000004 3.5000000000000004 2.5000000000000004 6.5000000000000009 1.0000000180025095e-35 47.500000000000007 33.500000000000007 0.37268518518518523 11.500000000000002 20.500000000000004
decision_type=2 2 2 2 2 2 2 2 2 2 2 2 2 2 2 2 2 2 2 2 2 2 2 2 2 2 2 2 2 2
left_child=1 4 3 6 5 13 12 14 9 11 -11 -7 -3 20 -4 16 -9 18 -17 -6 -1 24 26 -21 25 -10 -23 29 -29 -28
right_child=-2 2 7 -5 19 8 -8 15 21 10 -12 -13 -14 -15 -16 17 -18 -19 -20 23 -22 22 -24 -25 -26 -27 27 28 -30 -31
leaf_value=-0.0097491666364815412 0.07006818524543508 0.011250630904428139 -0.0024793621667225122 -0.0050535931219885012 -0.012115848203393806 0.0074710380147269828 -0.069425328045480364 0.005487735084591612 -0.0093778427853383837 -0.036625527052465058 0.028497473462843106 0.055256954896934711 0.0037757765909376645 0.010980613221026224 -0.05880839145871395 0.062831161668236088 0.05280958730597473 0.0016303818419681198 -0.049866685281262264 -0.0045036681802308525 0.05528822460852504 0.059877757486125255 -0.031126388994643314 -0.042408193689597848 -0.00045604492506977736 -0.038567923236478549 0.050118612968322068 0.0038770772995585091 0.062794798205288882 -0.0075831792215086419
leaf_weight=368.48898111609742 32.881842641625553 560.37838216795353 850.98477133100096 185.75555892894045 336.57168766966788 298.79367336980067 2.9611376281827679 22.379533486091532 65.51220384798944 15.042240193113686 5.3869482129812232 6.5066340900957575 447.51388574042358 35.864841501228511 4.2174079790711394 9.9865882620215398 11.906930043362079 1274.8972806132588 3.3660400137305251 874.37705622961221 3.0191496284678569 3.5013612285256377 12.405629874207078 8.4499138705432397 91.583430081605911 22.385942170396447 4.150572193786501 363.24440235411748 5.1828220933675757 147.73047405667603
leaf_count=3158 356 3798 6557 1425 2894 2155 70 172 798 79 34 38 3196 280 18 63 93 11294 27 6467 14 17 111 78 826 260 32 2546 23 1101
internal_value=1.50877e-11 -0.000381291 0.00230619 0.00572452 -0.00378003 -0.0011815 0.00770512 0.000427912 0.00126745 0.00673694 -0.0194533 0.00848946 0.00793172 -0.00744212 -0.00275715 0.00248749 0.0219216 0.00197026 0.0344214 -0.0068674 -0.00922062 -0.00122183 0.00120296 -0.00486647 -0.0084661 -0.016812 0.00196863 0.00157894 0.0047059 -0.00600632
internal_weight=6075.43 6042.55 3374.35 1196.61 2668.2 1448.8 1010.85 2177.74 1041.43 325.729 20.4292 305.3 1007.89 407.373 855.202 1322.54 34.2865 1288.25 13.3526 1219.4 371.508 715.697 536.215 882.827 179.482 87.8981 523.81 520.308 368.427 151.881
internal_count=47980 47624 26713 8489 20911 11472 7064 18224 8020 2306 113 2193 6994 3452 6575 11649 265 11384 90 9439 3172 5714 3830 6545 1884 1058 3719 3702 2569 1133
is_linear=0
shrinkage=0.05


Tree=8
num_leaves=31
num_cat=0
split_feature=0 1 6 27 30 28 28 7 15 30 15 6 15 16 17 15 17 29 15 28 16 3 27 16 28 16 3 17 15 1
split_gain=55.548 39.9768 11.2761 9.6855 7.49801 7.07424 9.4238 6.89716 6.86931 6.40353 6.51017 6.35526 6.52196 6.02359 5.97535 5.57147 5.43936 7.22484 5.7673 6.1694 7.67643 5.63205 7.26683 6.1468 5.71256 7.56329 5.388 5.30363 5.38566 5.09599
threshold=1.5000000000000002 1.5000000000000002 5.5000000000000009 1.0000000180025095e-35 0.56696428571428581 15.375000000000004 14.875000000000005 7.5000000000000009 19.500000000000004 0.47493734335839605 68.500000000000014 14.500000000000002 38.500000000000007 31.500000000000004 4.5000000000000009 65.500000000000014 5.5000000000000009 3.5000000000000004 49.500000000000007 17.125000000000004 110.50000000000001 15.500000000000002 1.9500000000000004 86.500000000000014 20.041666666666675 76.500000000000014 20.500000000000004 2.5000000000000004 44.500000000000007 1.0000000180025095e-35
decision_type=2 2 2 2 2 2 2 2 2 2 2 2 2 2 2 2 2 2 2 2 2 2 2 2 2 2 2 2 2 2
left_child=1 2 3 -1 -3 6 9 -6 -5 11 -11 29 -13 14 -14 -9 17 -7 19 -18 -21 23 26 -19 25 -24 -23 -8 -29 -4
right_child=-2 4 5 8 7 16 27 15 -10 10 -12 12 13 -15 -16 -17 18 21 -20 20 -22 22 24 -25 -26 -27 -28 28 -30 -31
leaf_value=-0.0072870205060480411 0.067801735410059807 0.0048785405612891963 -0.0083963386254203142 0.046068651002056621 0.067877337276640901 -0.0094005476952046512 0.037819482450826634 0.010454735114957033 0.0013774879297653835 0.001319558394521649 -0.044556406672721337 0.024448541985701025 0.062303369713471793 -0.031997427981872072 -0.02801268524193419 0.053211745224211383 -0.034867790223608204 -0.07604549721536015 0.042342459724385342 0.030258636650361603 -0.017938984760359461 0.056322665510181849 -0.0052426379533869263 -0.028313613229319815 0.023441953649236822 -0.047018091968642886 -0.022157453353453642 0.025494051294677484 -0.0037955789194479036 -0.0017382278785043389
leaf_weight=384.84881386812776 30.059085731394589 1912.0280525440248 746.59149221697589 8.6504914537072164 7.1368513423949471 318.18164965277538 16.159503547474742 57.313655155710876 1423.5459244603408 409.15365802576707 7.8822273099794975 7.0069748512469223 3.5891134217381468 55.773931803647429 3.7394081205129623 8.7870523482561094 11.363054815679787 9.3551799276974617 8.2932752911001426 17.741573214705568 15.460330043686552 5.4886384513229114 18.64992855861783 24.172784515823878 5.7512391358613959 25.854277599602938 3.6356589794158936 23.646113216876984 46.672737268279889 467.24341981887119
leaf_count=3452 356 15288 6012 67 34 2479 115 406 11188 2853 54 54 24 493 24 44 80 82 70 127 95 34 120 215 53 164 41 194 361 3401
internal_value=-6.18162e-12 -0.000336662 -0.00317496 -0.000244885 0.00547993 -0.00553974 -0.00411183 0.0211804 0.00164742 -0.00493043 0.000452475 -0.00667884 -0.0213159 -0.0263977 0.0162192 0.0161386 -0.0110411 -0.0129824 0.00405701 -0.00306769 0.00781561 -0.0252491 -0.0159986 -0.0416321 -0.0234517 -0.0295117 0.0250516 0.0119895 0.00605364 -0.00583342
internal_weight=6083.78 6053.72 4068.45 1817.05 1985.27 2251.41 1787.46 73.2376 1432.2 1700.98 417.036 1283.94 70.1094 63.1025 7.32852 66.1007 463.948 411.089 52.8582 44.565 33.2019 92.9077 59.3797 33.528 50.2554 44.5042 9.1243 86.4784 70.3189 1213.83
internal_count=47980 47624 31852 14707 15772 17145 13585 484 11255 12915 2907 10008 595 541 48 450 3560 3188 372 302 222 709 412 297 337 284 75 670 555 9413
is_linear=0
shrinkage=0.05


Tree=9
num_leaves=31
num_cat=0
split_feature=0 1 30 8 10 27 2 15 3 15 15 17 22 15 5 9 15 9 15 13 8 16 28 6 9 31 11 16 21 15
split_gain=49.2034 27.8718 8.01251 7.1635 6.83878 6.0876 6.97701 5.97355 5.44648 5.3886 7.57364 5.31613 5.25353 5.99959 6.20855 5.98564 5.13497 5.56151 4.84598 4.62182 4.44905 4.44686 4.19894 5.67176 5.17881 4.58384 4.11575 7.09273 4.10977 6.9041
threshold=1.5000000000000002 1.5000000000000002 0.49000000000000005 11.500000000000002 1.5000000000000002 1.0000000180025095e-35 7.5000000000000009 47.500000000000007 23.500000000000004 21.500000000000004 26.500000000000004 5.5000000000000009 4.5000000000000009 44.500000000000007 1.5000000000000002 4.5000000000000009 42.500000000000007 5.5000000000000009 59.500000000000007 1.0000000180025095e-35 10.500000000000002 31.500000000000004 8.2916666666666696 1.0000000180025095e-35 1.0000000180025095e-35 0.47500000000000003 1.5000000000000002 96.500000000000014 3.5000000000000004 44.500000000000007
decision_type=2 2 2 2 2 2 2 2 2 2 2 2 2 2 2 2 2 2 2 2 2 2 2 2 2 2 2 2 2 2
left_child=1 2 4 12 9 7 19 22 11 -1 -11 28 13 14 16 21 17 -3 -10 -7 -14 -15 23 24 -4 -26 -5 -28 -6 -30
right_child=-2 3 5 26 8 6 -8 -9 18 10 -12 -13 20 15 -16 -17 -18 -19 -20 -21 -22 -23 -24 -25 25 -27 27 -29 29 -31
leaf_value=0.048557738205253921 0.065892759007008514 0.051785306141718529 -0.01721942598178287 0.0037451279498724645 -0.005921246243645515 0.0039215049846987645 -0.018494624728943497 -0.03122128510970449 -0.01324706452634699 -0.04878939646729831 -0.0020881888410226889 0.0073996281875019143 0.07751706707967837 0.018697174756101331 0.0058958154299142704 0.003397977527256102 0.073474558332913789 -0.01094311861337012 -0.052376753306035168 -0.030475728396984633 0.022263311372155689 0.072352007374994448 0.029317348525283872 -0.012950878159994848 -0.0079172923845388064 0.017440155314853486 -0.031020983817856524 0.036032473901616312 -0.0051746789577827241 -0.024238589839546201
leaf_weight=5.2188032874837509 28.196983523201197 8.5661553163081425 24.016168288420886 1682.137675670012 815.63278919557342 875.13586835177557 37.453382018953562 21.713819627184421 23.273725294042379 8.7259369939565641 1700.0951721414458 63.956995503045619 5.2901841066777715 15.7115501947701 18.612269416451454 160.62369346735068 9.2895274143666011 6.014401599764823 11.987984560430048 9.875964403152464 11.702134711667895 5.1201271973550311 9.1992463322821987 112.93631731811911 26.390061965212226 54.893462559673935 19.013033526949588 4.9758877586573353 101.7544638818872 89.05924279987812
leaf_count=46 356 46 353 13958 6649 6625 292 188 253 102 13420 484 32 105 150 1147 35 42 91 194 73 36 73 982 237 368 124 24 857 638
internal_value=6.05073e-11 -0.000312876 -0.00270536 0.00459154 -0.00414943 0.000770043 0.00264312 -0.00616495 -0.00721531 -0.00217173 -0.00232666 -0.00657838 0.0126621 0.0106283 0.0275423 0.00666835 0.0444208 0.0259102 -0.0265501 0.00353766 0.0394654 0.0318848 -0.00377276 -0.0051676 0.00318014 0.00920743 0.00345186 -0.0171125 -0.00746665 -0.0140725
internal_weight=5966.57 5938.38 3991.32 1947.06 2819.71 1171.61 922.465 249.149 1105.67 1714.04 1708.82 1070.4 240.93 223.938 42.4824 181.455 23.8701 14.5806 35.2617 885.012 16.9923 20.8317 227.435 218.236 105.3 81.2835 1706.13 23.9889 1006.45 190.814
internal_count=47980 47624 31852 15772 22540 9312 7111 2201 8972 13568 13522 8628 1666 1561 273 1288 123 88 344 6819 105 141 2013 1940 958 605 14106 148 8144 1495
is_linear=0
shrinkage=0.05


Tree=10
num_leaves=31
num_cat=0
split_feature=0 1 30 5 31 27 15 22 30 15 6 27 27 2 30 28 30 9 27 9 30 15 3 10 15 15 17 9 3 16
split_gain=43.2199 23.4513 7.73665 6.37097 6.13027 6.6575 7.94611 5.94159 5.80381 6.78527 5.59214 6.30275 5.43692 6.71495 5.36683 6.41691 5.13664 5.07528 6.56009 4.93505 6.13499 5.83642 4.79518 4.76236 4.6196 10.9167 9.27298 7.04008 10.8745 6.69071
threshold=1.5000000000000002 1.5000000000000002 0.49000000000000005 1.5000000000000002 0.45500000000000007 4.2500000000000009 54.500000000000007 3.5000000000000004 0.30602006688963218 30.500000000000004 3.5000000000000004 1.6500000000000004 0.45000000000000001 7.5000000000000009 0.53589743589743599 9.0416666666666696 0.41042780748663105 6.5000000000000009 3.0500000000000003 8.5000000000000018 0.45993589743589752 67.500000000000014 20.500000000000004 2.5000000000000004 51.500000000000007 49.500000000000007 3.5000000000000004 6.5000000000000009 9.5000000000000018 64.500000000000014
decision_type=2 2 2 2 2 2 2 2 2 2 2 2 2 2 2 2 2 2 2 2 2 2 2 2 2 2 2 2 2 2
left_child=1 2 10 4 7 6 -6 24 -9 -10 19 -12 -4 -14 17 -16 -13 -8 -19 21 22 -1 23 -21 25 27 -27 29 -29 -3
right_child=-2 3 12 -5 5 -7 14 8 9 -11 11 16 13 -15 15 -17 -18 18 -20 20 -22 -23 -24 -25 -26 26 -28 28 -30 -31
leaf_value=0.00067108593221125001 0.064033145336457195 -0.0010629358363959185 -0.0034410264311883496 0.0024547839686309609 0.027773291079140467 0.069567835568855638 -0.015582572923725033 -0.021225354848744441 -0.074876998720539809 0.017747516482575245 -0.0073305232101311974 -0.0043640766433545438 0.0046232392062866548 -0.018665500313490197 -0.014219161751103585 0.046637494538254914 0.0032120028472780639 0.038861211835332331 -0.015619474891551835 0.047656581148369459 -0.04899548705792886 -0.04236849169382071 -0.025526011786189629 -0.023042807430253238 -0.0077389543396971282 0.0086806003950517102 0.071889047514940727 0.056724189114939719 0.0018471355081338186 -0.042257412188277131
leaf_weight=410.82555124326609 26.234428226947784 27.214835346676409 444.38867470520199 1381.1932140205245 67.882376183522865 5.8860291168093672 34.40885606687516 11.116449593740979 2.0071666934527448 132.5264891430561 1251.7369324145257 749.31232507212553 692.7057366331137 32.399861537851393 6.4316331297159222 13.266258027404545 318.97321292774723 12.605487638153138 9.8375474121421558 18.457204153528448 2.7539196759462348 8.0307872723788005 3.3885022196918717 2.7348856665194026 96.818948624422774 12.656241020187737 10.714735073968766 10.464642611332236 65.732641125097871 15.453926107846199
leaf_count=3477 356 170 3797 11657 490 38 260 114 22 1060 10617 5637 5223 292 47 87 2546 73 50 134 11 65 29 24 769 101 64 111 476 183
internal_value=2.95634e-11 -0.000287063 -0.00249565 0.00424914 0.00888138 0.0174435 0.0153193 0.00553586 0.0134966 0.0163656 -0.00393708 -0.00492297 0.000913755 0.00358263 0.0042754 0.026767 -0.00210198 -0.00351741 0.0149805 0.0011892 0.0217733 -0.000154118 0.029702 0.0385327 0.000685628 0.00642013 0.0376594 0.000278001 0.00938374 -0.0159829
internal_weight=5878.16 5851.93 3935.71 1916.22 535.024 150.318 144.432 384.706 145.65 134.534 2766.21 2320.02 1169.49 725.106 76.5498 19.6979 1068.29 56.8519 22.443 446.191 27.3345 418.856 24.5806 21.1921 239.056 142.237 23.371 118.866 76.1973 42.6688
internal_count=47980 47624 31852 15772 4115 1045 1007 3070 1196 1082 22540 18800 9312 5515 517 134 8183 383 123 3740 198 3542 187 158 1874 1105 165 940 587 353
is_linear=0
shrinkage=0.05


Tree=11
num_leaves=31
num_cat=0
split_feature=0 1 30 22 27 15 31 30 28 28 27 27 3 31 9 6 28 22 16 6 5 3 15 16 28 28 6 27 6 15
split_gain=38.4099 19.8737 7.46102 6.57808 7.72084 6.79885 5.41239 6.77276 6.52711 11.2202 5.94892 5.16538 5.12323 6.73667 7.58426 6.80353 5.72035 5.6827 7.5894 4.94588 4.93985 5.74587 4.92725 6.22896 4.92486 5.17437 4.76753 7.33286 5.07337 4.74878
threshold=1.5000000000000002 1.5000000000000002 0.49000000000000005 4.5000000000000009 0.70000000000000007 24.500000000000004 0.39000000000000007 0.61721611721611735 15.791666666666671 15.291666666666671 4.4500000000000002 4.6500000000000004 15.500000000000002 0.69000000000000006 4.5000000000000009 1.5000000000000002 12.625000000000005 1.0000000180025095e-35 40.500000000000007 9.5000000000000018 1.0000000180025095e-35 13.500000000000002 69.500000000000014 34.500000000000007 7.3750000000000027 5.6250000000000018 3.5000000000000004 1.6500000000000004 6.5000000000000009 71.500000000000014
decision_type=2 2 2 2 2 2 2 2 2 2 2 2 2 2 2 2 2 2 2 2 2 2 2 2 2 2 2 2 2 2
left_child=1 2 26 4 12 -6 -3 8 9 10 20 -10 13 -4 15 -15 17 18 -14 -20 21 -8 -7 -24 25 -17 -1 29 -29 -28
right_child=-2 6 3 -5 5 22 7 -9 11 -11 -12 -13 16 14 -16 24 -18 -19 19 -21 -22 -23 23 -25 -26 -27 27 28 -30 -31
leaf_value=0.0010101675243486389 0.062319620684254666 0.0025601053274558303 -0.01047991331861927 -0.029743150719878195 0.052201387650498837 0.0055809969673232384 0.027614102373630229 0.037723587887633657 0.08521156338273933 -0.057699140982791379 0.029843089245265703 -0.003388469278227078 -0.0052882743619327866 0.0072838561718621634 0.039465327315240981 -0.012811073499412901 -0.035511446874635672 0.048126407003674487 0.072179245872668565 0.014585443322841641 0.0024243926528518759 0.0018105348206808418 -0.082614823443272756 0.0029790791341837968 -0.079258955151657595 0.010773667954454717 -0.0077611182050656329 0.003908088753886596 -0.0037991618333835238 0.016560385841442045
leaf_weight=439.49737980682403 24.619529721792787 1486.296934678343 235.61641572322696 17.112464597448707 7.730720004066824 551.46663000923581 48.953604855341837 19.682825983501971 4.7546992860734454 6.6386501297820351 28.455665133194998 2.5152633511461318 33.94332891702652 132.21328112017363 12.255644267424939 101.38136341236532 6.1370675563812247 10.743893176317213 6.0509051308035842 9.7084562210366112 247.78680600819644 38.57427139300853 3.6063052564859372 5.1766300313174725 2.4284354746341696 30.178781634196639 1184.7852495898842 296.04919874249026 765.93491683783213 20.415561089292169
leaf_count=3740 356 12633 2211 172 44 4190 396 138 45 111 180 21 288 977 79 837 42 61 28 60 1898 350 25 31 17 250 10471 2171 6012 146
internal_value=3.03024e-11 -0.000266549 -0.00231561 0.0010286 0.00148704 0.00563184 0.00394592 0.00912942 0.00763923 0.00671837 0.00789396 0.0545577 -0.00256728 -0.00425753 0.00100752 -0.000763032 0.0104827 0.0151525 0.00802472 0.0366989 0.0060313 0.0162423 0.00498924 -0.0321661 -0.0087033 -0.00740093 -0.00375594 -0.00467985 -0.00165061 -0.00734912
internal_weight=5780.71 5756.09 3872.43 1165.75 1148.64 567.98 1883.66 397.362 377.679 370.409 363.77 7.26996 580.658 514.074 278.458 266.202 66.5837 60.4466 49.7027 15.7594 335.315 87.5279 560.25 8.78294 133.989 131.56 2706.68 2267.18 1061.98 1205.2
internal_count=47980 47624 31852 9312 9140 4290 15772 3139 3001 2935 2824 66 4850 4371 2160 2081 479 437 376 88 2644 746 4246 56 1104 1087 22540 18800 8183 10617
is_linear=0
shrinkage=0.05


Tree=12
num_leaves=31
num_cat=0
split_feature=0 1 6 3 5 9 11 28 10 27 7 30 1 30 28 28 27 15 30 2 22 22 10 31 16 17 11 6 6 16
split_gain=34.5 20.0158 7.10827 6.34251 7.49518 6.13177 6.08816 9.33971 5.26425 5.49179 6.93755 6.22431 6.95232 6.05591 5.46033 7.96019 6.44127 5.24614 5.10794 4.98682 7.00619 6.13266 7.3023 8.66472 6.9404 6.51681 7.802 5.85971 5.82923 7.81029
threshold=1.5000000000000002 1.0000000180025095e-35 3.5000000000000004 12.500000000000002 1.0000000180025095e-35 3.5000000000000004 1.0000000180025095e-35 5.0416666666666687 1.5000000000000002 5.5499999999999998 16.500000000000004 0.38013136288998362 4.5000000000000009 0.43614130434782611 20.458333333333339 19.958333333333339 6.3500000000000005 43.500000000000007 0.31414473684210531 10.500000000000002 6.5000000000000009 3.5000000000000004 1.0000000180025095e-35 0.47500000000000003 102.50000000000001 4.5000000000000009 1.0000000180025095e-35 5.5000000000000009 7.5000000000000009 39.500000000000007
decision_type=2 2 2 2 2 2 2 2 2 2 2 2 2 2 2 2 2 2 2 2 2 2 2 2 2 2 2 2 2 2
left_child=1 2 5 4 -3 -1 7 -4 9 11 13 19 -13 -11 15 18 -16 -7 -12 21 -21 25 -23 24 -24 28 27 -27 29 -5
right_child=-2 3 6 8 -6 17 -8 -9 -10 10 14 12 -14 -15 16 -17 -18 -19 -20 20 -22 22 23 -25 -26 26 -28 -29 -30 -31
leaf_value=-0.0038003419401456749 0.060750164076246942 0.013190004795452032 -0.066065770140447885 -0.02989080326800166 0.0032040329262833381 0.017282318586015932 -0.0021779402493195344 -0.0078655530846918585 -0.0016786685209193867 0.068428874855659377 0.049536238171880978 0.0054617204043001036 0.069810828729156935 0.016434210996952935 -0.014507978326126256 -0.058747730807299982 0.067100014210497758 0.0020532344539898979 0.00026623093131439047 -0.065293044283339624 0.0019466547858669797 0.020507748416501364 0.0038901703662013115 -0.092021255121814027 -0.073772398342569365 -0.053979474604932298 -0.042701689557419632 0.0058324336351529716 -0.0089470844731795712 0.0096678242699495941
leaf_weight=431.58114930707961 23.274881200864911 242.48207069176715 6.9466458875685921 13.879886776208876 834.87384434608975 70.434343499131501 731.85139187559253 896.85658792755567 1096.7658377051703 9.9014610333833861 6.0379960834980002 513.14283696538769 4.2320601460523894 12.89150679996237 3.6705891522578877 5.1725168395787469 7.0852290531620383 286.87343653989956 40.848117073765025 7.3372047692537299 8.2079563783481699 62.41471619787626 66.000299997860566 2.6265559494495383 3.0078446972183874 4.8955636695027378 22.945414386689663 25.036946912994608 135.44948117830791 123.48629600461572
leaf_count=4015 356 1855 121 119 6780 605 6150 7701 9309 58 41 4060 40 115 37 90 91 2319 368 37 54 551 601 8 29 27 162 164 1205 912
internal_value=6.55815e-11 -0.00024907 -0.00368771 0.00231431 0.00545159 0.000210589 -0.00556789 -0.00831288 0.000760332 0.00324117 0.0153921 0.00219327 0.00598809 0.0390211 0.00681797 0.000117195 0.03925 0.00505527 0.00661123 -0.00193757 -0.02979 -0.000995804 0.00800558 -0.00288746 0.000505107 -0.0047006 -0.0207656 -0.00395001 -0.00158684 0.0056707
internal_weight=5700.21 5676.94 2424.54 3252.39 1077.36 788.889 1635.65 903.803 2175.04 1078.27 85.6074 992.663 517.375 22.793 62.8144 52.0586 10.7558 357.308 46.8861 475.288 15.5452 459.743 134.049 71.6347 69.0081 325.694 52.8779 29.9325 272.816 137.366
internal_count=47980 47624 20911 26713 8635 6939 13972 7822 18078 8769 800 7969 4100 173 627 499 128 2924 409 3869 91 3778 1189 638 630 2589 353 191 2236 1031
is_linear=0
shrinkage=0.05


Tree=13
num_leaves=31
num_cat=0
split_feature=0 1 30 28 28 28 31 27 31 6 27 3 8 27 18 28 15 16 6 2 3 22 21 16 3 30 8 28 6 10
split_gain=32.3679 17.4637 6.62077 5.9573 6.63091 5.52903 8.38983 5.39877 5.02018 4.86505 6.94955 5.00449 4.84239 4.72226 5.35227 6.41898 7.21842 5.52161 8.86453 5.98781 9.58956 7.71155 5.42552 4.94305 5.34861 4.68726 6.19695 4.59506 4.4631 5.62369
threshold=1.5000000000000002 1.5000000000000002 0.49000000000000005 11.458333333333337 11.125000000000005 11.625000000000005 0.41500000000000009 0.70000000000000007 0.49500000000000005 6.5000000000000009 1.9500000000000004 7.5000000000000009 4.5000000000000009 10.350000000000007 3.5000000000000004 13.791666666666671 44.500000000000007 92.500000000000014 13.500000000000002 13.500000000000002 15.500000000000002 8.5000000000000018 3.5000000000000004 116.50000000000001 15.500000000000002 0.43614130434782611 14.500000000000002 21.291666666666675 3.5000000000000004 3.5000000000000004
decision_type=2 2 2 2 2 2 2 2 2 2 2 2 2 2 2 2 2 2 2 2 2 2 2 2 2 2 2 2 2 2
left_child=1 2 9 4 -3 6 -5 -4 -8 10 28 -12 -9 14 -7 16 -16 18 19 21 -21 -17 -18 -19 27 26 -6 -25 -1 -30
right_child=-2 3 7 5 25 13 8 12 -10 -11 11 -13 -14 -15 15 17 22 23 -20 20 -22 -23 -24 24 -26 -27 -28 -29 29 -31
leaf_value=0.0010322386564437956 0.05941631244468009 0.0071865763619623742 -0.002542837336328832 -0.058048580786986728 0.0558765670583454 0.0012383696822271947 0.041867671445910831 0.044989448116416364 -0.028502809942599589 -0.0057234046717752514 0.044830025994667594 0.0048212428428457063 0.0038868302899292893 -0.058890500643322331 0.060386818266337516 0.0057016042314812715 0.03388318007780098 0.017554177983799237 -0.01639530477371615 -0.084363454434476792 0.014231767510439881 0.048774795219891393 -0.0075352648043160667 -0.060494103402613741 0.06024346305715178 0.0074437293962441795 -0.006459126898845282 -0.0034975339311784366 -0.0050838608872101586 -0.037429113538355978
leaf_weight=385.2373548282776 22.8308226976078 234.92473104665987 552.11133012268692 9.3967502946034092 19.24524183943868 1287.2023092771778 5.193194452673195 7.259442343376576 4.9502855949103832 1348.8412079099799 8.0816771080717427 237.83154572569765 555.1471535556484 3.1026485711336127 11.272956343367694 160.92636277130805 16.30124940676615 120.84281582722178 56.316860713995993 4.5972755178809148 5.3201949093199801 11.108538881875573 15.353813175112007 4.3059827936813297 2.7230028314515939 15.045479947933925 5.0287825954146674 19.779883875453379 627.85277511784807 13.732089886441825
leaf_count=3353 356 1898 4850 67 128 10036 45 60 36 11535 58 1863 4402 7 54 1326 126 903 482 17 47 66 87 27 25 136 65 194 5583 148
internal_value=4.84634e-11 -0.000235957 -0.00225873 0.00351839 0.0103673 0.00243811 -0.0240088 0.000969416 0.00752502 -0.00363112 -0.00141372 0.00613609 0.00441738 0.00273871 0.00285014 0.00768791 0.0260292 0.00564771 0.00093968 0.00630511 -0.0314724 0.0084829 0.0137938 0.0132452 -0.00617797 0.0293715 0.0429627 -0.0136872 -0.00322182 -0.00577616
internal_weight=5771.86 5749.03 3736.09 2012.94 274.244 1738.69 19.5402 1114.52 10.1435 2621.58 1272.74 245.913 562.407 1719.15 1716.05 428.849 42.928 385.921 238.269 181.952 9.91747 172.035 31.6551 147.652 26.8089 39.3195 24.274 24.0859 1026.82 641.585
internal_count=47980 47624 31852 15772 2227 13545 148 9312 81 22540 11005 1921 4462 13397 13390 3354 267 3087 1938 1456 64 1392 213 1149 246 329 193 221 9084 5731
is_linear=0
shrinkage=0.05


Tree=14
num_leaves=31
num_cat=0
split_feature=0 1 1 7 30 31 13 10 17 30 30 11 9 6 30 15 31 15 3 30 6 30 31 15 17 15 2 0 29 28
split_gain=30.5556 16.6427 9.54062 8.39098 6.67981 7.59389 5.76054 5.44415 7.22768 5.1838 5.11475 5.0255 5.17933 4.85629 5.46305 4.87632 4.78586 4.63099 5.6397 4.55569 5.54039 4.87992 6.07628 4.55536 4.46212 6.40743 5.46304 4.41951 48.3192 5.46956
threshold=1.5000000000000002 1.0000000180025095e-35 3.5000000000000004 14.500000000000002 0.64495798319327746 0.46500000000000002 1.0000000180025095e-35 4.5000000000000009 4.5000000000000009 0.40370370370370373 0.84523809523809534 1.0000000180025095e-35 3.5000000000000004 5.5000000000000009 0.35504201680672276 54.500000000000007 0.89000000000000012 52.500000000000007 9.5000000000000018 0.42206477732793529 11.500000000000002 0.44222222222222224 0.23750000000000002 66.500000000000014 4.5000000000000009 43.500000000000007 7.5000000000000009 1.0000000180025095e-35 3.5000000000000004 14.375000000000005
decision_type=2 2 2 2 2 2 2 2 2 2 2 2 2 2 2 2 2 2 2 2 2 2 2 2 2 2 2 2 2 2
left_child=1 4 3 6 11 -6 10 -5 9 -9 27 12 16 -14 -15 17 -1 -16 -19 23 24 -22 -23 -4 25 -21 -26 29 -29 -3
right_child=-2 2 19 7 5 -7 -8 8 -10 -11 -12 -13 13 14 15 -17 -18 18 -20 20 21 22 -24 -25 26 -27 -28 28 -30 -31
leaf_value=-0.014304862631712517 0.058131752283699989 0.0022120400321562653 0.0045944520915887624 -0.000756888748714668 -0.021553305903492068 0.0084594274984381001 -0.05088866434137345 0.0061934034786463275 -0.062775261524425016 -0.051137393388331037 0.060563449533272397 -0.0017686685873673281 -0.000148509702945679 -0.01612837444967858 -0.0034653495262529492 -0.013967888795439008 0.040537335313669196 0.061047943850299373 0.005907419187190714 0.049789346077891122 0.027917106729873464 -0.018064084932302153 0.024647272897398115 0.049129586762906768 0.018535758589802998 0.0099985643891494693 0.069109135030213792 0.074914453824971514 0.0015005254234914814 0.023176141554973592
leaf_weight=222.77601765305735 22.516405055648647 846.47730463673361 314.25072999938857 1768.6155406823309 23.752649055793881 187.04848075192422 4.6806506142020217 16.688570579979572 8.0491712237708288 5.1625943218823513 4.0819522505626074 1054.735883623769 338.67143185040914 143.95704845315777 275.41380770504475 107.10523795802146 4.0503764338791362 6.0060842372477081 20.345691428054124 12.491769700078292 15.149942356627433 28.107236449606717 11.832556050270794 5.8487914428114882 10.660225221887233 53.222222146578133 10.6993276104331 25.880002007819712 167.3123565572314 32.300055582076311
leaf_count=2550 356 6923 2423 13949 337 1462 100 110 72 62 32 8926 2823 1382 2270 939 27 29 166 78 96 218 65 38 91 439 45 169 1544 259
internal_value=1.79111e-11 -0.000228617 0.00204831 0.000977798 -0.00342024 0.00507765 0.00445985 -0.00111457 -0.0222717 -0.00735167 0.0047006 -0.00424459 -0.00657972 -0.00486336 -0.00775175 -0.00480247 -0.0133256 -0.0015494 0.018475 0.0087161 0.0161643 0.00375481 -0.00541043 0.00540819 0.0240156 0.0175625 0.0438687 0.00448788 0.011335 0.00298259
internal_weight=5747.89 5725.37 3341.51 2879.25 2383.86 210.801 1080.73 1798.52 29.9003 21.8512 1076.05 2173.06 1118.33 891.499 552.828 408.871 226.826 301.766 26.3518 462.263 142.163 55.0897 39.9398 320.1 87.0735 65.714 21.3596 1071.97 193.192 878.777
internal_count=47980 47624 26713 23220 20911 1799 9027 14193 244 172 8927 19112 10186 7609 4786 3404 2577 2465 195 3493 1032 379 283 2461 653 517 136 8895 1713 7182
is_linear=0
shrinkage=0.05


Tree=15
num_leaves=31
num_cat=0
split_feature=0 1 30 31 1 8 3 3 6 28 3 28 30 11 28 17 9 21 28 6 8 27 28 15 28 16 31 8 3 15
split_gain=27.8629 15.7123 5.73122 5.28962 5.13475 5.14705 5.10398 5.09912 5.09801 8.2501 4.90151 5.36142 4.76947 4.69068 6.68547 7.97378 6.67959 6.71196 6.27038 9.18038 7.45592 7.32644 5.6721 5.19317 6.72736 5.01052 4.99408 4.89307 4.78374 6.35905
threshold=1.5000000000000002 1.5000000000000002 0.49000000000000005 0.41500000000000009 3.5000000000000004 23.500000000000004 12.500000000000002 22.500000000000004 18.500000000000004 16.208333333333339 8.5000000000000018 18.875000000000011 0.61721611721611735 1.0000000180025095e-35 12.125000000000005 2.5000000000000004 10.500000000000002 1.0000000180025095e-35 14.625000000000005 17.500000000000004 16.500000000000004 3.5500000000000003 18.041666666666675 56.500000000000007 17.458333333333339 43.500000000000007 0.19500000000000001 17.500000000000004 14.500000000000002 39.500000000000007
decision_type=2 2 2 2 2 2 2 2 2 2 2 2 2 2 2 2 2 2 2 2 2 2 2 2 2 2 2 2 2 2
left_child=1 2 -1 4 5 13 8 -7 10 -10 11 -6 -5 16 15 25 -3 -18 20 28 -16 27 23 -19 -25 -15 -23 -22 29 -20
right_child=-2 3 -4 12 6 7 -8 -9 9 -11 -12 -13 -14 14 18 -17 17 22 19 -21 21 26 -24 24 -26 -27 -28 -29 -30 -31
leaf_value=-0.0034480061310796827 0.05680078500275159 -0.0024220580153591648 0.00088803217101553623 0.0078212472686250804 -0.025436963950625287 -0.013716015374164413 0.0030963435002090596 0.04720036999457488 -0.089687197711606409 0.066261955321647276 0.020652956203673509 0.021680046598976675 0.034661899001951074 -0.068392109451893765 0.0030822154499605134 0.035443174776945925 0.04790560659365025 0.061190742272219822 0.00049643144176550306 0.073497691080503177 0.02957883243070112 -0.014643914194059094 0.0012554705495111678 -0.020328960641333563 0.067045508365624382 0.019356274821756992 -0.066176161666514952 -0.025969485859857006 0.0017099069344725189 0.032194074562605236
leaf_weight=2569.2723865082371 21.508161849691533 696.15048087545438 1083.4437603831757 296.58423346793279 13.30347235593945 82.397858513402753 281.68757412908599 3.5847775889560571 2.7293489836156364 1.2303812233731148 114.15719853027258 11.054583250544963 17.529222407843918 3.2930228598415843 80.437047642655671 33.472960438579321 10.910141803324221 8.2915180400013941 27.783770313253626 5.4297539368271819 7.6300780563615254 7.9656501226127174 85.409246564377099 6.8461543992161733 3.2482509515248239 3.2152555137872696 11.473316198447717 8.2519409457381681 121.77177348942496 36.753369466168806
leaf_count=22540 356 5508 9312 2612 115 627 2168 39 62 17 845 63 138 62 625 235 65 56 236 25 53 92 693 41 28 25 124 70 863 285
internal_value=1.04019e-12 -0.00021679 -0.00216188 0.00336683 0.00224624 0.000626778 0.00699706 -0.0111763 0.0147092 -0.0412301 0.0163083 -0.00405353 0.0093191 0.00150292 0.00636339 0.0255972 -0.000579957 0.0105998 0.00386259 0.00941034 -0.00532658 -0.024476 0.00667852 0.0318706 0.00778703 -0.0250422 -0.0450594 0.000717172 0.00754259 0.018548
internal_weight=5656.82 5635.31 3652.72 1982.59 1668.48 1244.32 424.163 85.9826 142.475 3.95973 138.515 24.3581 314.113 1158.33 347.478 39.9812 810.856 114.705 307.497 191.739 115.758 35.321 103.795 18.3859 10.0944 6.50828 19.439 15.882 186.309 64.5371
internal_count=47980 47624 31852 15772 13022 9752 3270 666 1102 79 1023 178 2750 9086 2695 322 6391 883 2373 1409 964 339 818 125 69 87 216 123 1384 521
is_linear=0
shrinkage=0.05


Tree=16
num_leaves=31
num_cat=0
split_feature=0 1 3 24 6 3 27 6 28 16 31 30 10 15 0 29 5 15 13 3 20 22 6 15 27 16 5 22 2 22
split_gain=26.4211 14.6707 6.86581 6.09489 5.86328 6.11175 5.3284 4.93661 6.78793 5.45835 5.47964 4.83271 4.7278 5.04166 4.72593 18.0069 7.50683 5.16974 4.57775 4.53973 5.24159 4.68004 4.30532 5.16722 5.25912 8.1108 4.76971 4.74073 4.2577 7.98005
threshold=1.5000000000000002 1.0000000180025095e-35 13.500000000000002 1.5000000000000002 3.5000000000000004 10.500000000000002 8.9500000000000011 1.5000000000000002 7.3750000000000027 19.500000000000004 0.2950000000000001 0.81666666666666676 2.5000000000000004 36.500000000000007 1.0000000180025095e-35 1.0000000180025095e-35 1.0000000180025095e-35 61.500000000000007 1.0000000180025095e-35 15.500000000000002 1.5000000000000002 8.5000000000000018 7.5000000000000009 49.500000000000007 5.6500000000000004 68.500000000000014 1.0000000180025095e-35 3.5000000000000004 4.5000000000000009 1.0000000180025095e-35
decision_type=2 2 2 2 2 2 2 2 2 2 2 2 2 2 2 2 2 2 2 2 2 2 2 2 2 2 2 2 2 2
left_child=1 4 22 6 5 7 12 8 9 10 -1 -7 -4 -14 17 -16 -17 19 -6 20 -15 -21 26 -24 -25 -26 -3 -28 29 -9
right_child=-2 2 3 -5 18 11 -8 28 -10 -11 -12 -13 13 14 15 16 -18 -19 -20 21 -22 -23 23 24 25 -27 27 -29 -30 -31
leaf_value=-0.073852618227299702 0.055474018791662798 0.014954533603406359 0.0013799079830266309 -0.064378869567179614 -0.0048573171766143021 0.0057502701579074562 0.062126145622601693 -0.01131599195119927 -0.036708446796229782 0.028125507304589875 0.0024010080564117985 0.063970652058951707 -0.023539592964031266 -0.014362441481845926 0.075173564474055807 0.061716027269360499 -0.0024584371466950753 -0.049189714958139459 -0.070038109753183406 -0.0036911546677366848 -0.074288797651441904 0.041597630048119776 0.0040633980358078239 -0.011835128096179098 0.059086457557358509 -0.0088969528671052744 0.0024662709018251246 0.015130080356967088 -0.041732577621012179 0.010623434365397214
leaf_weight=2.3826293982565394 21.381856144405901 169.42508463072591 1516.4969140077883 3.6599604673683634 1574.3385449987836 258.7711725148838 3.4680235842242828 190.55527689820156 10.731170561630277 21.24542042799294 210.62453609006479 3.6141305491328231 32.608511379919946 52.300004921737127 8.3149740472435933 4.7055456312373272 144.28319519374054 7.2925494648516169 2.698337198002263 149.19016534276307 3.9226277675479642 5.9311638325452796 557.94759127133875 101.65104096895084 7.1032855212688473 11.474406778812407 354.58570034138393 93.35997300571762 8.9108521807938796 52.968162043951452
leaf_count=46 356 1371 12473 26 13886 2239 24 1891 88 162 1868 18 271 494 61 44 1233 81 86 1272 28 45 4497 858 48 91 3101 695 124 503
internal_value=-1.81144e-11 -0.000213159 0.00197131 8.30078e-05 -0.00323042 0.000377825 0.000205344 -0.00287913 0.00217713 0.00395849 0.00154806 0.00655221 9.37924e-05 -0.00468016 -0.00304431 0.00356484 -0.0004316 -0.00779944 -0.00496884 -0.00637125 -0.0185435 -0.00195951 0.00478752 0.00203742 -0.00736457 0.0170969 0.00780847 0.00510564 -0.00778615 -0.006544
internal_weight=5585.94 5564.56 3227.72 1932.17 2336.84 759.803 1928.51 497.418 244.984 234.253 213.007 262.385 1925.05 408.549 375.94 157.304 148.989 218.637 1577.04 211.344 56.2226 155.121 1295.55 678.176 120.229 18.5777 617.371 447.946 252.434 243.523
internal_count=47980 47624 26713 16052 20911 6939 16026 4682 2164 2076 1914 2257 16002 3529 3258 1338 1277 1920 13972 1839 522 1317 10661 5494 997 139 5167 3796 2518 2394
is_linear=0
shrinkage=0.05


Tree=17
num_leaves=31
num_cat=0
split_feature=0 1 6 2 6 13 27 12 20 27 15 16 31 16 30 3 6 31 30 3 11 27 3 30 3 3 28 28 6 28
split_gain=24.2071 14.5167 5.37353 6.88769 5.13572 9.59356 6.61692 5.00026 4.86653 4.38307 4.04008 3.96258 3.89052 3.63518 3.63125 3.65033 6.23431 5.02324 4.83914 4.47363 3.89 3.63005 6.65033 6.35426 4.40872 3.61635 5.34137 5.17743 4.43584 4.57007
threshold=1.5000000000000002 1.5000000000000002 4.5000000000000009 10.500000000000002 2.5000000000000004 1.0000000180025095e-35 1.0000000180025095e-35 1.0000000180025095e-35 1.5000000000000002 6.9500000000000002 5.5000000000000009 34.500000000000007 0.35000000000000003 28.500000000000004 0.52786377708978338 11.500000000000002 16.500000000000004 0.55000000000000016 0.29814814814814822 12.500000000000002 1.5000000000000002 1.0000000000000002 21.500000000000004 0.49000000000000005 27.500000000000004 8.5000000000000018 10.291666666666673 10.541666666666671 8.5000000000000018 16.875000000000007
decision_type=2 2 2 2 2 2 2 2 2 2 2 2 2 2 2 2 2 2 2 2 2 2 2 2 2 2 2 2 2 2
left_child=1 4 3 9 6 21 10 14 12 -3 -1 13 -8 -12 15 25 17 20 -18 -20 -17 24 23 -23 -6 26 -4 -28 29 -29
right_child=-2 2 7 -5 5 -7 8 -9 -10 -11 11 -13 -14 -15 -16 16 18 -19 19 -21 -22 22 -24 -25 -26 -27 27 28 -30 -31
leaf_value=0.034827959349114736 0.054088680116464664 0.012011180606810633 0.01722452503239762 -0.02684414150867457 -0.0051682235513606711 -0.047734810912887456 -0.024577089039795066 0.026086597984616322 0.074334398346976416 0.074753697601463262 -0.0056776181671099706 0.045018911796666776 0.0067514406980377214 -0.046504745812668544 0.011774324534566061 0.0016637726668236959 -0.061392468942627822 -0.027569974959951622 -0.056043766828379166 -0.006393268413471472 -0.026962179539648537 -0.001814444327259127 -0.0093259869937410266 0.0059036552352993207 0.026335738909958717 0.0089679461943327488 -0.06385854128721008 -0.0016364794134502338 -0.016426720270817766 0.046595362349083458
leaf_weight=6.2833952610380939 20.60826874198392 202.13848290627357 25.906184301245958 11.528584776446221 1174.1780116724549 11.881162723409942 10.197669094428418 21.965394828468561 2.6141239758580914 2.8223873600363723 200.91212295880541 3.7585169542580834 351.13732867594808 5.6042324677109709 91.114845205564052 1113.5617871357827 5.3426428865641347 15.208837218582628 5.0401659002527586 45.43031722959131 11.995643893256782 1256.0106123478618 226.81735080527142 338.55909996456467 11.211128070019184 263.02698295738082 4.0916487809736273 21.247623766772453 40.839829647447914 6.3877966720610848
leaf_count=101 356 1742 213 95 10552 290 116 276 11 15 2088 28 2872 61 782 9036 88 160 57 430 104 10940 1947 2758 88 2086 25 218 389 56
internal_value=-2.04478e-12 -0.000203155 0.00334811 0.01076 -0.00206568 -0.00289394 0.0022413 0.00238794 0.00635906 0.0128752 -0.00467903 -0.00585957 0.00586728 -0.00678554 0.0020723 0.00150494 0.000174716 0.000973011 -0.0161417 -0.0113515 0.00135869 -0.00271676 -0.00131522 -0.000175737 -0.00487027 0.00590803 -0.00226518 -0.00922295 -0.00595827 0.00951208
internal_weight=5507.42 5486.81 1887.65 216.489 3599.16 3018.66 580.507 1671.16 363.949 204.961 216.558 210.275 361.335 206.516 1649.19 1558.08 1196.58 1140.77 55.8131 50.4705 1125.56 3006.78 1821.39 1594.57 1185.39 361.5 98.4731 72.5669 68.4753 27.6354
internal_count=47980 47624 15772 1852 31852 26575 5277 13920 2999 1757 2278 2177 2988 2149 13644 12862 9875 9300 575 487 9140 26285 15645 13698 10640 2987 901 688 663 274
is_linear=0
shrinkage=0.05


Tree=18
num_leaves=31
num_cat=0
split_feature=0 1 6 6 9 0 29 20 20 31 9 3 3 1 24 3 15 17 16 9 28 9 10 10 3 2 21 31 16 17
split_gain=22.9027 13.6955 5.99785 5.85979 5.37039 4.71785 114.403 4.58929 4.27326 4.20988 5.00819 3.84063 5.00328 3.72523 6.47251 4.80681 7.10677 5.92351 5.01985 8.02646 5.18529 5.59516 4.93177 4.28606 9.12359 4.40293 4.18238 4.11776 6.00684 7.82057
threshold=1.5000000000000002 1.0000000180025095e-35 4.5000000000000009 3.5000000000000004 3.5000000000000004 1.0000000180025095e-35 1.0000000180025095e-35 5.5000000000000009 1.0000000180025095e-35 0.46500000000000002 2.5000000000000004 5.5000000000000009 1.5000000000000002 2.5000000000000004 1.5000000000000002 15.500000000000002 38.500000000000007 4.5000000000000009 92.500000000000014 10.500000000000002 9.5416666666666714 4.5000000000000009 1.5000000000000002 1.0000000180025095e-35 14.500000000000002 7.5000000000000009 5.5000000000000009 0.13500000000000004 67.500000000000014 2.5000000000000004
decision_type=2 2 2 2 2 2 2 2 2 2 2 2 2 2 2 2 2 2 2 2 2 2 2 2 2 2 2 2 2 2
left_child=1 3 8 4 9 7 -7 13 -3 -1 11 12 -11 14 15 23 22 18 19 20 21 -18 -17 24 25 -4 -22 -21 -29 -30
right_child=-2 2 5 -5 -6 6 -8 -9 -10 10 -12 -13 -14 -15 -16 16 17 -19 -20 27 26 -23 -24 -25 -26 -27 -28 28 29 -31
leaf_value=-0.01870507680935752 0.052939648053175165 0.0092989113371985486 0.00098910451258512862 -0.0048705202442854076 0.0052303573888039757 0.07341282988833811 -0.00058293545706084493 0.041393156738963974 -0.0038520036752551987 -0.0050658229284751945 -0.0099672589136727153 -0.0067242205826134015 0.013267334726312495 0.0032908469374427355 -0.062370722846064847 -0.018610902248650203 0.002779924386452714 0.0059574762723879036 -0.026510236354961303 0.064019384261026518 -0.0066391366401912346 0.076030793669631946 -0.072025971106286363 -0.00066413183210143711 0.048283682334690416 0.031838295615428516 -0.032649069000920752 0.041384956573741929 0.054573998840075681 -0.028334456936098203
leaf_weight=40.190305911935866 20.353215646231547 389.29194701998495 91.973113100975752 1556.628073658736 333.91772592626512 55.665201049298048 847.6994942080928 6.5211719237267962 73.421702918130904 57.245569093152881 120.37226988235489 76.421264914795756 106.35882539721206 449.40357901516836 4.4237092435359946 16.815875699743632 8.4231095761060697 124.28423963394016 28.772787982481532 4.5058527309447554 416.23200717032887 3.7753819655627003 5.815852621337398 518.3147398433648 13.673955235630272 13.230074723251162 16.051594729535282 10.463329361751677 3.7808125391602507 11.483330633491276
leaf_count=589 356 3309 802 13972 2924 399 7325 61 725 586 1302 723 815 3642 38 136 97 1015 289 50 3778 26 51 4416 116 114 157 57 20 90
internal_value=-2.06725e-12 -0.000199345 0.00195949 -0.00313356 0.00054757 0.00104278 0.00397667 -0.000473501 0.00721217 -0.00335585 -0.00164416 0.00252985 0.00685252 -0.000630281 -0.00199417 -0.00178674 -0.00481053 -0.00381816 -0.00623124 -0.00500212 -0.00669775 0.0254508 -0.0323374 0.00129976 0.00986248 0.00486862 -0.00760494 0.0199266 0.0122043 -0.00779866
internal_weight=5425.51 5405.16 3114.02 2291.13 734.506 2651.31 903.365 1747.94 462.714 400.588 360.398 240.026 163.604 1741.42 1292.02 1287.6 650.404 627.772 503.488 474.715 444.482 12.1985 22.6317 637.192 118.877 105.203 432.284 30.2333 25.7275 15.2641
internal_count=47980 47624 26713 20911 6939 22679 7724 14955 4034 4015 3426 2124 1401 14894 11252 11214 5766 5579 4564 4275 4058 123 187 5448 1032 916 3935 217 167 110
is_linear=0
shrinkage=0.05


Tree=19
num_leaves=31
num_cat=0
split_feature=0 1 6 13 27 3 15 27 28 10 17 28 30 17 28 27 8 7 27 22 8 3 27 20 27 28 5 15 2 3
split_gain=21.2516 14.1962 5.63292 7.49011 4.94108 4.91118 4.61727 4.55882 5.88955 5.22886 5.05822 5.12155 9.04372 5.61229 4.23805 4.21931 5.2971 6.64762 5.42743 4.40548 4.38859 5.56784 5.08563 4.48061 4.27753 6.10662 5.21416 4.53134 4.40542 4.03937
threshold=1.5000000000000002 1.5000000000000002 2.5000000000000004 1.0000000180025095e-35 0.70000000000000007 21.500000000000004 28.500000000000004 1.0000000000000002 8.1250000000000036 1.5000000000000002 5.5000000000000009 15.791666666666671 0.31414473684210531 2.5000000000000004 11.791666666666671 3.7500000000000004 21.500000000000004 21.500000000000004 2.9500000000000006 2.5000000000000004 16.500000000000004 15.500000000000002 6.1500000000000004 5.5000000000000009 5.4500000000000002 13.291666666666673 5.5000000000000009 51.500000000000007 9.5000000000000018 10.500000000000002
decision_type=2 2 2 2 2 2 2 2 2 2 2 2 2 2 2 2 2 2 2 2 2 2 2 2 2 2 2 2 2 2
left_child=1 2 4 7 5 -1 -6 -4 29 -10 11 -11 -13 -14 -3 16 17 -16 -18 -17 21 22 24 -22 26 -26 28 -27 -21 -9
right_child=-2 14 3 -5 6 -7 -8 8 9 10 -12 12 13 -15 15 19 18 -19 -20 20 23 -23 -24 -25 25 27 -28 -29 -30 -31
leaf_value=-0.001037562787651795 0.05192979621878633 0.0091428632335889375 -0.0052284093152024915 -0.043350662726051689 0.066064783140302244 0.052067215214135702 0.0086070662139548192 0.0040404991964709536 0.00056393394767754914 -0.0041096264430568437 0.0094012770932096132 0.0083357358011999193 0.015647548397604249 -0.025430369233590301 0.00029061173029335706 0.015644359775171462 0.010491044052215768 0.043851746334996021 -0.020330591593004581 0.013277451603028964 0.0010446697903856849 0.003243404107553196 0.065289272578308313 0.05162602845350911 -0.059347675019784198 0.047977256482962943 0.084943326561682922 -0.017927898970363409 0.053556896348201766 0.024527706212344114
leaf_weight=397.66033109184355 19.628806512220763 273.11934824078344 1148.8989220483927 11.41833742399467 3.5749735645949832 4.4018932133913031 159.20917366398498 98.409185105469078 900.0446826905245 546.70505978737492 55.561186108738184 32.20013259164989 9.0935676158405823 97.120761785772629 553.41249988786876 82.021831866004504 18.810554252937436 8.8988862747792137 59.34345572150778 45.591639694292098 611.38903090753593 120.1244331127964 5.8459898051805785 4.4097850061953059 4.0740714222192755 4.8850099584087712 3.2035776376724234 5.5956548284739256 7.9758421299047759 31.845251976512372
leaf_count=3912 356 2557 10640 290 28 19 1318 913 7810 4869 452 296 85 974 5037 638 137 70 571 448 5090 970 43 42 27 33 15 46 48 246
internal_value=1.34918e-11 -0.000192149 -0.00205256 -0.00293356 0.00251945 -0.000456156 0.00986892 -0.00277551 -0.00118423 -0.00199665 -0.00510817 -0.00628484 -0.0148764 -0.0219135 0.00340395 0.00238322 -0.000715238 0.000979991 -0.0129123 0.0046002 0.00348611 0.00997577 0.0204553 0.00140689 0.0167806 -0.0074021 0.0229805 0.0127903 0.0192748 0.00904931
internal_weight=5324.47 5304.85 3496.14 2931.3 564.846 402.062 162.784 2919.88 1770.98 1640.73 740.681 685.12 138.414 106.214 1808.7 1535.58 640.465 562.311 78.154 895.117 813.095 197.296 77.1718 615.799 71.3258 14.5547 56.7711 10.4807 53.5675 130.254
internal_count=47980 47624 31852 26575 5277 3931 1346 26285 15645 14486 6676 6224 1355 1059 15772 13215 5815 5107 708 7400 6762 1630 660 5132 617 106 511 79 496 1159
is_linear=0
shrinkage=0.05


Tree=20
num_leaves=31
num_cat=0
split_feature=0 1 6 3 1 13 20 13 6 28 28 27 27 14 9 15 20 16 27 16 16 17 28 27 30 28 27 17 27 22
split_gain=19.7248 12.9725 5.09242 5.01858 4.85274 4.26801 4.06393 6.04339 4.09763 5.99937 8.17118 4.03504 5.66184 3.99892 3.77793 5.38756 5.7765 5.77782 5.64025 5.22068 5.54606 4.66097 4.54204 5.18209 3.97902 3.71552 6.03145 3.68583 6.42736 6.34962
threshold=1.5000000000000002 1.0000000180025095e-35 3.5000000000000004 13.500000000000002 2.5000000000000004 1.0000000180025095e-35 1.0000000180025095e-35 1.0000000180025095e-35 7.5000000000000009 17.375000000000007 17.708333333333339 5.8499999999999996 7.2499999999999991 1.0000000180025095e-35 5.5000000000000009 61.500000000000007 1.0000000180025095e-35 82.500000000000014 1.8500000000000003 48.500000000000007 45.500000000000007 5.5000000000000009 11.541666666666671 1.6500000000000004 0.47213622291021679 20.208333333333343 4.5500000000000007 3.5000000000000004 2.2500000000000004 4.5000000000000009
decision_type=2 2 2 2 2 2 2 2 2 2 2 2 2 2 2 2 2 2 2 2 2 2 2 2 2 2 2 2 2 2
left_child=1 2 5 6 14 -1 7 8 -3 13 -11 25 -13 -10 15 16 17 18 21 20 -16 24 23 -21 -5 26 -12 28 -20 -30
right_child=-2 3 -4 4 -6 -7 -8 -9 9 10 11 12 -14 -15 19 -17 -18 -19 27 22 -22 -23 -24 -25 -26 -27 -28 -29 29 -31
leaf_value=0.0017526986801753089 0.050924430584244 0.0093003238801940957 -0.0046743270471271518 -0.021873804348269639 0.0042509481640440076 -0.011172469197342036 -0.0010051900835670298 -0.073829209915435387 0.00028862278286128257 0.055586318957386374 0.0039326096740048234 0.050093873488078977 -0.0013294032749952799 -0.034625258984120631 0.0042026838968421141 -0.020982368018758153 -0.022506283264660153 -0.056423828125045906 0.027420714675936642 -0.0160037580720967 0.029644443447966587 0.04627884550518141 -0.0019062777103757284 0.056430296267057013 0.0030663627460744743 -0.0099301273336935784 0.054442952096296141 0.015824696951622655 -0.018531681354084974 0.039933180945500552
leaf_weight=635.82036255323328 18.946476890239865 500.18283578602131 1535.4287896089663 43.440737038850784 537.74298611667473 71.001707567833364 264.81145013635978 2.3644554112106553 325.51099432003684 10.23031675070524 33.261658375151455 12.145596002694221 9.570757170673458 8.4133531097322685 114.84845674037933 52.328606558032334 33.306258759927005 4.4385185390710822 14.3463908592239 3.8253506906330568 26.33170194318518 3.5223999023437491 799.30726999870967 6.9651094581931829 25.310515405843034 31.819414441939443 7.1872766166925421 66.003364436328411 37.366021302063018 5.3031681887805453
leaf_count=5972 356 4250 13972 401 4509 967 2429 58 3017 77 285 102 90 74 1204 550 316 42 132 30 218 25 7389 50 260 234 45 465 417 44
internal_value=-1.84862e-11 -0.000184759 -0.00305762 0.00197696 0.000285666 0.000454339 0.0044664 0.0060067 0.00620788 0.00267752 0.0131506 0.00853147 0.0274308 -0.000591046 -0.0014386 -0.00648437 -0.00322884 -1.42184e-05 0.00126783 7.5038e-05 0.00894786 -0.00981811 -0.00147128 0.0307515 -0.0126922 0.0028523 0.0129077 0.00778082 -0.00153106 -0.0112653
internal_weight=5241.08 5222.14 2242.25 2979.88 1774.39 706.822 1205.5 940.687 938.322 438.139 104.215 93.9847 21.7164 333.924 1236.64 285.366 233.037 199.731 195.293 951.278 141.18 72.2737 810.098 10.7905 68.7513 72.2683 40.4489 123.019 57.0156 42.6692
internal_count=47980 47624 20911 26713 16052 6939 10661 8232 8174 3924 833 756 192 3091 11543 2652 2102 1786 1744 8891 1422 686 7469 80 661 564 330 1058 593 461
is_linear=0
shrinkage=0.05


Tree=21
num_leaves=31
num_cat=0
split_feature=0 1 10 27 6 15 30 22 3 17 20 6 28 3 15 31 11 3 6 5 16 28 30 15 22 21 10 30 3 3
split_gain=18.3347 12.6617 4.93813 6.11797 5.87805 4.99914 5.36029 5.79067 4.51946 5.43082 4.38633 4.31782 4.14052 4.06863 5.83653 4.45755 4.14792 4.0682 4.05447 6.23161 3.91042 3.88834 5.37837 4.85391 4.78198 4.36761 4.00185 3.87299 4.2521 3.86086
threshold=1.5000000000000002 1.5000000000000002 1.5000000000000002 0.85000000000000009 7.5000000000000009 43.500000000000007 0.28285714285714292 2.5000000000000004 21.500000000000004 5.5000000000000009 1.0000000180025095e-35 4.5000000000000009 18.375000000000007 22.500000000000004 65.500000000000014 0.35000000000000003 1.5000000000000002 29.500000000000004 3.5000000000000004 4.5000000000000009 110.50000000000001 6.6250000000000027 0.32795698924731187 54.500000000000007 1.0000000180025095e-35 1.0000000180025095e-35 1.0000000180025095e-35 0.58114035087719318 8.5000000000000018 7.5000000000000009
decision_type=2 2 2 2 2 2 2 2 2 2 2 2 2 2 2 2 2 2 2 2 2 2 2 2 2 2 2 2 2 2
left_child=1 2 3 18 5 12 7 -7 -4 -10 17 13 -5 15 -15 -3 -17 -8 19 -1 -14 24 -23 25 -20 -24 -25 28 29 -6
right_child=-2 11 8 4 27 6 10 -9 9 -11 -12 -13 20 14 -16 16 -18 -19 21 -21 -22 22 23 26 -26 -27 -28 -29 -30 -31
leaf_value=-0.00089745541396072162 0.050081112834952479 -0.00033038760243231125 -0.0037725490180870892 0.013702161844830385 -0.0066528822430480319 -0.049049786068897726 0.0051141440348764925 0.017987133151357023 -0.020697973444612789 0.026871844803298819 -0.0071112020460196643 0.0023857469689890515 -0.075683858333454895 0.053878139295786109 -0.03271378669354396 0.017311378425557248 -0.028692705758950172 -0.03643704910832217 -0.013298255142219956 0.078768047176629399 0.010986863406838125 -0.023719345492217433 0.0098608119856615217 -0.0014130004032304033 -0.06025019707837647 -0.0041791642374319022 -0.022134579828041057 0.01969539913653829 -0.0025300251815945445 -0.04449442959359589
leaf_weight=504.40489693311974 18.210983171360567 83.589500218164176 1094.9703537076712 152.94569212477654 15.769158683717251 10.010641742497681 549.95358507568017 4.749841781333088 67.946504206745885 6.5809987466782323 92.11208415729925 1539.7336871874286 2.560776545898988 10.310367438709362 2.3987227529287329 101.50112860510126 5.1483144434168926 5.9545984454452983 84.137125739362091 2.4667106717824927 2.646318394690752 33.789248617569683 87.988192624878138 43.850426338962279 5.7966329138725987 149.52532344125211 49.717385568656027 18.254528710618615 408.29232262086589 11.772452614270151
leaf_count=5085 356 731 10246 1475 138 92 4709 43 846 73 841 13920 23 111 19 944 47 45 801 7 22 417 674 361 132 1320 412 131 3865 94
internal_value=-1.58541e-11 -0.000177131 -0.00195064 -0.000574025 0.00169702 0.00422192 0.00231594 -0.0274777 -0.00458345 -0.0164974 0.00299458 0.00328932 0.0122094 0.0101446 0.0375347 0.00831475 0.0150906 0.00466907 -0.00358505 -0.00050976 -0.0316366 -0.00701241 -0.00471715 -0.00277784 -0.0163245 0.00102202 -0.0124234 -0.00286768 -0.00381271 -0.022828
internal_weight=5167.09 5148.88 3406.2 2236.7 1275.02 820.934 662.781 14.7605 1169.5 74.5275 648.02 1742.68 158.153 202.948 12.7091 190.239 106.649 555.908 961.676 506.872 5.20709 454.804 364.871 331.081 89.9338 237.514 93.5678 454.088 435.834 27.5416
internal_count=47980 47624 31852 20687 11478 7250 5730 135 11165 919 5595 15772 1520 1852 130 1722 991 4754 9209 5092 45 4117 3184 2767 933 1994 773 4228 4097 232
is_linear=0
shrinkage=0.05


Tree=22
num_leaves=31
num_cat=0
split_feature=0 1 6 13 6 20 17 22 28 16 3 3 10 3 28 15 16 28 16 28 10 2 15 30 3 16 30 15 5 16
split_gain=16.8502 12.06 4.55213 5.93984 4.4798 4.45959 4.29135 4.10239 4.38267 5.73745 4.09692 3.82859 3.77864 3.71025 5.57069 3.64656 4.61706 6.92499 5.97015 4.67492 4.4357 8.58548 4.3484 3.85576 4.47979 3.9303 3.63275 4.48429 3.62439 4.54498
threshold=1.5000000000000002 1.0000000180025095e-35 2.5000000000000004 1.0000000180025095e-35 7.5000000000000009 1.0000000180025095e-35 5.5000000000000009 1.0000000180025095e-35 10.458333333333337 46.500000000000007 14.500000000000002 22.500000000000004 1.0000000180025095e-35 13.500000000000002 8.2916666666666696 49.500000000000007 74.500000000000014 14.125000000000005 71.500000000000014 14.291666666666673 1.5000000000000002 6.5000000000000009 39.500000000000007 0.31142241379310348 16.500000000000004 89.500000000000014 0.38278388278388281 53.500000000000007 6.5000000000000009 47.500000000000007
decision_type=2 2 2 2 2 2 2 2 2 2 2 2 2 2 2 2 2 2 2 2 2 2 2 2 2 2 2 2 2 2
left_child=1 2 7 -4 5 10 28 11 9 13 -3 12 -1 14 -9 16 18 -18 20 -19 21 -12 -21 24 -17 -25 27 -10 -6 -30
right_child=-2 4 3 -5 6 -7 -8 8 26 -11 15 -13 -14 -15 -16 23 17 19 -20 22 -22 -23 -24 25 -26 -27 -28 -29 29 -31
leaf_value=0.0022139981202055898 0.049081458027171891 0.0084550354566867627 -0.0039803634526646295 -0.050043017903400405 0.00033275738948533194 -0.0031768606813571466 0.0097015666345036077 0.011137969778346014 0.047917063893197415 0.072719997316691848 -0.010884508947615817 0.056940148011157349 -0.0084747514848003136 0.035097841585510714 -0.041189737280735883 0.033262245539837164 0.06295232969432514 -0.080795381634270302 -0.056766214986974754 0.026616003502402858 -0.030165515171902774 0.060854194806680861 -0.0049710170066781176 0.0057148662651474759 -0.016036616083511129 0.038718945296941337 -0.033971473966659109 -0.04250519720186946 0.058539197393396983 -0.009687807303729307
leaf_weight=235.52824872033671 17.426917412085459 553.18410246411804 1705.7267832090147 7.0275255403248584 1442.2786397867603 171.68196557578631 112.95597311574966 63.764889000914991 3.8739871694706371 4.0418992303311816 21.383087138645354 2.8206438757479182 127.41354743251577 14.104340879246591 5.5269556101411572 5.2949600415304294 4.4733754694461814 1.7959146052598942 7.897467963397502 13.368104091845451 16.079656553454697 5.1811228566803029 58.909801268950105 297.58837561076507 35.524954660795629 9.3024681170936656 9.3251350969076139 2.1223061941564083 2.4885687828063956 127.56710499897599
leaf_count=2402 356 4913 16105 222 13611 1767 880 516 51 19 191 16 1314 119 58 49 31 15 58 145 148 28 527 2728 332 104 77 12 22 1164
internal_value=4.05986e-11 -0.000168765 -0.00297471 -0.00416936 0.00195131 0.00428382 0.000288147 0.0013925 0.0102195 0.0145419 0.0055274 -0.0010874 -0.00153837 0.0117222 0.00696413 0.00213075 -0.00504569 0.00253951 -0.016834 -0.00110886 -0.0094387 0.00310751 0.000871136 0.00479502 -0.00964181 0.00671529 -0.0144482 0.0159133 -0.000388109 -0.00838231
internal_weight=5085.66 5068.23 2181.28 1712.75 2886.96 1201.67 1685.29 468.522 102.76 87.4381 1029.98 365.762 362.942 83.3962 69.2918 476.799 129.089 78.5472 50.5413 74.0738 42.6439 26.5642 72.2779 347.711 40.8199 306.891 15.3214 5.99629 1572.33 130.056
internal_count=47980 47624 20911 16327 26713 11036 15677 4584 852 712 9269 3732 3716 693 574 4356 1143 718 425 687 367 219 672 3213 381 2832 140 63 14797 1186
is_linear=0
shrinkage=0.05


Tree=23
num_leaves=31
num_cat=0
split_feature=0 1 6 30 31 9 11 0 29 1 15 28 15 16 17 13 17 30 3 15 9 15 20 3 16 2 15 20 3 13
split_gain=15.6478 11.2571 4.50305 4.26074 4.60745 3.97945 3.92865 3.81941 58.5651 7.16043 5.38564 5.38944 5.77001 4.97149 4.71236 3.79803 3.73153 6.1393 4.47781 4.17941 5.18796 4.92295 4.00213 3.88843 8.98694 3.7145 3.81575 3.65152 3.55504 3.54075
threshold=1.5000000000000002 1.0000000180025095e-35 7.5000000000000009 0.64495798319327746 0.46500000000000002 1.5000000000000002 1.0000000180025095e-35 1.0000000180025095e-35 1.0000000180025095e-35 2.5000000000000004 73.500000000000014 13.625000000000005 76.500000000000014 34.500000000000007 1.5000000000000002 1.0000000180025095e-35 4.5000000000000009 0.41042780748663105 8.5000000000000018 55.500000000000007 10.500000000000002 56.500000000000007 1.0000000180025095e-35 8.5000000000000018 37.500000000000007 1.5000000000000002 27.500000000000004 1.0000000180025095e-35 16.500000000000004 1.0000000180025095e-35
decision_type=2 2 2 2 2 2 2 2 2 2 2 2 2 2 2 2 2 2 2 2 2 2 2 2 2 2 2 2 2 2
left_child=1 3 15 5 -5 -1 29 9 -9 10 13 -12 -13 -4 -11 27 19 -18 -19 23 21 28 -20 24 -15 -6 -27 -3 -21 -7
right_child=-2 2 7 4 25 6 -8 8 -10 14 11 12 -14 16 -16 -17 17 18 22 20 -22 -23 -24 -25 -26 26 -28 -29 -30 -31
leaf_value=-0.013873187151086526 0.047914140250564355 0.0055929813108590559 0.012263056471498498 -0.015595337910939115 0.002697795332439132 -0.0049539373885156149 -0.00066739423247341972 0.069260853635180517 -0.0002295119024992647 0.043445820944861678 -0.081480166131984499 -0.064471721274341379 0.043861509977501933 0.083635581988525207 0.0036977129961774063 -0.042519480176452212 -0.0046156577410342223 0.068303894552294783 0.020682587156945795 -0.075555681418447262 0.033471660030066581 -0.013032686964544824 -0.015636848737700312 -0.0030151895752867121 -0.028626763991143906 0.070650225352676857 0.015328818428452618 -0.0023936981670277043 -0.026349563155585998 -0.036356853958781951
leaf_weight=89.474270697217435 16.982231998583302 1002.8163970025489 44.851099259220064 25.548803176730871 123.41766564804129 986.01618198968936 889.89927782688756 31.959946639835835 590.91105740785133 7.640675287693738 4.4965683352202159 2.2717891531065106 2.678019292652607 1.9014255926013017 309.63854245771654 4.319250911474227 110.44176287995651 3.8986516222357741 32.996303176973015 5.4293673057109144 5.2794802095741025 101.18593933060765 9.8489613747224194 361.21564072580077 28.556209837086499 3.3678007544949642 41.851594528183341 166.93762455857359 11.331974727101622 9.0587313603609783
leaf_count=1068 356 9196 465 337 1075 9533 8313 272 5335 35 90 25 33 11 2676 101 1015 19 261 38 50 1083 90 3727 350 29 358 1739 102 198
internal_value=-3.86879e-11 -0.000162438 0.00190859 -0.00287519 0.00419178 -0.00357022 -0.00308117 0.000237655 0.00333609 -0.00161153 -0.00434867 -0.0418558 -0.00585966 -0.00385448 0.00465492 0.00428038 -0.00493007 0.00181298 0.0170019 -0.00698855 -0.0150197 -0.0171902 0.0123337 -0.00446183 -0.0216184 0.00718956 0.019449 0.00445319 -0.0422885 -0.00523982
internal_weight=5026.22 5009.24 2840.61 2168.63 194.186 1974.45 1884.97 1666.53 622.871 1043.66 726.383 9.44638 4.94981 716.937 317.279 1174.07 672.086 157.186 46.7439 514.9 123.227 117.947 42.8453 391.673 30.4576 168.637 45.2194 1169.75 16.7613 995.075
internal_count=47980 47624 26713 20911 1799 19112 18044 15677 5607 10070 7359 148 58 7211 2711 11036 6746 1385 370 5361 1273 1223 351 4088 361 1462 387 10935 140 9731
is_linear=0
shrinkage=0.05


Tree=24
num_leaves=31
num_cat=0
split_feature=0 1 6 2 6 28 3 6 2 10 9 28 16 28 15 18 22 30 2 11 6 28 28 28 5 3 28 2 22 15
split_gain=14.4985 11.514 4.26666 5.35726 4.37777 5.6496 5.28211 4.26283 4.21148 3.46012 5.22006 4.00247 4.58283 3.87746 3.41716 3.30683 4.14009 3.26966 3.76398 3.06317 3.1047 4.31225 3.28277 4.11424 5.82963 4.00756 4.25437 4.82004 3.88 3.55547
threshold=1.5000000000000002 1.0000000180025095e-35 5.5000000000000009 1.0000000180025095e-35 3.5000000000000004 10.041666666666671 20.500000000000004 4.5000000000000009 11.500000000000002 1.0000000180025095e-35 3.5000000000000004 8.6250000000000053 33.500000000000007 4.8750000000000018 72.500000000000014 3.5000000000000004 10.500000000000002 0.52506265664160412 9.5000000000000018 2.5000000000000004 2.5000000000000004 12.708333333333337 6.7916666666666687 7.9583333333333357 1.5000000000000002 6.5000000000000009 9.2083333333333375 2.5000000000000004 1.0000000180025095e-35 52.500000000000007
decision_type=2 2 2 2 2 2 2 2 2 2 2 2 2 2 2 2 2 2 2 2 2 2 2 2 2 2 2 2 2 2
left_child=1 2 3 4 5 9 -6 -3 14 -1 13 12 -12 -11 19 17 -17 -9 -19 20 21 -5 -22 24 -24 -25 27 28 -27 -26
right_child=-2 7 -4 8 6 -7 -8 15 -10 10 11 -13 -14 -15 -16 16 -18 18 -20 -21 22 -23 23 25 29 26 -28 -29 -30 -31
leaf_value=-0.00067647176458671382 0.047007383783424492 0.0065753663860812078 -0.0052525622553464598 0.0062858468822368247 -0.014248830793047907 0.053634536924270552 -0.07275604266491674 -0.00026885398754063092 0.041646932749257022 -0.0147889653618555 0.0044074674518651052 -0.024515355759567481 0.069572810439454999 -0.048348905748765991 0.062231364866217109 0.0061342233910889055 -0.051915217773893629 0.0054021356028296306 0.044266546945503076 0.05734428157983526 -0.0086402656243160705 -0.037665798341558317 0.021094877616972364 0.049656417842626151 0.00061558489622338909 -0.014335374845037906 0.00097901729534731713 -0.00036031984613697565 -0.047539104079757102 -0.047720113818246299
leaf_weight=180.62305295444094 16.349257935304195 424.55308919528034 1018.2632406817283 246.30514836730435 59.21446861885488 4.2728159278631201 4.1265380922704926 1842.8074578550877 6.43186156079173 41.610686531290412 8.3002178808674234 5.8969968929886809 3.9973261281847945 10.851381394080816 2.2742013335227957 347.16526048001833 3.0989426337182513 172.93581625400111 6.4627414923161259 2.3927716314792624 122.16588746663183 5.7101414285134515 51.415944630280137 3.7463408010080448 29.66629645600915 31.871702838223428 253.37354674655944 46.028446158394217 12.153219539672135 4.3642160249873987
leaf_count=1943 356 4034 9439 2234 546 26 111 17870 30 476 110 46 27 167 9 3154 28 1566 61 16 1601 69 513 33 292 319 2210 488 165 41
internal_value=-4.21991e-11 -0.000155195 -0.00290187 -0.000796278 -0.0062933 -0.00337671 -0.0180605 0.00196107 0.00134697 -0.00434614 -0.0137271 0.00935012 0.0255895 -0.0217306 0.00102755 0.00113534 0.00562063 0.00035845 0.00680221 0.000855538 0.000688006 0.00528999 -0.00140248 0.000641372 0.0104699 -0.00177763 -0.0023387 -0.0116734 -0.0235014 -0.00558319
internal_weight=4968.43 4952.08 2155.06 1136.79 318.893 255.552 63.341 2797.02 817.9 251.28 70.6566 18.1945 12.2975 52.4621 811.468 2372.47 350.264 2022.21 179.399 809.194 806.801 252.015 554.786 432.62 85.4465 347.173 343.427 90.0534 44.0249 34.0305
internal_count=47980 47624 20911 11472 3452 2795 657 26713 8020 2769 826 183 137 643 7990 22679 3182 19497 1627 7981 7965 2303 5662 4061 846 3215 3182 972 484 333
is_linear=0
shrinkage=0.05


Tree=25
num_leaves=31
num_cat=0
split_feature=0 1 30 5 6 16 3 10 15 13 6 6 9 2 31 20 16 16 27 12 16 19 28 3 3 21 20 28 30 9
split_gain=13.4323 11.193 4.24725 4.44152 4.0388 3.50464 3.62316 3.27672 2.94127 2.92784 5.03473 4.37592 3.70687 3.39095 3.53432 3.21933 2.97303 5.97117 2.92407 3.84764 3.2548 2.86867 4.57072 3.89366 3.87293 3.30533 3.60162 5.73921 8.14292 5.00905
threshold=1.5000000000000002 1.0000000180025095e-35 0.39642857142857152 1.5000000000000002 4.5000000000000009 16.500000000000004 5.5000000000000009 3.5000000000000004 62.500000000000007 1.0000000180025095e-35 1.0000000180025095e-35 1.5000000000000002 3.5000000000000004 7.5000000000000009 0.39000000000000007 1.5000000000000002 42.500000000000007 44.500000000000007 3.5500000000000003 1.0000000180025095e-35 36.500000000000007 3.5000000000000004 11.625000000000005 18.500000000000004 8.5000000000000018 5.5000000000000009 1.0000000180025095e-35 17.791666666666675 0.41421568627450983 9.5000000000000018
decision_type=2 2 2 2 2 2 2 2 2 2 2 2 2 2 2 2 2 2 2 2 2 2 2 2 2 2 2 2 2 2
left_child=1 2 3 7 -3 6 -5 -1 -7 11 -11 -4 13 14 -13 -14 -16 -18 20 21 -6 22 -20 24 -24 -23 -27 -28 29 -29
right_child=-2 4 9 5 18 8 -8 -9 -10 10 -12 12 15 -15 16 -17 17 -19 19 -21 -22 25 23 -25 -26 26 27 28 -30 -31
leaf_value=-0.0018860229599748609 0.046112838400948951 0.0064341396621781788 0.0063830138988852274 0.0054150112476368494 0.0059359987609460202 -0.0080693368194625411 -0.069068610472204778 -0.053969425103936514 -0.026723364167441845 -0.0048273036365104466 -0.040640283805171276 -0.043679757892501149 0.000362363243547002 0.045276999889230528 -0.0072469952278145511 -0.01782101005563055 0.080169479431828047 -0.0083770224778372745 -0.026996517441154749 0.030391157894820994 -0.0012779762223960008 0.0034342419950989149 -0.028948441038136964 -0.0066330099694838877 0.03554084419383504 -0.00067373666703045125 -0.053131785228755335 0.077090605651969971 -0.045134862152971564 0.0016662535250196509
leaf_weight=390.00444927951321 15.741861983260604 423.66515781963244 185.21642076503485 2.4502192288637152 179.6456547267735 318.66381320194341 4.8934280499815941 3.0433826302178195 22.63231713231653 50.233792736660689 12.19648142158985 6.4933939375914624 807.71585747750942 3.1110710576176634 283.84354043612257 25.098410850390792 2.9537215381860715 5.3571419641375542 5.6218291809782377 12.870968060567973 1206.0730538911885 793.02375253476202 2.5444626091048148 9.5346436090767366 27.381279613357037 92.098174511454999 9.3466015812009591 3.0054348632693317 7.6122931987047187 8.2268340429291111
leaf_count=3770 356 4034 1681 27 1852 3383 55 30 240 630 312 117 7062 24 3239 257 27 57 56 150 12067 7055 30 65 243 859 128 33 60 81
internal_value=-4.95307e-11 -0.000148006 -0.00288107 -0.00593341 0.00193955 -0.0100417 -0.044217 -0.00228931 -0.00930634 -0.0012432 -0.0118238 -0.000742705 -0.00190596 -0.00665386 -0.00719483 -0.000185627 -0.00638392 0.0230928 0.00113165 0.00323521 -0.000342751 0.00287051 0.015183 0.0211922 0.0300576 0.00226275 -0.00546044 -0.0210982 -0.00521005 0.0218477
internal_weight=4920.3 4904.56 2123.91 741.688 2780.65 348.64 7.34365 393.048 341.296 1382.22 62.4303 1319.79 1134.57 301.759 298.648 832.814 292.154 8.31086 2356.98 971.266 1385.72 958.395 45.0822 39.4604 29.9257 913.313 120.289 28.1912 18.8446 11.2323
internal_count=47980 47624 20911 7505 26713 3705 82 3800 3623 13406 942 12464 10783 3464 3440 7319 3323 84 22679 8760 13919 8610 394 338 273 8216 1161 302 174 114
is_linear=0
shrinkage=0.05


Tree=26
num_leaves=31
num_cat=0
split_feature=0 1 30 2 27 17 6 3 16 6 15 28 28 28 15 15 22 31 15 9 15 3 16 9 8 16 11 9 28 15
split_gain=12.7598 11.4322 4.25973 5.3172 4.0696 4.86997 4.63408 3.78473 3.75582 3.5603 4.04613 7.52543 4.01122 3.4327 3.65374 4.93548 3.38257 6.48029 3.24381 3.99576 3.47648 3.33982 3.68664 3.21094 5.04157 5.06077 3.35613 4.19489 5.03281 4.64715
threshold=1.5000000000000002 1.5000000000000002 0.64495798319327746 1.5000000000000002 1.0000000180025095e-35 5.5000000000000009 5.5000000000000009 10.500000000000002 37.500000000000007 1.5000000000000002 44.500000000000007 4.3750000000000009 5.2083333333333348 5.8750000000000027 35.500000000000007 29.500000000000004 6.5000000000000009 0.39000000000000007 56.500000000000007 6.5000000000000009 57.500000000000007 21.500000000000004 43.500000000000007 1.5000000000000002 4.5000000000000009 5.5000000000000009 1.0000000180025095e-35 4.5000000000000009 6.7083333333333348 64.500000000000014
decision_type=2 2 2 2 2 2 2 2 2 2 2 2 2 2 2 2 2 2 2 2 2 2 2 2 2 2 2 2 2 2
left_child=1 2 4 -4 5 7 16 9 -3 10 11 -1 -13 14 15 -5 23 -18 19 21 -20 -9 -23 -6 25 -25 27 29 -29 -26
right_child=-2 8 3 13 6 -7 -8 18 -10 -11 -12 12 -14 -15 -16 -17 17 -19 20 -21 -22 22 -24 24 26 -27 -28 28 -30 -31
leaf_value=-0.0066481307850253836 0.045346752173225764 0.01153751002591976 -0.00052665344894341584 0.057442068829483196 -0.013951171586742884 -0.087533344335632701 -0.0034038454135775944 0.0012824014935854545 0.0025436555841393395 -0.017499691821760699 -0.037261956999116164 0.06881442231158276 0.0039990348948722053 0.009959605738420408 0.058287898412913021 -0.02317774405657283 0.0021085415600159132 0.084808264347257814 -0.067611655390504261 0.035933350907755644 -0.010236718910543804 0.037909354827648539 -0.092967813133705557 -0.024765606182235445 -0.0070913759413539978 0.033279448037271904 0.0036524136181112798 0.041216483392906636 0.00030221199931192654 -0.064421673938666074
leaf_weight=42.087533864192665 15.463533372909295 125.59755645459518 157.83808590332046 3.2980602532625225 36.543342682532966 1.909771617501973 1661.5603835743386 95.246515828650445 1531.626546271611 112.01291997311637 7.2749558137729755 5.7554946830496174 4.0786213967949152 56.984472238458693 8.6394623387604934 4.4732115985825658 7.3846752406097931 3.4874666258692741 3.1882144752889898 8.2720537958666664 15.359688422642646 0.75224040448665563 1.889948474243283 4.5649646241217878 184.13871106877923 21.1676145484671 449.75230272300541 7.719223052263259 285.83915431261994 3.6039300784468642
leaf_count=503 356 1296 1518 30 503 19 16270 941 14476 1232 92 37 52 489 63 60 61 10 29 89 163 11 66 44 2177 202 4396 50 2696 49
internal_value=-5.04588e-11 -0.000144521 -0.00189251 0.00464363 -0.00240249 -0.00794575 -0.00178318 -0.00743211 0.00322528 -0.0122581 -0.00233985 0.00255323 0.0419328 0.0157624 0.0359121 0.0110366 0.000898389 0.0286362 -0.000806631 0.00256403 -0.0200989 -0.000255833 -0.0557066 0.000594794 0.00115036 0.0229822 0.000546968 -0.00235492 0.00137807 -0.0081919
internal_weight=4867.51 4852.05 3194.82 231.233 2963.59 297.828 2665.76 295.918 1657.22 171.21 59.1966 51.9216 9.83412 73.3952 16.4107 7.77127 1004.2 10.8721 124.709 106.161 18.5479 97.8887 2.64219 993.329 956.786 25.7326 931.053 481.301 293.558 187.743
internal_count=47980 47624 31852 2160 29692 3234 26458 3215 15772 1916 684 592 89 642 153 90 10188 71 1299 1107 192 1018 77 10117 9614 246 9368 4972 2746 2226
is_linear=0
shrinkage=0.05


Tree=27
num_leaves=31
num_cat=0
split_feature=0 1 6 9 6 13 22 10 13 27 15 16 28 16 10 15 30 28 27 28 31 18 16 16 6 28 28 28 14 30
split_gain=11.7868 10.3608 3.7897 4.15014 3.72385 4.50266 3.86966 3.42374 4.62626 3.92435 3.62664 3.41649 3.39099 3.34706 4.00852 3.38349 3.33801 3.25339 3.91447 3.81726 3.43515 3.17285 4.5933 5.29251 4.42849 5.02325 4.29441 3.36496 3.47914 2.85349
threshold=1.5000000000000002 1.0000000180025095e-35 7.5000000000000009 14.500000000000002 2.5000000000000004 1.0000000180025095e-35 1.0000000180025095e-35 1.0000000180025095e-35 1.0000000180025095e-35 3.7500000000000004 20.500000000000004 26.500000000000004 4.2083333333333348 34.500000000000007 1.0000000180025095e-35 45.500000000000007 0.49000000000000005 6.8750000000000027 1.3000000000000003 7.2916666666666687 0.65000000000000002 3.5000000000000004 91.500000000000014 88.500000000000014 14.500000000000002 20.708333333333339 19.625000000000007 20.708333333333339 1.0000000180025095e-35 0.56696428571428581
decision_type=2 2 2 2 2 2 2 2 2 2 2 2 2 2 2 2 2 2 2 2 2 2 2 2 2 2 2 2 2 2
left_child=1 4 7 21 6 -6 13 17 9 10 -9 -11 -12 14 -1 16 -15 -3 -19 -20 -21 29 23 27 25 26 -25 28 -23 -4
right_child=-2 2 3 -5 5 -7 -8 8 -10 11 12 -13 -14 15 -16 -17 -18 18 19 20 -22 22 -24 24 -26 -27 -28 -29 -30 -31
leaf_value=0.0015077973490890996 0.044459606771524642 0.027533046461483909 -0.00091604596463803014 -0.037634865930928088 -0.0037311235821964697 -0.044853810048464046 0.010354099103409661 0.049901322398717231 -0.067777837000097138 0.051735541930281272 -0.056287357368968165 0.0074094485694389508 0.00056239515172352842 -0.045665929395977412 -0.010553391640773626 0.036123597498964294 0.039319662701356117 -0.0099830295549522292 -0.052651660933814931 0.0081626755410994008 0.029644272138603017 0.0024072854333342438 0.013926081113967712 -0.0058105495959790048 -0.068181386910283304 0.063466954075311138 -0.077546545550034263 -0.037328070724848936 0.02968099638305649 0.014051995698922879
leaf_weight=218.71126601658762 14.861585806414949 21.344317018985748 1284.6947893138858 7.177776249125599 1630.1330077962484 6.6837937615346155 93.117738588480279 3.7104017511010161 2.3372488915920249 4.433047072030603 2.6342152226716271 224.26368758967146 619.73568139900453 3.0610622363165048 100.56251845601946 11.264536272734402 1.8559497669339178 29.354812208097428 2.4569243285804978 218.63904273067601 20.341733336448669 137.17820036853664 99.731246446026489 8.3571876771748084 4.5231698378920546 1.9398509301245201 2.7803396992385379 4.9110388047993174 12.782509014010428 32.65015488024801
leaf_count=2356 356 170 12726 77 16105 222 852 32 60 51 22 2042 6159 38 1236 84 18 258 24 2037 181 1245 910 82 95 18 72 32 104 316
internal_value=-1.27612e-11 -0.000137329 0.00187494 0.000299081 -0.00281267 -0.00389904 0.00133642 0.00406437 0.00247111 0.00266319 0.000615604 0.00826866 0.000321775 -0.00116677 -0.00229115 0.0210181 -0.0135877 0.00873891 0.00725753 0.00935369 0.00999116 0.000470376 0.00538467 0.000445636 -0.0255359 -0.0107857 -0.0237185 0.00339833 0.00473207 -0.000545066
internal_weight=4826.23 4811.37 2745.98 1596.73 2065.39 1636.82 428.573 1149.25 857.114 854.777 626.08 228.697 622.37 335.455 319.274 16.1815 4.91701 292.137 270.793 241.438 238.981 1589.55 272.204 172.472 17.6005 13.0774 11.1375 154.872 149.961 1317.34
internal_count=47980 47624 26713 15677 20911 16327 4584 11036 8366 8306 6213 2093 6181 3732 3592 140 56 2670 2500 2242 2218 15600 2558 1648 267 172 154 1381 1349 13042
is_linear=0
shrinkage=0.05


Tree=28
num_leaves=31
num_cat=0
split_feature=0 1 30 2 22 17 10 17 15 31 15 28 9 3 28 16 31 3 7 20 7 16 15 28 27 6 15 16 2 16
split_gain=11.2184 9.93966 3.77081 4.0417 4.46554 3.81136 4.24319 3.72554 5.0913 5.07858 4.67255 4.3725 5.52884 4.06014 3.86595 5.17862 4.32302 3.66621 3.4697 3.42797 3.39713 2.98206 4.31948 5.34739 2.97873 4.15803 4.67434 4.22015 4.04647 3.69899
threshold=1.5000000000000002 1.5000000000000002 0.49000000000000005 7.5000000000000009 1.0000000180025095e-35 5.5000000000000009 1.5000000000000002 1.5000000000000002 43.500000000000007 0.2950000000000001 40.500000000000007 3.2916666666666674 2.5000000000000004 8.5000000000000018 2.0416666666666674 1.0000000180025095e-35 0.87000000000000011 19.500000000000004 12.500000000000002 2.5000000000000004 4.5000000000000009 82.500000000000014 42.500000000000007 17.375000000000007 1.1500000000000001 3.5000000000000004 70.500000000000014 50.500000000000007 1.5000000000000002 10.500000000000002
decision_type=2 2 2 2 2 2 2 2 2 2 2 2 2 2 2 2 2 2 2 2 2 2 2 2 2 2 2 2 2 2
